\data\
ngram 1=101
ngram 2=1204
ngram 3=2888
ngram 4=3124
ngram 5=2673

\1-grams:
-2.8978696	<unk>	0
0	<s>	-1.0846065
-1.3694111	</s>	0
-1.8393325	X	-0.23653881
-1.6927054	I	-0.5245809
-1.6585315	SIXTY	-0.63761675
-1.5973264	ONE	-0.6849596
-1.7297999	G	-0.3782119
-1.5436912	TWO	-0.7706214
-2.0225854	EIGHTY	-0.3603648
-1.6268517	NINE	-0.54587275
-2.8150542	YES	-0.2487567
-1.6927054	R	-0.5357981
-1.6424028	E	-0.62423694
-1.7921567	W	-0.34945363
-1.6927054	Y	-0.33721668
-1.5973264	EIGHT	-0.665008
-1.6268517	FIVE	-0.68091273
-1.6424028	SIX	-0.67536074
-2.8150542	NO	-0.2487567
-2.8150542	ERASE	-0.2487567
-1.6927054	H	-0.4097695
-1.9525548	ZERO	-0.5681639
-1.5973264	FOUR	-0.6220383
-2.8150542	START	-0.2487567
-2.8150542	ENTER	-0.2487567
-1.7108567	T	-0.45913994
-1.8649925	V	-0.38116086
-1.6268517	A	-0.6542534
-1.9213642	FIFTY	-0.39112297
-1.6424028	THREE	-0.55160666
-1.8922644	FORTY	-0.3933229
-1.7297999	B	-0.37108606
-1.8151044	Q	-0.2667052
-1.7496071	THIRTY	-0.44668484
-1.8151044	P	-0.30609566
-1.7496071	U	-0.30503514
-1.6927054	F	-0.34573478
-1.7297999	Z	-0.2982183
-1.6752825	O	-0.5462702
-2.8150542	RUBOUT	-0.2487567
-1.770361	N	-0.53279
-1.5696813	SEVEN	-0.5488684
-1.7108567	L	-0.5492578
-1.7108567	K	-0.32251447
-1.7496071	M	-0.3488961
-1.8151044	J	-0.25907275
-2.8150542	HELP	-0.2487567
-2.4342358	FIFTEEN	-0.355145
-2.8150542	REPEAT	-0.2487567
-1.7108567	D	-0.43577272
-1.8922644	SEVENTY	-0.44327757
-2.0623477	OH	-0.6014046
-2.8150542	GO	-0.2487567
-2.8150542	STOP	-0.2487567
-1.7496071	S	-0.4604579
-1.6927054	TWENTY	-0.36556587
-2.4342358	SEVENTEEN	-0.21537721
-2.2096455	NINETY	-0.22759584
-2.2096455	TEN	-0.3917727
-1.7921567	C	-0.40928638
-2.2724245	FOURTEEN	-0.2997712
-2.4342358	THOUSAND	-0.23653881
-2.5453494	TWELVE	-0.2487567
-2.2096455	HUNDRED	-0.32899383
-2.695044	AND	-0.23174633
-2.8150542	HALF	-0.2487567
-2.695044	ELEVEN	-0.2487567
-2.7211325	FIFTH	-0.2487567
-2.8150542	APOSTROPHE	-0.2487567
-2.8150542	AREA	-0.2487567
-2.8150542	CODE	-0.2487567
-2.8150542	MARCH	-0.2487567
-2.7211325	THIRD	-0.20741831
-1.8393325	NINETEEN	-0.5492009
-2.8150542	JUNE	-0.2487567
-2.8150542	ELEVENTH	-0.2487567
-2.8150542	SEPTEMBER	-0.2487567
-2.7211325	FIFTEENTH	-0.20741831
-2.7211325	MAY	-0.2487567
-2.7211325	FIRST	-0.20741831
-2.8150542	OCTOBER	-0.2487567
-2.8150542	JANUARY	-0.2487567
-2.7211325	SIXTEEN	-0.20741831
-2.8150542	DECEMBER	-0.2487567
-2.8150542	EIGHTEENTH	-0.2487567
-2.8150542	JULY	-0.2487567
-2.695044	THIRTIETH	-0.4440161
-2.7211325	TWELFTH	-0.20741831
-2.8150542	SEVENTH	-0.2487567
-2.8150542	OF	-0.2487567
-2.8150542	AUGUST	-0.2487567
-2.8150542	SIXTEENTH	-0.2487567
-2.8150542	SECOND	-0.2487567
-2.7211325	FEBRUARY	-0.2487567
-2.8150542	EIGHTH	-0.2487567
-2.8150542	NINTH	-0.2487567
-2.8150542	SIXTH	-0.2487567
-2.8150542	EIGHTEEN	-0.2487567
-2.8150542	APRIL	-0.2487567
-2.8150542	FOURTH	-0.2487567

\2-grams:
-1.434453	I </s>	0
-1.0542591	SIXTY </s>	0
-0.6896367	ONE </s>	0
-1.5024881	G </s>	0
-0.66632175	TWO </s>	0
-0.5370021	NINE </s>	0
-0.33711356	YES </s>	0
-1.6822534	R </s>	0
-1.0859896	E </s>	0
-1.2156621	W </s>	0
-0.72543126	Y </s>	0
-0.6445132	EIGHT </s>	0
-0.64515	FIVE </s>	0
-0.6682059	SIX </s>	0
-0.33711356	NO </s>	0
-1.19561	H </s>	0
-0.42138076	ZERO </s>	0
-0.6744088	FOUR </s>	0
-0.33711356	START </s>	0
-1.0647128	T </s>	0
-1.1406628	A </s>	0
-1.3421347	FIFTY </s>	0
-0.64554244	THREE </s>	0
-0.8484786	THIRTY </s>	0
-1.5193298	U </s>	0
-1.5556631	F </s>	0
-1.4644332	Z </s>	0
-1.2758522	O </s>	0
-1.0808631	N </s>	0
-0.6295463	SEVEN </s>	0
-1.3136368	L </s>	0
-1.0318239	K </s>	0
-1.4789529	M </s>	0
-0.33711356	HELP </s>	0
-0.3946797	FIFTEEN </s>	0
-0.33711356	REPEAT </s>	0
-1.0447052	D </s>	0
-0.9337229	SEVENTY </s>	0
-0.9293386	OH </s>	0
-0.33711356	GO </s>	0
-0.33711356	STOP </s>	0
-0.8119638	S </s>	0
-1.4943732	TWENTY </s>	0
-0.74981004	SEVENTEEN </s>	0
-0.4273998	TEN </s>	0
-1.5895598	C </s>	0
-0.93422586	FOURTEEN </s>	0
-1.0601343	THOUSAND </s>	0
-1.104602	TWELVE </s>	0
-1.0178565	HUNDRED </s>	0
-0.33711356	HALF </s>	0
-0.8758175	ELEVEN </s>	0
-2.3357766	<s> X	-0.11703199
-1.4495201	X X	-0.11703199
-2.1805387	E X	-0.11703199
-1.7971334	W X	-0.11703199
-1.489603	ERASE X	-0.11703199
-1.8972899	H X	-0.11703199
-1.7415744	V X	-0.11703199
-2.1758733	A X	-0.11703199
-1.3583019	B X	-0.11703203
-1.7889817	U X	-0.11703199
-1.3546476	F X	-0.11703203
-1.696583	Z X	-0.11703199
-1.5666672	RUBOUT X	-0.11703199
-1.8766006	N X	-0.11703199
-1.6787543	K X	-0.11703199
-1.8369023	M X	-0.11703199
-1.6739503	J X	-0.11703199
-1.9271064	S X	-0.11703199
-2.2929385	<s> I	-0.11703199
-1.5631614	X I	-0.11703199
-1.0160819	G I	-0.11703203
-1.0317485	R I	-0.15181333
-1.5852727	E I	-0.1779488
-1.1392407	W I	-0.14604484
-1.4477242	ERASE I	-0.11703199
-1.2595766	H I	-0.11703199
-1.306451	T I	-0.15361133
-0.93052864	V I	-0.14107272
-1.7045956	A I	-0.11703203
-1.7648792	B I	-0.11703199
-1.5847635	Q I	-0.11703199
-1.5373912	P I	-0.11703203
-1.7181383	U I	-0.11703199
-1.6189889	F I	-0.11703199
-1.4874735	Z I	-0.11703199
-1.5171051	RUBOUT I	-0.11703199
-1.1902337	N I	-0.14642319
-1.1723831	L I	-0.14939146
-1.3446133	K I	-0.15361133
-1.1994529	M I	-0.14604484
-1.8524507	D I	-0.11703199
-1.858823	S I	-0.11703199
-1.769775	C I	-0.11703199
-2.5691292	<s> SIXTY	-0.11703199
-1.9204448	I SIXTY	-0.11703199
-1.6480953	ONE SIXTY	-0.11703203
-2.114262	TWO SIXTY	-0.11703199
-1.8976226	NINE SIXTY	-0.11703199
-1.9513946	R SIXTY	-0.11703199
-2.0105734	EIGHT SIXTY	-0.11703199
-1.8897272	SIX SIXTY	-0.11703199
-1.8452003	FOUR SIXTY	-0.11703199
-1.4662017	ENTER SIXTY	-0.11703199
-1.8555481	T SIXTY	-0.11703199
-1.6008549	FIFTY SIXTY	-0.11703199
-1.3651597	THREE SIXTY	-0.15361133
-1.6592692	THIRTY SIXTY	-0.11703199
-1.47646	Z SIXTY	-0.19355738
-1.9672867	O SIXTY	-0.11703199
-1.5405996	SEVEN SIXTY	-0.11703203
-1.0136794	FIFTEEN SIXTY	-0.11703199
-1.3138388	TEN SIXTY	-0.11703199
-0.6001417	FOURTEEN SIXTY	-0.11703203
-1.1746676	TWELVE SIXTY	-0.11703199
-0.9996373	AND SIXTY	-0.11703199
-0.9158122	ELEVEN SIXTY	-0.11703199
-0.23584126	NINETEEN SIXTY	-0.3127701
-0.4052267	SIXTEEN SIXTY	-0.11703199
-0.348309	OF SIXTY	-0.11703199
-0.348309	NINTH SIXTY	-0.11703199
-1.0082493	<s> ONE	-0.67790914
-0.98197544	SIXTY ONE	-0.5013436
-1.3781651	ONE ONE	-0.11703203
-1.3096225	TWO ONE	-0.16609275
-1.3750025	EIGHTY ONE	-0.11703199
-1.4505292	NINE ONE	-0.11703203
-1.9153637	R ONE	-0.11703199
-1.5561837	Y ONE	-0.11703199
-1.296429	EIGHT ONE	-0.13755576
-1.1347511	FIVE ONE	-0.15709472
-1.2304449	SIX ONE	-0.15361133
-1.7728605	H ONE	-0.11703199
-1.1080621	ZERO ONE	-0.16652274
-1.0534259	FOUR ONE	-0.161312
-1.4430264	ENTER ONE	-0.11703203
-1.0893223	FIFTY ONE	-0.15361133
-1.3558675	THREE ONE	-0.14604484
-1.333648	FORTY ONE	-0.19355738
-1.7143445	B ONE	-0.11703199
-1.5419309	Q ONE	-0.11703199
-0.77528185	THIRTY ONE	-0.15078914
-1.6654401	U ONE	-0.11703199
-1.3819098	SEVEN ONE	-0.11703199
-1.4325898	J ONE	-0.11703199
-1.6824985	D ONE	-0.11703199
-0.57170886	SEVENTY ONE	-0.5013436
-1.0382817	OH ONE	-0.14604484
-1.8077836	S ONE	-0.11703199
-1.6105069	TWENTY ONE	-0.11703199
-1.1581974	NINETY ONE	-0.11703199
-1.1137779	THOUSAND ONE	-0.11703199
-1.777787	<s> G	-0.16175996
-1.5787417	X G	-0.11703199
-1.3759565	I G	-0.15361133
-1.4257182	R G	-0.11703199
-1.7364991	E G	-0.11703199
-1.7493063	W G	-0.11703199
-1.7484193	Y G	-0.11703199
-1.4592834	ERASE G	-0.11703199
-1.7099463	H G	-0.11703199
-1.4645807	T G	-0.11703203
-1.7127728	A G	-0.11703203
-1.7831212	B G	-0.11703199
-1.6000342	Q G	-0.11703199
-1.6966338	P G	-0.11703199
-1.3076315	U G	-0.11703203
-1.7707398	F G	-0.11703199
-1.6536446	Z G	-0.11703199
-2.0070963	O G	-0.11703199
-1.5306982	RUBOUT G	-0.11703199
-1.395406	N G	-0.11703199
-1.8311287	L G	-0.11703199
-1.7846907	M G	-0.11703199
-1.6294303	J G	-0.11703199
-1.5520377	<s> TWO	-0.29737166
-1.4926817	X TWO	-0.11703199
-1.0705662	SIXTY TWO	-0.27485883
-1.2129558	ONE TWO	-0.20733096
-1.5929183	G TWO	-0.11703199
-1.1143188	TWO TWO	-0.18216152
-1.2916701	NINE TWO	-0.15361133
-2.0020497	E TWO	-0.11703199
-1.6523027	W TWO	-0.11703199
-1.1293648	EIGHT TWO	-0.1656096
-0.9645707	FIVE TWO	-0.1975877
-1.2252959	SIX TWO	-0.13755576
-1.7407851	H TWO	-0.11703199
-1.4454207	ZERO TWO	-0.11703199
-1.3809174	FOUR TWO	-0.17312524
-1.4210255	ENTER TWO	-0.11703199
-2.0087655	A TWO	-0.11703199
-1.4006901	FIFTY TWO	-0.11703199
-1.1529319	THREE TWO	-0.15909785
-1.3212506	FORTY TWO	-0.19355738
-1.515556	Q TWO	-0.11703199
-0.98111993	THIRTY TWO	-0.1779488
-1.6335553	U TWO	-0.11703199
-1.2961748	F TWO	-0.16652274
-1.5651776	Z TWO	-0.11703199
-1.897183	O TWO	-0.11703199
-1.372196	SEVEN TWO	-0.11703199
-1.8688987	L TWO	-0.11703199
-1.5579591	K TWO	-0.11703199
-1.6802505	M TWO	-0.11703199
-1.657752	D TWO	-0.11703199
-0.78507537	SEVENTY TWO	-0.3252523
-1.034354	OH TWO	-0.14107272
-1.443013	TWENTY TWO	-0.11703199
-1.6940508	C TWO	-0.11703199
-1.929581	G EIGHTY	-0.11703199
-2.2538378	TWO EIGHTY	-0.11703199
-2.040312	NINE EIGHTY	-0.11703199
-2.1710594	SIX EIGHTY	-0.11703199
-1.566133	ENTER EIGHTY	-0.11703199
-2.016929	T EIGHTY	-0.11703199
-2.0869677	THREE EIGHTY	-0.11703199
-1.8605192	U EIGHTY	-0.11703199
-1.8998896	K EIGHTY	-0.11703199
-1.2271929	FOURTEEN EIGHTY	-0.11703199
-1.0947636	HUNDRED EIGHTY	-0.11703199
-1.0325601	AND EIGHTY	-0.11703199
-2.1128266	<s> NINE	-0.11703203
-1.5335834	X NINE	-0.11703199
-0.9835726	SIXTY NINE	-0.5013436
-1.1029037	ONE NINE	-0.16652274
-1.6299345	G NINE	-0.11703199
-1.3121253	TWO NINE	-0.15909785
-0.8312134	EIGHTY NINE	-0.16652274
-1.3038938	NINE NINE	-0.1779488
-1.4125245	EIGHT NINE	-0.17713548
-1.30112	FIVE NINE	-0.14604484
-1.4349301	SIX NINE	-0.16506267
-1.7898328	H NINE	-0.11703199
-1.5450885	FOUR NINE	-0.11703199
-1.4544594	ENTER NINE	-0.11703199
-1.6589693	V NINE	-0.11703199
-1.5893166	FIFTY NINE	-0.11703199
-1.3604888	THREE NINE	-0.15361133
-0.99562544	FORTY NINE	-0.16652274
-1.4822636	THIRTY NINE	-0.19355738
-1.6071624	Z NINE	-0.11703199
-1.3868495	SEVEN NINE	-0.15361133
-1.9166061	L NINE	-0.11703199
-1.7141838	K NINE	-0.11703199
-1.3144348	SEVENTY NINE	-0.16652274
-1.3217688	OH NINE	-0.11703203
-1.4696829	TWENTY NINE	-0.16652274
-1.11925	THOUSAND NINE	-0.11703199
-1.1686271	TWELVE NINE	-0.11703199
-0.9124735	ELEVEN NINE	-0.11703199
-1.6749952	<s> YES	-1.001946
-1.8394506	<s> R	-0.18960188
-1.5631614	X R	-0.11703199
-1.8080858	I R	-0.11703199
-1.7883465	G R	-0.11703199
-1.4201549	R R	-0.11703199
-1.0067885	E R	-0.22347124
-1.7315589	W R	-0.11703199
-1.7302116	Y R	-0.11703199
-1.4477242	ERASE R	-0.11703199
-1.6957798	H R	-0.11703199
-1.4573363	T R	-0.1779488
-1.6872231	V R	-0.11703199
-0.97043693	A R	-0.20027162
-1.6284658	B R	-0.14107272
-1.6792555	P R	-0.11703199
-1.1493416	U R	-0.11703199
-1.3296102	F R	-0.11703203
-1.4874735	Z R	-0.19355738
-1.005714	O R	-0.15068552
-1.5171051	RUBOUT R	-0.11703203
-1.9530813	N R	-0.11703199
-1.8175379	L R	-0.11703203
-1.7512777	K R	-0.11703199
-1.0125657	D R	-0.14642319
-1.769775	C R	-0.11703199
-1.7689786	<s> E	-0.19758382
-1.1654658	I E	-0.15361133
-1.6364226	G E	-0.11703199
-1.0283716	R E	-0.1959639
-1.2552167	E E	-0.13291043
-1.284451	W E	-0.11703203
-1.7042559	Y E	-0.11703199
-1.4309428	ERASE E	-0.11703199
-1.0543559	H E	-0.14107272
-0.9657067	T E	-0.18356816
-0.9267115	V E	-0.17105712
-1.9555367	A E	-0.11703199
-1.0626203	B E	-0.14305758
-1.414357	Q E	-0.11703199
-1.5193396	P E	-0.11703199
-1.5668929	U E	-0.11703199
-1.0597068	F E	-0.11703199
-1.167753	Z E	-0.16652274
-1.9578794	O E	-0.11703199
-1.4974816	RUBOUT E	-0.11703199
-0.94738156	N E	-0.16255862
-0.80843216	L E	-0.17663893
-0.9915399	K E	-0.13493669
-1.0819192	M E	-0.14107272
-1.5890527	J E	-0.11703199
-1.0813925	D E	-0.16652274
-1.4213206	S E	-0.14604484
-1.3107408	C E	-0.11703199
-1.9741241	<s> W	-0.21676211
-1.6032132	X W	-0.11703199
-1.6921439	G W	-0.11703199
-1.8845521	R W	-0.11703199
-1.330331	E W	-0.15544966
-1.7773663	W W	-0.11703199
-1.6274107	Y W	-0.11703199
-1.47722	ERASE W	-0.11703199
-1.87567	H W	-0.11703199
-1.9234992	T W	-0.11703199
-2.0175016	A W	-0.11703203
-1.6239969	Q W	-0.11703199
-1.678895	Z W	-0.11703199
-1.2530102	O W	-0.17074268
-1.5519202	RUBOUT W	-0.11703199
-1.3640174	K W	-0.11703199
-1.6555911	J W	-0.11703199
-1.1849371	D W	-0.17713548
-1.7580508	S W	-0.11703199
-1.8132429	C W	-0.11703199
-2.4065259	<s> Y	-0.11703203
-1.4101294	X Y	-0.11703199
-1.9387758	I Y	-0.11703199
-1.5683731	R Y	-0.14107272
-1.9861759	E Y	-0.16652274
-1.7315589	W Y	-0.11703203
-1.7302116	Y Y	-0.11703199
-1.4477242	ERASE Y	-0.11703199
-1.4102887	H Y	-0.11703203
-1.5297074	V Y	-0.11703199
-1.4483595	A Y	-0.14604484
-1.7648792	B Y	-0.11703199
-1.5847635	Q Y	-0.11703199
-1.6792555	P Y	-0.11703199
-1.7181383	U Y	-0.11703199
-1.6189889	F Y	-0.11703199
-1.6375914	Z Y	-0.11703199
-1.9867355	O Y	-0.11703199
-1.5171051	RUBOUT Y	-0.11703199
-1.9530813	N Y	-0.11703199
-1.5266832	L Y	-0.15361133
-1.6248919	K Y	-0.19355738
-1.6354384	M Y	-0.11703199
-1.7224813	D Y	-0.11703199
-1.6247213	C Y	-0.11703199
-2.0447378	<s> EIGHT	-0.13755576
-1.1922104	SIXTY EIGHT	-0.3252523
-1.2178499	ONE EIGHT	-0.14305758
-1.1175141	TWO EIGHT	-0.18102595
-1.3750025	EIGHTY EIGHT	-0.11703199
-1.7361349	NINE EIGHT	-0.11703199
-1.9390281	E EIGHT	-0.11703199
-1.5557424	W EIGHT	-0.19355738
-1.5561837	Y EIGHT	-0.11703199
-1.4085095	EIGHT EIGHT	-0.16652274
-1.2981216	FIVE EIGHT	-0.16506267
-1.2304449	SIX EIGHT	-0.18456961
-1.638626	ZERO EIGHT	-0.11703199
-1.1896648	FOUR EIGHT	-0.15361133
-1.4430264	ENTER EIGHT	-0.11703199
-0.80831414	FIFTY EIGHT	-0.16506267
-1.158732	THREE EIGHT	-0.24424388
-1.508894	FORTY EIGHT	-0.11703199
-1.7143445	B EIGHT	-0.11703199
-1.4745032	THIRTY EIGHT	-0.19355738
-1.63094	P EIGHT	-0.11703199
-1.7000391	F EIGHT	-0.11703199
-1.9308218	O EIGHT	-0.11703199
-1.1146493	SEVEN EIGHT	-0.1656096
-1.6967611	K EIGHT	-0.11703199
-1.7123519	M EIGHT	-0.11703199
-1.4940737	SEVENTY EIGHT	-0.11703199
-0.94576323	OH EIGHT	-0.13493669
-0.9906904	TWENTY EIGHT	-0.15361133
-1.1581974	NINETY EIGHT	-0.11703199
-0.90955174	THOUSAND EIGHT	-0.19355738
-1.7384253	<s> FIVE	-0.23509516
-1.5335834	X FIVE	-0.11703199
-1.9028563	I FIVE	-0.11703199
-1.6855365	SIXTY FIVE	-0.19355738
-1.1029037	ONE FIVE	-0.21298812
-1.2378491	TWO FIVE	-0.14939146
-1.3825288	EIGHTY FIVE	-0.11703199
-1.1912676	NINE FIVE	-0.11703203
-1.6981019	W FIVE	-0.11703199
-1.0170494	EIGHT FIVE	-0.14604484
-1.4145913	FIVE FIVE	-0.15361133
-1.4349301	SIX FIVE	-0.14604484
-1.6471949	ZERO FIVE	-0.11703199
-1.2813829	FOUR FIVE	-0.14107272
-1.4544594	ENTER FIVE	-0.11703199
-0.92895776	FIFTY FIVE	-0.1779488
-1.2497947	THREE FIVE	-0.11703203
-0.8278894	FORTY FIVE	-0.3252523
-1.7305448	B FIVE	-0.11703199
-1.5557443	Q FIVE	-0.11703199
-0.8699252	THIRTY FIVE	-0.27485883
-1.5603504	U FIVE	-0.11703199
-1.59273	F FIVE	-0.11703199
-1.9486716	O FIVE	-0.11703199
-1.3868495	SEVEN FIVE	-0.14604484
-1.1585929	OH FIVE	-0.1779488
-1.623376	TWENTY FIVE	-0.11703199
-1.1643902	NINETY FIVE	-0.11703199
-1.7378843	C FIVE	-0.11703199
-1.6404665	<s> SIX	-0.20743307
-1.3598797	SIXTY SIX	-0.20031358
-1.2950387	ONE SIX	-0.15078914
-1.1199262	TWO SIX	-0.35404006
-0.66042036	EIGHTY SIX	-0.3252523
-1.1032158	NINE SIX	-0.15909785
-1.3010851	EIGHT SIX	-0.14107272
-1.5714122	FIVE SIX	-0.15909785
-1.2343472	SIX SIX	-0.16652274
-0.72489727	ZERO SIX	-0.15667957
-1.2830323	FOUR SIX	-0.13755576
-1.4602909	ENTER SIX	-0.11703203
-1.9555367	A SIX	-0.11703203
-0.93020403	FIFTY SIX	-0.15667957
-1.362818	THREE SIX	-0.14604484
-1.523249	FORTY SIX	-0.11703199
-1.7388773	B SIX	-0.11703199
-1.5628194	Q SIX	-0.11703199
-1.4861963	THIRTY SIX	-0.19355738
-1.7252226	F SIX	-0.11703199
-1.614572	Z SIX	-0.11703199
-1.9254943	N SIX	-0.11703199
-1.5370748	SEVEN SIX	-0.11703203
-1.6037072	K SIX	-0.11703199
-1.5064113	SEVENTY SIX	-0.11703199
-0.8715456	OH SIX	-0.1656096
-0.9952792	TWENTY SIX	-0.15361133
-0.9648832	NINETY SIX	-0.19355738
-1.7540402	<s> NO	-0.9273123
-1.5502267	<s> ERASE	-0.15587756
-1.7742422	<s> H	-0.19758382
-1.5631614	X H	-0.11703199
-1.1050885	G H	-0.14107272
-1.9705967	R H	-0.11703199
-2.0980039	E H	-0.11703199
-1.5920175	W H	-0.11703199
-1.7302116	Y H	-0.11703199
-1.8259068	H H	-0.11703199
-0.8653885	T H	-0.2602072
-1.5578479	A H	-0.15361133
-1.7648792	B H	-0.11703199
-1.2362169	P H	-0.11703199
-1.6189889	F H	-0.11703199
-1.6375914	Z H	-0.11703199
-1.5887805	O H	-0.16652274
-1.5171051	RUBOUT H	-0.11703203
-1.8241698	N H	-0.11703199
-1.951596	L H	-0.11703199
-1.6248919	K H	-0.11703199
-1.6354384	M H	-0.11703199
-1.4661238	J H	-0.11703199
-1.8524507	D H	-0.11703199
-1.7236623	S H	-0.11703199
-0.88187826	C H	-0.15181333
-0.3492172	APOSTROPHE H	-0.11703199
-1.4737446	X ZERO	-0.19355738
-1.5286915	ONE ZERO	-0.11703199
-1.7132446	TWO ZERO	-0.17713548
-2.0183537	NINE ZERO	-0.11703199
-1.4438826	EIGHT ZERO	-0.15361133
-1.4449308	FIVE ZERO	-0.15361133
-2.1490388	SIX ZERO	-0.11703199
-1.7174951	ZERO ZERO	-0.11703199
-2.1048954	FOUR ZERO	-0.11703199
-1.5514039	ENTER ZERO	-0.11703199
-1.894643	THREE ZERO	-0.11703203
-1.5892315	SEVEN ZERO	-0.16652274
-2.0655172	L ZERO	-0.11703199
-1.9715595	S ZERO	-0.11703199
-1.4731421	<s> FOUR	-0.40401593
-1.5195171	X FOUR	-0.11703199
-1.8859526	I FOUR	-0.11703199
-1.1922104	SIXTY FOUR	-0.27485883
-1.2906517	ONE FOUR	-0.15909785
-1.068623	TWO FOUR	-0.32715398
-1.3750025	EIGHTY FOUR	-0.11703199
-1.2997808	NINE FOUR	-0.15361133
-1.7006513	E FOUR	-0.11703203
-1.070503	EIGHT FOUR	-0.26642773
-1.2981216	FIVE FOUR	-0.14604484
-0.9901145	SIX FOUR	-0.19684231
-1.7728605	H FOUR	-0.11703199
-1.638626	ZERO FOUR	-0.11703199
-1.1896648	FOUR FOUR	-0.17105712
-1.4430264	ENTER FOUR	-0.11703199
-1.8210143	T FOUR	-0.11703199
-1.5780771	FIFTY FOUR	-0.11703199
-1.7770169	THREE FOUR	-0.14604484
-1.508894	FORTY FOUR	-0.11703199
-1.63094	P FOUR	-0.11703199
-1.2795308	U FOUR	-0.11703203
-1.9308218	O FOUR	-0.11703199
-1.3819098	SEVEN FOUR	-0.15361133
-1.7123519	M FOUR	-0.11703199
-1.4325898	J FOUR	-0.11703199
-1.6413423	OH FOUR	-0.11703199
-1.1492512	TWENTY FOUR	-0.11703203
-0.95901334	NINETY FOUR	-0.19355738
-1.1626694	TWELVE FOUR	-0.11703199
-0.34649822	CODE FOUR	-0.11703199
-1.9753449	<s> START	-0.72319233
-1.0557241	<s> ENTER	-0.40598133
-1.8415066	<s> T	-0.17472716
-1.2610208	I T	-0.16652274
-1.7977215	G T	-0.11703199
-1.5722786	R T	-0.1779488
-1.3949027	E T	-0.20031358
-1.7403419	W T	-0.11703199
-2.0424278	FIVE T	-0.11703199
-1.7028053	H T	-0.11703199
-1.3089963	T T	-0.15361133
-1.2273775	A T	-0.23100701
-1.435116	Q T	-0.11703199
-1.5435791	P T	-0.11703203
-1.5940952	U T	-0.11703199
-1.3330998	F T	-0.11703203
-1.6455438	Z T	-0.11703199
-1.3337305	O T	-0.11703199
-1.5238484	RUBOUT T	-0.11703203
-1.2808148	N T	-0.14107272
-1.9608024	L T	-0.11703199
-1.3484254	K T	-0.11703203
-1.7749615	M T	-0.11703199
-1.6210489	J T	-0.11703199
-1.0776495	S T	-0.16652274
-1.7781276	C T	-0.11703199
-1.9362468	<s> V	-0.21650016
-1.6291463	X V	-0.11703199
-1.5514838	I V	-0.11703203
-1.7150319	G V	-0.11703199
-2.057221	R V	-0.11703199
-1.499582	E V	-0.16506267
-1.808126	Y V	-0.11703199
-1.4959296	ERASE V	-0.11703203
-1.9562256	T V	-0.11703199
-1.3759335	A V	-0.17301503
-1.8429507	B V	-0.11703199
-1.8325183	F V	-0.11703199
-1.5742328	RUBOUT V	-0.11703199
-1.8365808	K V	-0.11703199
-1.6951861	M V	-0.11703199
-1.6834294	J V	-0.11703199
-1.4591829	S V	-0.11703203
-1.7384253	<s> A	-0.16904978
-1.507714	I A	-0.11703203
-1.0974629	G A	-0.14107272
-1.0272516	R A	-0.14038368
-1.2006155	E A	-0.14332575
-1.1304384	W A	-0.14107272
-1.6959376	Y A	-0.11703199
-1.4254901	ERASE A	-0.11703199
-0.98010314	H A	-0.14412205
-1.8379381	T A	-0.11703199
-0.834145	V A	-0.15361133
-1.5464427	A A	-0.11703199
-1.0608509	B A	-0.14604484
-1.2241035	P A	-0.11703199
-1.5603504	U A	-0.11703199
-1.7166649	F A	-0.11703199
-1.009711	Z A	-0.11703199
-1.5731529	O A	-0.11703199
-1.4911326	RUBOUT A	-0.11703199
-1.111205	N A	-0.14604484
-0.9760225	L A	-0.16585843
-1.5968692	K A	-0.11703199
-1.0799729	M A	-0.14880607
-1.4434825	J A	-0.11703199
-1.1670883	D A	-0.1656096
-1.8241392	S A	-0.11703199
-1.1545832	C A	-0.16652274
-1.178182	FOURTEEN A	-0.11703199
-0.7805728	AND A	-0.19355738
-2.0409672	<s> FIFTY	-0.1656096
-1.9399965	SIXTY FIFTY	-0.11703199
-1.6897975	ONE FIFTY	-0.11703203
-2.2221034	TWO FIFTY	-0.11703199
-1.8362855	NINE FIFTY	-0.11703199
-1.9318823	H FIFTY	-0.11703199
-2.0940664	FOUR FIFTY	-0.11703199
-1.5442225	ENTER FIFTY	-0.11703199
-1.979499	T FIFTY	-0.11703199
-1.7671254	V FIFTY	-0.11703199
-1.4858044	Q FIFTY	-0.11703199
-2.0697346	SEVEN FIFTY	-0.11703199
-0.7980832	SEVENTEEN FIFTY	-0.11703199
-1.2127893	TWELVE FIFTY	-0.11703199
-1.362956	NINETEEN FIFTY	-0.19355738
-1.7400538	<s> THREE	-0.16255862
-1.5407912	X THREE	-0.11703199
-0.9077578	SIXTY THREE	-0.42098683
-1.6447943	ONE THREE	-0.19355738
-1.4033257	TWO THREE	-0.15909785
-1.3863416	EIGHTY THREE	-0.11703199
-1.305965	NINE THREE	-0.15361133
-1.9619626	E THREE	-0.11703199
-1.7042559	Y THREE	-0.11703199
-1.414546	EIGHT THREE	-0.13493669
-1.302627	FIVE THREE	-0.17301503
-1.2343472	SIX THREE	-0.14939146
-1.7985742	H THREE	-0.11703199
-1.395657	FOUR THREE	-0.14604484
-1.4602909	ENTER THREE	-0.11703199
-1.427301	FIFTY THREE	-0.11703199
-1.2515988	THREE THREE	-0.15361133
-0.8288716	FORTY THREE	-0.11703199
-1.4861963	THIRTY THREE	-0.19355738
-1.6544262	P THREE	-0.11703199
-1.6909903	U THREE	-0.11703199
-1.9254943	N THREE	-0.11703199
-1.5370748	SEVEN THREE	-0.11703203
-1.9250928	L THREE	-0.11703199
-1.7231646	K THREE	-0.11703199
-1.3236675	OH THREE	-0.11703203
-0.87829924	TWENTY THREE	-0.27485883
-1.1220123	THOUSAND THREE	-0.11703199
-2.8052382	<s> FORTY	-0.11703199
-1.9974523	NINE FORTY	-0.11703199
-2.108819	EIGHT FORTY	-0.11703199
-2.1144156	FIVE FORTY	-0.11703199
-2.128081	SIX FORTY	-0.11703199
-1.9171791	FOUR FORTY	-0.11703199
-1.5371579	ENTER FORTY	-0.11703203
-1.8790332	THREE FORTY	-0.11703199
-1.691553	B FORTY	-0.11703199
-1.7635986	P FORTY	-0.11703199
-2.0869706	O FORTY	-0.11703199
-1.9011447	SEVEN FORTY	-0.19355738
-1.8596812	M FORTY	-0.11703199
-1.9467177	D FORTY	-0.11703199
-1.3044062	HUNDRED FORTY	-0.11703199
-1.3606132	NINETEEN FORTY	-0.19355738
-1.512174	<s> B	-0.37275338
-1.5787417	X B	-0.11703199
-1.9579147	I B	-0.11703199
-1.8073034	G B	-0.11703199
-1.4257182	R B	-0.11703199
-2.0031023	E B	-0.11703199
-1.6048154	W B	-0.11703199
-1.6067984	Y B	-0.11703199
-1.4592834	ERASE B	-0.11703199
-1.2647117	H B	-0.11703199
-1.893067	T B	-0.11703199
-2.1197207	A B	-0.11703199
-1.7831212	B B	-0.11703199
-1.6966338	P B	-0.11703199
-1.7372282	U B	-0.11703199
-1.6327387	F B	-0.11703199
-1.5968103	O B	-0.11703203
-1.395406	N B	-0.11703199
-1.7846907	M B	-0.11703199
-1.6294303	J B	-0.11703199
-1.7366709	D B	-0.11703199
-1.4381227	S B	-0.16652274
-1.7866437	C B	-0.11703199
-2.6675413	<s> Q	-0.11703199
-1.5438756	I Q	-0.11703203
-1.847896	G Q	-0.11703199
-2.033892	R Q	-0.11703199
-2.1677434	E Q	-0.11703199
-1.7871375	W Q	-0.11703199
-1.7872982	Y Q	-0.11703199
-1.4833674	ERASE Q	-0.11703199
-1.8863454	H Q	-0.11703199
-1.7871543	T Q	-0.11703199
-1.5612978	V Q	-0.19355738
-1.1277431	Q Q	-0.11703203
-1.7781259	U Q	-0.11703199
-1.8109342	F Q	-0.11703199
-2.0509264	O Q	-0.11703199
-1.5592312	RUBOUT Q	-0.11703199
-1.8259457	M Q	-0.11703199
-1.6646737	J Q	-0.11703199
-1.7665217	D Q	-0.11703199
-2.310783	<s> THIRTY	-0.11703199
-1.96781	I THIRTY	-0.11703199
-1.967614	ONE THIRTY	-0.19355738
-1.6886678	TWO THIRTY	-0.16652274
-1.7896066	NINE THIRTY	-0.11703199
-2.0010922	R THIRTY	-0.11703199
-2.1314754	E THIRTY	-0.11703199
-2.0524998	EIGHT THIRTY	-0.11703199
-1.905169	FIVE THIRTY	-0.11703199
-1.920326	SIX THIRTY	-0.11703199
-2.024996	FOUR THIRTY	-0.11703199
-1.497026	ENTER THIRTY	-0.11703199
-1.7096891	V THIRTY	-0.11703199
-1.9780891	THREE THIRTY	-0.11703199
-1.7804451	F THIRTY	-0.11703199
-1.8549812	SEVEN THIRTY	-0.11703199
-1.9798223	L THIRTY	-0.11703199
-1.7946429	M THIRTY	-0.11703199
-1.8867837	S THIRTY	-0.11703199
-1.008557	SEVENTEEN THIRTY	-0.11703199
-1.3291794	TEN THIRTY	-0.11703199
-1.7953304	C THIRTY	-0.11703199
-1.2149843	<s> P	-0.703984
-1.6116867	X P	-0.11703199
-1.5438756	I P	-0.11703203
-1.847896	G P	-0.11703199
-2.0390725	E P	-0.11703199
-1.7871375	W P	-0.11703199
-1.7872982	Y P	-0.11703199
-1.8863454	H P	-0.11703199
-1.9341364	T P	-0.11703199
-1.733381	V P	-0.11703199
-1.7296045	A P	-0.11703203
-1.8220781	B P	-0.11703199
-1.6322875	Q P	-0.11703199
-1.9114252	O P	-0.11703199
-1.5592312	RUBOUT P	-0.11703199
-1.5629615	N P	-0.11703203
-1.6794611	M P	-0.11703203
-1.9129703	D P	-0.11703199
-1.4520488	S P	-0.11703203
-2.7042089	<s> U	-0.11703199
-1.96781	I U	-0.11703199
-1.8171014	G U	-0.11703199
-1.8687391	R U	-0.11703199
-1.7411954	E U	-0.11703203
-1.613561	Y U	-0.11703199
-1.7172067	H U	-0.11703199
-2.001162	A U	-0.11703199
-1.0733902	B U	-0.35404006
-1.6078757	Q U	-0.11703199
-1.5562259	P U	-0.11703199
-1.6618993	Z U	-0.11703199
-1.112657	O U	-0.13291043
-1.5376576	RUBOUT U	-0.11703199
-1.8458699	N U	-0.11703199
-1.8380871	L U	-0.11703203
-1.647163	K U	-0.11703199
-1.3611023	M U	-0.11703203
-1.4839146	J U	-0.11703199
-1.8816571	D U	-0.11703199
-1.8867837	S U	-0.11703199
-1.7953304	C U	-0.11703199
-1.8761365	<s> F	-0.16046996
-1.5631614	X F	-0.11703199
-1.8080858	I F	-0.11703199
-1.8460497	R F	-0.11703199
-1.727256	E F	-0.11703203
-1.7315589	W F	-0.11703199
-1.5935811	Y F	-0.11703199
-1.4477242	ERASE F	-0.11703199
-1.6957798	H F	-0.11703199
-1.7433769	T F	-0.11703199
-1.6872231	V F	-0.11703199
-1.9777505	A F	-0.11703199
-1.5847635	Q F	-0.11703199
-1.6792555	P F	-0.11703199
-1.5871333	U F	-0.11703199
-1.3296102	F F	-0.11703203
-1.5887805	O F	-0.11703203
-1.5171051	RUBOUT F	-0.11703203
-1.9530813	N F	-0.11703199
-1.5266832	L F	-0.11703203
-1.6248919	K F	-0.11703199
-1.7654455	M F	-0.11703199
-1.7224813	D F	-0.11703199
-1.7236623	S F	-0.11703199
-1.769775	C F	-0.11703199
-2.4219353	<s> Z	-0.11703203
-1.5787417	X Z	-0.11703199
-1.8610436	R Z	-0.11703199
-2.0031023	E Z	-0.11703199
-1.6048154	W Z	-0.11703199
-1.6067984	Y Z	-0.11703199
-1.4592834	ERASE Z	-0.11703199
-1.8451333	H Z	-0.11703199
-1.893067	T Z	-0.11703199
-1.7020706	V Z	-0.11703199
-1.7831212	B Z	-0.11703199
-1.6000342	Q Z	-0.11703199
-1.7707398	F Z	-0.11703199
-1.6536446	Z Z	-0.11703199
-2.0070963	O Z	-0.11703199
-1.5306982	RUBOUT Z	-0.11703199
-1.8385154	N Z	-0.11703199
-1.8311287	L Z	-0.11703199
-1.6396117	K Z	-0.11703199
-1.6294303	J Z	-0.11703199
-1.8717018	D Z	-0.11703199
-1.877262	S Z	-0.11703199
-1.6367332	C Z	-0.11703199
-2.006488	<s> O	-0.1656096
-1.9295137	I O	-0.11703199
-1.7791696	G O	-0.11703199
-1.0851109	R O	-0.16600068
-2.0873966	E O	-0.11703199
-1.0237373	W O	-0.16506267
-1.7213862	Y O	-0.11703199
-1.4420581	ERASE O	-0.11703199
-1.0575502	H O	-0.117031954
-1.1927284	T O	-0.14107272
-1.6799855	V O	-0.11703199
-1.1787632	B O	-0.19355738
-1.2331567	P O	-0.11703199
-1.7088991	U O	-0.11703199
-1.0634568	F O	-0.16506267
-1.1731284	Z O	-0.11703203
-1.2421309	O O	-0.11703199
-1.5104649	RUBOUT O	-0.11703199
-1.38759	N O	-0.11703199
-1.3718888	L O	-0.11703199
-1.741703	K O	-0.11703199
-1.1969035	M O	-0.1656096
-1.155911	J O	-0.11703199
-1.1729567	D O	-0.13755576
-0.93759423	S O	-0.36918265
-1.160645	C O	-0.15361133
-1.1903633	<s> RUBOUT	-0.22993544
-1.8851575	<s> N	-0.23020773
-1.5949018	X N	-0.11703199
-0.77837586	I N	-0.22999707
-1.2272401	G N	-0.11703199
-1.4313534	R N	-0.14604484
-1.1196399	E N	-0.22754703
-1.6180017	W N	-0.11703203
-1.6204307	Y N	-0.11703199
-1.7245904	H N	-0.11703203
-1.9131165	T N	-0.11703199
-1.7174437	V N	-0.11703199
-1.043665	A N	-0.21298812
-1.1225357	Q N	-0.11703203
-1.5626901	P N	-0.11703199
-1.6156769	U N	-0.11703199
-0.96591264	O N	-0.15591048
-1.5447303	RUBOUT N	-0.11703199
-1.2869151	N N	-0.13755576
-1.6642857	M N	-0.11703199
-1.8918461	D N	-0.11703199
-1.8965188	S N	-0.11703199
-1.8970567	<s> SEVEN	-0.11703199
-0.9044113	SIXTY SEVEN	-0.42098683
-1.4833224	ONE SEVEN	-0.11703199
-1.2336386	TWO SEVEN	-0.15544966
-1.3676044	EIGHTY SEVEN	-0.11703199
-1.7250961	NINE SEVEN	-0.11703199
-1.8984106	R SEVEN	-0.11703199
-1.6641719	Y SEVEN	-0.11703199
-1.4045311	EIGHT SEVEN	-0.14107272
-1.4068463	FIVE SEVEN	-0.17713548
-1.3160053	SIX SEVEN	-0.16652274
-1.7565268	H SEVEN	-0.11703199
-1.6302228	ZERO SEVEN	-0.11703199
-1.1870073	FOUR SEVEN	-0.15361133
-1.4318867	ENTER SEVEN	-0.11703199
-1.6324419	V SEVEN	-0.11703199
-1.4081283	FIFTY SEVEN	-0.11703199
-1.351295	THREE SEVEN	-0.14604484
-0.9898889	FORTY SEVEN	-0.16652274
-1.5791768	B SEVEN	-0.11703199
-1.4668791	THIRTY SEVEN	-0.19355738
-1.6492051	U SEVEN	-0.11703199
-1.5787265	Z SEVEN	-0.11703199
-1.5198679	SEVEN SEVEN	-0.16652274
-1.6960047	M SEVEN	-0.11703199
-1.1364428	J SEVEN	-0.11703203
-1.3038406	SEVENTY SEVEN	-0.19355738
-1.153419	OH SEVEN	-0.16506267
-1.7920218	S SEVEN	-0.11703199
-1.4517221	TWENTY SEVEN	-0.11703199
-1.1520917	NINETY SEVEN	-0.11703199
-1.7081761	C SEVEN	-0.11703199
-1.1083739	THOUSAND SEVEN	-0.11703199
-1.8415066	<s> L	-0.17982972
-1.5708816	X L	-0.11703199
-1.2610208	I L	-0.14642319
-1.0176517	G L	-0.15078914
-1.5722786	R L	-0.17312524
-1.040933	E L	-0.28928903
-1.2970548	W L	-0.11703203
-1.1481508	Y L	-0.11703199
-1.7028053	H L	-0.11703199
-1.7503734	T L	-0.19355738
-1.2273775	A L	-0.15361133
-1.7739044	B L	-0.11703199
-0.9680385	P L	-0.19759847
-1.3040179	U L	-0.16652274
-1.6455438	Z L	-0.11703199
-1.444219	O L	-0.11703199
-1.5238484	RUBOUT L	-0.11703199
-1.9626806	N L	-0.11703199
-1.0996118	L L	-0.16157322
-1.7610683	K L	-0.11703199
-1.6210489	J L	-0.11703199
-1.8619696	D L	-0.11703199
-1.7303256	S L	-0.11703199
-1.6306857	C L	-0.11703203
-2.0125568	<s> K	-0.1656096
-1.5708816	X K	-0.11703199
-1.8150705	I K	-0.11703199
-1.6633903	G K	-0.11703199
-1.2237236	R K	-0.13755576
-2.108877	E K	-0.11703199
-1.8354136	H K	-0.11703199
-1.7503734	T K	-0.11703199
-1.5348154	V K	-0.11703199
-1.7086649	A K	-0.11703203
-1.7739044	B K	-0.11703199
-1.435116	Q K	-0.11703199
-1.7275784	U K	-0.11703199
-1.6258094	F K	-0.11703199
-1.6455438	Z K	-0.11703199
-1.871507	O K	-0.11703199
-1.9626806	N K	-0.11703199
-1.5301212	L K	-0.11703203
-1.7610683	K K	-0.11703199
-1.7749615	M K	-0.11703199
-1.4719734	J K	-0.11703199
-1.4408414	D K	-0.11703203
-1.1674734	S K	-0.14604484
-0.8829505	C K	-0.15909785
-1.5131406	<s> M	-0.41452146
-1.5327075	I M	-0.15361133
-1.5952797	E M	-0.15361133
-1.7578176	Y M	-0.11703199
-2.0593374	FIVE M	-0.11703199
-1.4651803	ERASE M	-0.11703199
-1.902976	T M	-0.11703199
-1.5452155	V M	-0.11703199
-1.1751633	A M	-0.14332575
-1.3445132	B M	-0.11703203
-1.6083632	U M	-0.11703199
-1.7804451	F M	-0.11703199
-1.3381754	O M	-0.17713548
-1.5376576	RUBOUT M	-0.11703203
-1.9825401	N M	-0.11703199
-1.8380871	L M	-0.11703199
-1.7813375	K M	-0.11703199
-1.3611023	M M	-0.11703203
-1.6379766	J M	-0.11703199
-1.7439435	D M	-0.11703199
-1.7439669	S M	-0.11703199
-1.7953304	C M	-0.11703199
-1.7006184	<s> J	-0.24608085
-2.1404407	ONE J	-0.11703199
-1.69964	G J	-0.11703199
-2.0390725	E J	-0.19355738
-1.7872982	Y J	-0.11703199
-1.4833674	ERASE J	-0.11703199
-1.9341364	T J	-0.11703199
-2.1640468	A J	-0.11703199
-1.8220781	B J	-0.11703199
-1.6306845	U J	-0.11703199
-1.6616176	F J	-0.11703199
-2.0509264	O J	-0.11703199
-1.5592312	RUBOUT J	-0.11703203
-2.0141437	N J	-0.11703199
-1.6794611	M J	-0.11703199
-1.6646737	J J	-0.11703199
-1.9129703	D J	-0.11703199
-1.9166694	S J	-0.11703199
-1.8224841	C J	-0.11703199
-1.9297234	<s> HELP	-0.764585
-2.1837554	I FIFTEEN	-0.11703199
-2.3155868	ONE FIFTEEN	-0.11703199
-2.3383768	TWO FIFTEEN	-0.11703199
-1.6220152	ENTER FIFTEEN	-0.11703199
-2.2097409	SEVEN FIFTEEN	-0.11703199
-1.7540402	<s> REPEAT	-0.9273123
-1.8415066	<s> D	-0.24424388
-1.3734024	I D	-0.11703199
-1.6633903	G D	-0.11703199
-1.5722786	R D	-0.14604484
-1.5885828	E D	-0.14604484
-1.7403419	W D	-0.11703199
-1.3025959	Y D	-0.11703203
-1.7503734	T D	-0.11703199
-1.3628305	A D	-0.14939146
-1.7739044	B D	-0.11703199
-1.435116	Q D	-0.11703203
-1.5435791	P D	-0.11703199
-1.7275784	U D	-0.11703199
-1.7612468	F D	-0.11703199
-1.6455438	Z D	-0.11703199
-1.5927768	O D	-0.11703199
-1.5238484	RUBOUT D	-0.11703199
-1.3927851	N D	-0.15361133
-1.0996118	L D	-0.13755576
-1.7610683	K D	-0.11703199
-1.7749615	M D	-0.11703199
-1.6210489	J D	-0.11703199
-1.4408414	D D	-0.11703203
-1.7781276	C D	-0.11703199
-1.6381466	X SEVENTY	-0.11703199
-2.1724799	ONE SEVENTY	-0.11703199
-1.881042	G SEVENTY	-0.11703199
-1.9974523	NINE SEVENTY	-0.11703199
-2.2073188	E SEVENTY	-0.11703199
-1.9392653	EIGHT SEVENTY	-0.19355738
-2.0835009	FOUR SEVENTY	-0.11703199
-1.5371579	ENTER SEVENTY	-0.11703203
-1.9677064	T SEVENTY	-0.11703199
-1.8790332	THREE SEVENTY	-0.11703199
-1.691553	B SEVENTY	-0.19355738
-2.0482287	N SEVENTY	-0.11703199
-2.0579283	SEVEN SEVENTY	-0.11703199
-2.0424569	L SEVENTY	-0.11703199
-1.3483334	TEN SEVENTY	-0.11703199
-1.3606132	NINETEEN SEVENTY	-0.19355738
-2.7949946	<s> OH	-0.19355738
-1.2431825	ONE OH	-0.15349789
-1.5525057	TWO OH	-0.13493669
-1.6206667	EIGHT OH	-0.11703203
-1.2338332	FIVE OH	-0.13755576
-1.2571477	SIX OH	-0.14107272
-1.4336846	FOUR OH	-0.14604484
-1.9191628	THREE OH	-0.11703199
-1.3135889	SEVEN OH	-0.14107272
-2.0095387	D OH	-0.11703199
-1.9337407	OH OH	-0.11703199
-2.1507568	<s> GO	-0.56829035
-1.7839452	<s> STOP	-0.8992835
-1.5476671	<s> S	-0.229903
-1.4265758	X S	-0.11703199
-1.3785259	I S	-0.15667957
-1.8171014	G S	-0.11703199
-1.5801967	R S	-0.16652274
-1.3991783	E S	-0.20878111
-1.4651803	ERASE S	-0.11703199
-1.7647142	T S	-0.11703199
-1.7096891	V S	-0.11703199
-1.455148	A S	-0.15909785
-1.6484935	B S	-0.11703199
-1.5562259	P S	-0.11703199
-1.1569693	U S	-0.11703199
-1.8870369	O S	-0.16652274
-1.5515138	N S	-0.11703199
-1.5370798	L S	-0.11703203
-1.647163	K S	-0.11703199
-1.7946429	M S	-0.11703199
-1.7439435	D S	-0.11703199
-1.8867837	S S	-0.11703199
-1.7953304	C S	-0.11703199
-0.641949	FIFTH S	-0.11703199
-2.661328	<s> TWENTY	-0.11703199
-2.0826852	ONE TWENTY	-0.11703199
-1.9852667	TWO TWENTY	-0.11703199
-1.7710415	NINE TWENTY	-0.11703199
-1.7315589	W TWENTY	-0.11703199
-2.0268614	EIGHT TWENTY	-0.11703199
-2.0342138	FIVE TWENTY	-0.11703199
-2.0445783	SIX TWENTY	-0.11703199
-1.8574309	FOUR TWENTY	-0.11703199
-1.47827	ENTER TWENTY	-0.11703199
-1.8149984	THREE TWENTY	-0.11703203
-1.7519567	F TWENTY	-0.11703199
-1.5477359	SEVEN TWENTY	-0.16652274
-1.7512777	K TWENTY	-0.11703199
-1.3199102	TEN TWENTY	-0.11703199
-1.1807934	TWELVE TWENTY	-0.11703199
-1.2747642	HUNDRED TWENTY	-0.11703199
-1.0038854	AND TWENTY	-0.11703199
-0.63928133	MARCH TWENTY	-0.11703199
-1.5424359	NINETEEN TWENTY	-0.11703199
-0.63928133	JUNE TWENTY	-0.11703199
-0.8046767	SEPTEMBER TWENTY	-0.11703199
-0.8046767	MAY TWENTY	-0.11703199
-0.8046767	OCTOBER TWENTY	-0.11703199
-0.63928133	AUGUST TWENTY	-0.11703199
-2.2583282	SIX SEVENTEEN	-0.11703199
-2.183579	THREE SEVENTEEN	-0.11703199
-1.8955308	P SEVENTEEN	-0.11703199
-2.2097409	SEVEN SEVENTEEN	-0.11703199
-0.95433843	ELEVEN SEVENTEEN	-0.11703199
-2.2716575	ONE NINETY	-0.11703199
-2.176238	FOUR NINETY	-0.11703199
-1.5971804	ENTER NINETY	-0.11703199
-2.3161666	A NINETY	-0.11703199
-1.8553985	P NINETY	-0.11703199
-1.7977725	Z NINETY	-0.11703199
-2.2009096	O NINETY	-0.11703199
-1.9581534	K NINETY	-0.11703199
-2.405386	<s> TEN	-0.11703199
-2.2716575	ONE TEN	-0.11703199
-2.300115	TWO TEN	-0.11703199
-1.9166262	Y TEN	-0.11703199
-2.2007544	FIVE TEN	-0.11703199
-1.9714878	SEVEN TEN	-0.19355738
-1.3752613	TEN TEN	-0.11703199
-1.2366772	TWELVE TEN	-0.11703199
-1.699131	<s> C	-0.17770943
-1.6032132	X C	-0.11703199
-1.2689571	I C	-0.14642319
-1.6921439	G C	-0.11703199
-1.8845521	R C	-0.19355738
-2.0297968	E C	-0.11703199
-1.47722	ERASE C	-0.11703199
-1.2328107	A C	-0.13291043
-1.6239969	Q C	-0.11703199
-1.7240791	P C	-0.11703199
-1.7675347	U C	-0.11703199
-1.678895	Z C	-0.11703199
-2.0395474	O C	-0.11703199
-1.5519202	RUBOUT C	-0.11703203
-1.4033651	N C	-0.11703199
-1.8025992	K C	-0.11703199
-1.8152587	M C	-0.11703199
-1.4961934	J C	-0.11703199
-1.9064772	S C	-0.11703199
-1.8132429	C C	-0.11703199
-3.0219557	<s> FOURTEEN	-0.11703199
-1.9256315	W FOURTEEN	-0.11703199
-2.2099268	EIGHT FOURTEEN	-0.11703199
-1.605302	ENTER FOURTEEN	-0.11703199
-2.1537154	THREE FOURTEEN	-0.11703199
-1.9811392	SEVEN FOURTEEN	-0.11703199
-1.2427272	FOURTEEN FOURTEEN	-0.11703199
-2.3155868	ONE THOUSAND	-0.11703199
-2.235993	EIGHT THOUSAND	-0.11703199
-2.2583282	SIX THOUSAND	-0.11703199
-1.6244271	FOUR THOUSAND	-0.11703203
-2.2097409	SEVEN THOUSAND	-0.11703199
-2.3159702	<s> TWELVE	-0.11703199
-2.2723603	SIX TWELVE	-0.11703199
-2.199318	THREE TWELVE	-0.11703199
-1.3893784	TEN TWELVE	-0.11703199
-2.0771503	ONE HUNDRED	-0.11703199
-2.300115	TWO HUNDRED	-0.11703199
-2.0878696	NINE HUNDRED	-0.11703199
-1.9972303	EIGHT HUNDRED	-0.16652274
-2.2007544	FIVE HUNDRED	-0.11703199
-2.2187629	SIX HUNDRED	-0.11703199
-2.13952	THREE HUNDRED	-0.11703199
-2.1628084	SEVEN HUNDRED	-0.11703199
-2.1557295	NINE AND	-0.11703199
-2.246196	FOUR AND	-0.11703199
-0.53309476	HUNDRED AND	-0.16506267
-2.4202082	A HALF	-0.11703199
-2.9761596	<s> ELEVEN	-0.11703199
-2.3475537	ONE ELEVEN	-0.11703199
-2.2156487	THREE ELEVEN	-0.11703199
-1.4951884	EIGHTY FIFTH	-0.11703199
-1.8402679	TWENTY FIFTH	-0.11703199
-2.3030028	O APOSTROPHE	-0.11703199
-3.1957362	<s> AREA	-0.11703199
-0.35960817	AREA CODE	-0.11703199
-2.9929662	<s> MARCH	-0.11703199
-1.6099118	TWENTY THIRD	-0.19355738
-0.65936744	MARCH THIRD	-0.11703199
-1.028726	FIFTEEN NINETEEN	-0.11703199
-1.2029406	TWELVE NINETEEN	-0.11703199
-0.6455316	FIFTH NINETEEN	-0.11703199
-0.4103764	THIRD NINETEEN	-0.11703199
-0.35241106	ELEVENTH NINETEEN	-0.11703199
-0.4103764	FIFTEENTH NINETEEN	-0.19355738
-0.8138549	MAY NINETEEN	-0.11703199
-0.4103764	FIRST NINETEEN	-0.19355738
-0.35241106	EIGHTEENTH NINETEEN	-0.11703199
-0.19012275	THIRTIETH NINETEEN	-0.20031358
-0.4103764	TWELFTH NINETEEN	-0.19355738
-0.35241106	SEVENTH NINETEEN	-0.11703199
-0.35241106	SIXTEENTH NINETEEN	-0.11703199
-0.35241106	SECOND NINETEEN	-0.11703199
-0.6455316	FEBRUARY NINETEEN	-0.11703199
-0.35241106	EIGHTH NINETEEN	-0.11703199
-0.35241106	SIXTH NINETEEN	-0.11703199
-0.35241106	FOURTH NINETEEN	-0.11703199
-2.9929662	<s> JUNE	-0.11703199
-0.6597808	JUNE ELEVENTH	-0.11703199
-2.6238248	<s> SEPTEMBER	-0.11703203
-0.83439773	SEPTEMBER FIFTEENTH	-0.11703199
-0.65936744	JANUARY FIFTEENTH	-0.11703199
-2.9801588	<s> MAY	-0.11703199
-2.2466476	SEVEN MAY	-0.11703199
-1.8402679	TWENTY FIRST	-0.11703199
-0.83439773	OCTOBER FIRST	-0.11703199
-2.6238248	<s> OCTOBER	-0.11703203
-2.9929662	<s> JANUARY	-0.11703199
-2.266942	FIVE SIXTEEN	-0.11703199
-2.288955	SIX SIXTEEN	-0.11703199
-3.1957362	<s> DECEMBER	-0.11703199
-0.35960817	DECEMBER EIGHTEENTH	-0.11703199
-2.9929662	<s> JULY	-0.11703199
-0.834201	OCTOBER THIRTIETH	-0.11703199
-0.65923595	JULY THIRTIETH	-0.11703199
-0.35933512	APRIL THIRTIETH	-0.11703199
-0.65936744	JANUARY TWELFTH	-0.11703199
-0.65936744	JULY TWELFTH	-0.11703199
-1.8450831	TWENTY SEVENTH	-0.11703199
-2.1644342	NINE OF	-0.11703199
-2.4497554	<s> AUGUST	-0.1779488
-0.6597808	AUGUST SIXTEENTH	-0.11703199
-1.8450831	TWENTY SECOND	-0.11703199
-3.1754835	<s> FEBRUARY	-0.11703199
-0.35940105	EIGHTEEN FEBRUARY	-0.11703199
-0.6597808	FEBRUARY EIGHTH	-0.11703199
-0.8350164	MAY NINTH	-0.11703199
-0.8350164	SEPTEMBER SIXTH	-0.11703199
-3.1957362	<s> EIGHTEEN	-0.11703199
-3.1957362	<s> APRIL	-0.11703199
-1.8450831	TWENTY FOURTH	-0.11703199

\3-grams:
-1.3242172	R I </s>	0
-1.1230221	H I </s>	0
-1.0712259	K I </s>	0
-0.51765805	TWO SIXTY </s>	0
-0.94061947	ENTER SIXTY </s>	0
-1.2566203	NINETEEN SIXTY </s>	0
-0.7316143	SIXTEEN SIXTY </s>	0
-0.51765805	OF SIXTY </s>	0
-0.12542024	SIXTY ONE </s>	0
-0.70897686	ONE ONE </s>	0
-0.814464	TWO ONE </s>	0
-0.40638748	EIGHTY ONE </s>	0
-0.6292752	NINE ONE </s>	0
-0.5619571	Y ONE </s>	0
-0.7384614	EIGHT ONE </s>	0
-0.682553	FIVE ONE </s>	0
-0.6319546	SIX ONE </s>	0
-0.40638748	H ONE </s>	0
-0.6718894	FOUR ONE </s>	0
-0.49043	FIFTY ONE </s>	0
-0.71391976	THREE ONE </s>	0
-0.30938533	FORTY ONE </s>	0
-0.40638748	Q ONE </s>	0
-0.5189035	THIRTY ONE </s>	0
-0.6918234	SEVEN ONE </s>	0
-0.5619571	J ONE </s>	0
-0.12542024	SEVENTY ONE </s>	0
-0.53785133	OH ONE </s>	0
-0.40638748	TWENTY ONE </s>	0
-0.40638748	NINETY ONE </s>	0
-1.1471606	R G </s>	0
-1.238368	N G </s>	0
-0.27067113	SIXTY TWO </s>	0
-0.7406095	ONE TWO </s>	0
-0.75029004	TWO TWO </s>	0
-0.4799282	NINE TWO </s>	0
-0.75256175	EIGHT TWO </s>	0
-0.6059429	FIVE TWO </s>	0
-0.5853156	SIX TWO </s>	0
-0.3969612	H TWO </s>	0
-0.5485325	ZERO TWO </s>	0
-0.62961394	FOUR TWO </s>	0
-0.6502619	ENTER TWO </s>	0
-0.3969612	A TWO </s>	0
-0.5485325	FIFTY TWO </s>	0
-0.5982108	THREE TWO </s>	0
-0.30304137	FORTY TWO </s>	0
-0.376489	THIRTY TWO </s>	0
-0.4126403	F TWO </s>	0
-0.3969612	Z TWO </s>	0
-0.3969612	L TWO </s>	0
-0.3969612	M TWO </s>	0
-0.20129228	SEVENTY TWO </s>	0
-0.55958754	OH TWO </s>	0
-0.5485325	TWENTY TWO </s>	0
-0.3969612	C TWO </s>	0
-0.339113	X NINE </s>	0
-0.10997141	SIXTY NINE </s>	0
-0.55622506	ONE NINE </s>	0
-0.51702267	TWO NINE </s>	0
-0.35886782	EIGHTY NINE </s>	0
-0.32799655	NINE NINE </s>	0
-0.47239488	EIGHT NINE </s>	0
-0.45430446	FIVE NINE </s>	0
-0.37646258	SIX NINE </s>	0
-0.5515142	FOUR NINE </s>	0
-0.5515142	ENTER NINE </s>	0
-0.339113	V NINE </s>	0
-0.339113	FIFTY NINE </s>	0
-0.41601723	THREE NINE </s>	0
-0.35886782	FORTY NINE </s>	0
-0.2631401	THIRTY NINE </s>	0
-0.339113	K NINE </s>	0
-0.35886782	SEVENTY NINE </s>	0
-0.52209425	OH NINE </s>	0
-0.35886782	TWENTY NINE </s>	0
-0.023991829	<s> YES </s>	0
-0.7360997	E R </s>	0
-1.1548004	O R </s>	0
-0.83120763	I E </s>	0
-0.99916005	R E </s>	0
-1.1430978	T E </s>	0
-0.7794252	V E </s>	0
-0.7428772	U E </s>	0
-0.52450496	O E </s>	0
-0.8849821	N E </s>	0
-0.8095927	L E </s>	0
-0.7550288	D E </s>	0
-0.9752957	S E </s>	0
-0.9146616	C E </s>	0
-0.94130284	E W </s>	0
-0.90231097	A W </s>	0
-0.78451395	O W </s>	0
-0.59200186	R Y </s>	0
-0.43416572	E Y </s>	0
-0.6527352	H Y </s>	0
-0.42027703	O Y </s>	0
-0.5059526	L Y </s>	0
-0.3186506	K Y </s>	0
-0.5819695	M Y </s>	0
-0.5819695	D Y </s>	0
-0.5819695	C Y </s>	0
-0.19768244	SIXTY EIGHT </s>	0
-0.5432443	ONE EIGHT </s>	0
-0.5845469	TWO EIGHT </s>	0
-0.38786983	EIGHTY EIGHT </s>	0
-0.29688033	W EIGHT </s>	0
-0.42396766	FIVE EIGHT </s>	0
-0.6432063	SIX EIGHT </s>	0
-0.7242217	FOUR EIGHT </s>	0
-0.42396766	FIFTY EIGHT </s>	0
-0.3182073	THREE EIGHT </s>	0
-0.38786983	FORTY EIGHT </s>	0
-0.38786983	B EIGHT </s>	0
-0.29688033	THIRTY EIGHT </s>	0
-0.38786983	F EIGHT </s>	0
-0.38786983	O EIGHT </s>	0
-0.53254044	SEVEN EIGHT </s>	0
-0.38786983	SEVENTY EIGHT </s>	0
-0.5916375	OH EIGHT </s>	0
-0.66108483	TWENTY EIGHT </s>	0
-0.38786983	NINETY EIGHT </s>	0
-0.38813904	I FIVE </s>	0
-0.29706338	SIXTY FIVE </s>	0
-0.58060515	ONE FIVE </s>	0
-0.61905134	TWO FIVE </s>	0
-0.38813904	EIGHTY FIVE </s>	0
-0.6730925	NINE FIVE </s>	0
-0.6314193	EIGHT FIVE </s>	0
-0.47012275	FIVE FIVE </s>	0
-0.5148743	SIX FIVE </s>	0
-0.6345789	ENTER FIVE </s>	0
-0.36916184	FIFTY FIVE </s>	0
-0.6730925	THREE FIVE </s>	0
-0.19779	FORTY FIVE </s>	0
-0.38813904	B FIVE </s>	0
-0.26606253	THIRTY FIVE </s>	0
-0.5360781	U FIVE </s>	0
-0.38813904	O FIVE </s>	0
-0.36916184	OH FIVE </s>	0
-0.38813904	TWENTY FIVE </s>	0
-0.38813904	NINETY FIVE </s>	0
-0.29683337	SIXTY SIX </s>	0
-0.5085499	ONE SIX </s>	0
-0.45093805	TWO SIX </s>	0
-0.20159712	EIGHTY SIX </s>	0
-0.5993265	NINE SIX </s>	0
-0.5606514	EIGHT SIX </s>	0
-0.73855215	FIVE SIX </s>	0
-0.64546317	SIX SIX </s>	0
-0.4757181	ZERO SIX </s>	0
-0.5864537	FOUR SIX </s>	0
-0.6917789	ENTER SIX </s>	0
-0.61491364	A SIX </s>	0
-0.4757181	FIFTY SIX </s>	0
-0.39773422	FORTY SIX </s>	0
-0.39773422	B SIX </s>	0
-0.3035633	THIRTY SIX </s>	0
-0.61491364	SEVEN SIX </s>	0
-0.5448828	OH SIX </s>	0
-0.4807884	TWENTY SIX </s>	0
-0.3035633	NINETY SIX </s>	0
-0.028641695	<s> NO </s>	0
-0.7800745	G H </s>	0
-0.8948859	T H </s>	0
-0.9676393	P H </s>	0
-1.1777747	C H </s>	0
-0.22018108	X ZERO </s>	0
-0.40242174	TWO ZERO </s>	0
-0.2792789	NINE ZERO </s>	0
-0.35077834	EIGHT ZERO </s>	0
-0.48793966	FIVE ZERO </s>	0
-0.2792789	FOUR ZERO </s>	0
-0.2792789	ENTER ZERO </s>	0
-0.4339171	THREE ZERO </s>	0
-0.3027486	SEVEN ZERO </s>	0
-0.2792789	L ZERO </s>	0
-0.2792789	S ZERO </s>	0
-0.40026498	I FOUR </s>	0
-0.27238548	SIXTY FOUR </s>	0
-0.40549177	TWO FOUR </s>	0
-0.40026498	EIGHTY FOUR </s>	0
-0.48360598	NINE FOUR </s>	0
-0.42755175	EIGHT FOUR </s>	0
-0.70236593	FIVE FOUR </s>	0
-0.48652995	SIX FOUR </s>	0
-0.40026498	H FOUR </s>	0
-0.5958754	FOUR FOUR </s>	0
-0.65619963	ENTER FOUR </s>	0
-0.40026498	FIFTY FOUR </s>	0
-0.70236593	THREE FOUR </s>	0
-0.40026498	FORTY FOUR </s>	0
-0.40026498	P FOUR </s>	0
-0.40026498	O FOUR </s>	0
-0.48360598	SEVEN FOUR </s>	0
-0.30526993	NINETY FOUR </s>	0
-0.04677956	<s> START </s>	0
-0.4758429	R T </s>	0
-0.62147355	E T </s>	0
-0.8227748	T T </s>	0
-1.0961362	A T </s>	0
-0.99297446	N T </s>	0
-0.8581395	S T </s>	0
-0.8729383	I A </s>	0
-1.1193209	R A </s>	0
-1.1338571	E A </s>	0
-1.0952226	V A </s>	0
-0.90798515	N A </s>	0
-0.9402249	L A </s>	0
-1.1027709	D A </s>	0
-0.7716837	C A </s>	0
-0.5354106	FOURTEEN A </s>	0
-0.945079	ONE FIFTY </s>	0
-0.5670936	T FIFTY </s>	0
-0.17216277	SIXTY THREE </s>	0
-0.48858422	ONE THREE </s>	0
-0.58577657	TWO THREE </s>	0
-0.3883049	EIGHTY THREE </s>	0
-0.6618353	NINE THREE </s>	0
-0.5923052	EIGHT THREE </s>	0
-0.7314092	FIVE THREE </s>	0
-0.6193133	SIX THREE </s>	0
-0.515082	FOUR THREE </s>	0
-0.5363112	ENTER THREE </s>	0
-0.5363112	FIFTY THREE </s>	0
-0.60432136	THREE THREE </s>	0
-0.63487136	FORTY THREE </s>	0
-0.2971761	THIRTY THREE </s>	0
-0.3883049	U THREE </s>	0
-0.5994739	SEVEN THREE </s>	0
-0.5994739	OH THREE </s>	0
-0.26614958	TWENTY THREE </s>	0
-0.77645093	<s> THIRTY </s>	0
-0.64517045	FIVE THIRTY </s>	0
-0.64517045	SIX THIRTY </s>	0
-0.46282864	V THIRTY </s>	0
-0.64517045	SEVEN THIRTY </s>	0
-0.99207497	M U </s>	0
-1.0000542	F F </s>	0
-0.580979	T Z </s>	0
-0.5580083	I O </s>	0
-1.2755101	R O </s>	0
-1.0020744	N O </s>	0
-1.0569386	J O </s>	0
-1.282561	S O </s>	0
-0.7621798	I N </s>	0
-0.97244984	R N </s>	0
-0.72187823	E N </s>	0
-0.8472763	W N </s>	0
-0.6313674	A N </s>	0
-0.89532864	O N </s>	0
-0.7872206	N N </s>	0
-0.17008957	SIXTY SEVEN </s>	0
-0.6449727	ONE SEVEN </s>	0
-0.5608096	TWO SEVEN </s>	0
-0.38147596	EIGHTY SEVEN </s>	0
-0.5384213	EIGHT SEVEN </s>	0
-0.52300227	FIVE SEVEN </s>	0
-0.55315024	SIX SEVEN </s>	0
-0.52673966	ZERO SEVEN </s>	0
-0.59403986	FOUR SEVEN </s>	0
-0.6449727	ENTER SEVEN </s>	0
-0.38147596	V SEVEN </s>	0
-0.52673966	FIFTY SEVEN </s>	0
-0.398296	FORTY SEVEN </s>	0
-0.29252252	THIRTY SEVEN </s>	0
-0.398296	SEVEN SEVEN </s>	0
-0.38147596	M SEVEN </s>	0
-0.29252252	SEVENTY SEVEN </s>	0
-0.4177459	OH SEVEN </s>	0
-0.52673966	TWENTY SEVEN </s>	0
-0.38147596	NINETY SEVEN </s>	0
-1.192489	I L </s>	0
-1.206705	R L </s>	0
-0.84744024	E L </s>	0
-1.0295795	L L </s>	0
-0.7233279	I K </s>	0
-0.76839924	R K </s>	0
-0.5125762	E K </s>	0
-0.7233279	V K </s>	0
-0.7768285	C K </s>	0
-0.78009945	O M </s>	0
-0.98258126	M M </s>	0
-0.042312436	<s> HELP </s>	0
-0.26437363	I FIFTEEN </s>	0
-0.26437363	ONE FIFTEEN </s>	0
-0.26437363	ENTER FIFTEEN </s>	0
-0.028641695	<s> REPEAT </s>	0
-0.8929188	I D </s>	0
-0.6813125	R D </s>	0
-0.84202003	A D </s>	0
-0.8929188	O D </s>	0
-1.0321323	N D </s>	0
-0.7734702	L D </s>	0
-0.48786178	ONE SEVENTY </s>	0
-0.6838607	THREE SEVENTY </s>	0
-0.36230066	NINETEEN SEVENTY </s>	0
-0.99651486	ONE OH </s>	0
-0.7731084	EIGHT OH </s>	0
-0.72475505	FIVE OH </s>	0
-0.90516806	SIX OH </s>	0
-0.90516806	SEVEN OH </s>	0
-0.48665783	D OH </s>	0
-0.06848077	<s> GO </s>	0
-0.03062001	<s> STOP </s>	0
-0.534266	I S </s>	0
-0.4510185	G S </s>	0
-0.4450297	E S </s>	0
-0.67853236	A S </s>	0
-0.6273236	B S </s>	0
-0.6273236	P S </s>	0
-0.7524763	N S </s>	0
-0.6273236	K S </s>	0
-0.6273236	M S </s>	0
-0.6273236	D S </s>	0
-0.8459474	NINE TWENTY </s>	0
-0.42933887	THREE SEVENTEEN </s>	0
-0.42933887	P SEVENTEEN </s>	0
-0.28258282	ONE TEN </s>	0
-0.28258282	TWO TEN </s>	0
-0.28258282	FIVE TEN </s>	0
-0.22259638	SEVEN TEN </s>	0
-0.28258282	TEN TEN </s>	0
-1.3197219	I C </s>	0
-0.48799932	ENTER FOURTEEN </s>	0
-0.48799932	FOURTEEN FOURTEEN </s>	0
-0.5189555	ONE THOUSAND </s>	0
-0.5283414	SIX TWELVE </s>	0
-0.7180319	ONE HUNDRED </s>	0
-0.5093088	NINE HUNDRED </s>	0
-0.23087157	A HALF </s>	0
-0.47123677	ONE ELEVEN </s>	0
-0.5794661	E X X	-0.034886044
-0.5794661	A X X	-0.034886044
-0.9095648	ERASE E X	-0.034886044
-0.6048384	T W X	-0.034886044
-1.4938982	<s> ERASE X	-0.034886044
-1.3140377	G H X	-0.034886044
-1.0334436	ERASE V X	-0.034886044
-1.6643567	H A X	-0.034886044
-1.0337366	H B X	-0.034886044
-1.0337366	N B X	-0.034886044
-0.5691331	J B X	-0.034886044
-0.8843018	P U X	-0.034886044
-0.8185456	Y F X	-0.034886044
-0.5686779	Q F X	-0.034886044
-0.9488715	L F X	-0.034886044
-0.87461627	N Z X	-0.034886044
-1.6948289	<s> RUBOUT X	-0.034886044
-1.6190201	O N X	-0.034886044
-1.1598763	RUBOUT N X	-0.034886044
-0.8725269	T K X	-0.034886044
-0.8725269	Q K X	-0.034886044
-1.49566	A M X	-0.034886044
-0.5979073	B J X	-0.034886044
-0.8957046	X S X	-0.034886044
-1.0972425	<s> X I	-0.034886044
-0.83690834	<s> G I	0
-0.50888795	X G I	-0.034886044
-0.897185	I G I	-0.034886044
-0.8772714	E G I	-0.034886044
-0.50888795	F G I	-0.034886044
-0.71735156	L G I	-0.034886044
-0.920803	<s> R I	-0.12886542
-1.0678813	E R I	-0.034886017
-0.5125588	W R I	-0.034886044
-0.72329956	H R I	-0.034886044
-0.9724849	B R I	-0.034886044
-0.5125588	P R I	-0.034886044
-0.9798898	U R I	-0.034886044
-0.8246802	F R I	-0.034886044
-0.6884372	D R I	0
-1.0061796	W E I	-0.034886044
-1.2354629	H E I	-0.034886044
-1.2708935	F E I	-0.034886044
-1.4734042	N E I	-0.034886044
-0.90668637	<s> W I	-0.12886542
-1.1286765	E W I	-0.034886044
-0.7164519	D W I	-0.034886044
-0.7606054	S W I	-0.034886044
-1.270184	<s> ERASE I	-0.034886044
-1.064118	<s> H I	-0.034886044
-0.7955436	W H I	-0.034886044
-0.9953826	P H I	-0.034886044
-1.2200084	C H I	-0.034886044
-1.0317092	<s> T I	-0.12886542
-1.1924902	T T I	-0.034886044
-1.0142576	U T I	-0.034886044
-1.2225739	S T I	-0.034886044
-0.48698547	X V I	-0.034886044
-0.6824854	G V I	-0.034886044
-0.7410424	A V I	-0.034886044
-0.48698547	B V I	-0.034886044
-0.7737423	S V I	-0.034886044
-1.1299819	A A I	-0.034886044
-1.2121949	B A I	-0.034886044
-0.8755309	U A I	-0.034886044
-0.60319906	U B I	-0.034886044
-0.5916061	O Q I	-0.034886044
-0.14305304	<s> P I	-0.9974669
-0.5877397	X P I	-0.034886044
-0.87704307	J U I	-0.034886044
-0.9303735	<s> F I	-0.034886017
-0.8649477	R F I	-0.034886044
-0.9846412	<s> Z I	-0.034886044
-0.5832262	X Z I	-0.034886044
-1.5121874	<s> RUBOUT I	-0.034886044
-1.2258123	<s> N I	-0.034886044
-1.2848823	I N I	-0.034886044
-0.8926972	W N I	-0.034886044
-1.2723628	A N I	-0.034886044
-1.0456692	O N I	-0.034886044
-1.0928146	N N I	-0.034886044
-0.98139596	<s> L I	-0.12886542
-1.3218112	E L I	-0.034886044
-0.885738	W L I	-0.034886044
-1.1746261	A L I	-0.034886044
-0.5442935	U L I	-0.12886542
-0.85784876	L L I	-0.034886044
-1.1759138	R K I	-0.034886044
-0.9458363	L K I	-0.034886044
-0.75410384	S K I	-0.034886044
-1.1741984	<s> M I	-0.09522816
-0.9854399	I M I	-0.034886044
-0.77894527	U M I	-0.034886044
-0.77894527	S M I	-0.034886044
-1.356759	L D I	-0.034886044
-1.1572235	U S I	-0.034886044
-1.5989324	<s> C I	-0.034886044
-0.61013657	X I SIXTY	-0.034886044
-1.5340991	TWO ONE SIXTY	-0.034886044
-1.3042078	THIRTY ONE SIXTY	-0.034886044
-0.59620273	U ONE SIXTY	-0.034886044
-0.90664434	K TWO SIXTY	-0.034886044
-0.60926145	ELEVEN NINE SIXTY	-0.034886044
-0.8973862	H R SIXTY	-0.034886044
-0.7289525	TWENTY EIGHT SIXTY	-0.034886044
-1.3155439	FIFTY SIX SIXTY	-0.034886044
-1.1668186	TWENTY SIX SIXTY	-0.034886044
-1.0474559	TWENTY FOUR SIXTY	-0.034886044
-0.60707617	TWELVE FOUR SIXTY	-0.034886044
-1.0278114	<s> ENTER SIXTY	-0.04245619
-1.0487019	F T SIXTY	-0.034886044
-1.1067785	ENTER FIFTY SIXTY	-0.034886044
-1.3000892	SIXTY THREE SIXTY	-0.034886044
-0.56997836	Y THREE SIXTY	-0.034886044
-1.2454413	SIX THREE SIXTY	-0.034886044
-1.1539612	TWENTY THREE SIXTY	-0.034886044
-0.87015533	NINE THIRTY SIXTY	-0.034886044
-0.5821654	Z Z SIXTY	-0.034886044
-0.8428203	K Z SIXTY	-0.034886044
-1.0606031	Z O SIXTY	-0.034886044
-1.303225	FOUR SEVEN SIXTY	-0.034886044
-0.588014	S SEVEN SIXTY	-0.034886044
-0.85353863	TWENTY SEVEN SIXTY	-0.034886044
-0.508316	TWO FIFTEEN SIXTY	-0.034886044
-0.56336105	TWELVE TEN SIXTY	-0.034886044
-0.36854544	EIGHT FOURTEEN SIXTY	-0.034886044
-0.36854544	THREE FOURTEEN SIXTY	-0.034886044
-0.50877786	SEVEN FOURTEEN SIXTY	-0.034886044
-0.5416548	TEN TWELVE SIXTY	-0.034886044
-0.93673223	HUNDRED AND SIXTY	-0.034886044
-0.48288763	THREE ELEVEN SIXTY	-0.034886044
-0.16751754	TWELVE NINETEEN SIXTY	-0.034886044
-0.16751754	FIFTH NINETEEN SIXTY	-0.034886044
-0.25038084	THIRD NINETEEN SIXTY	-0.034886044
-0.16751754	ELEVENTH NINETEEN SIXTY	-0.034886044
-0.13568898	FIFTEENTH NINETEEN SIXTY	-0.034886044
-0.13568898	FIRST NINETEEN SIXTY	-0.034886044
-0.13323729	THIRTIETH NINETEEN SIXTY	-0.034886017
-0.13568898	TWELFTH NINETEEN SIXTY	-0.034886044
-0.16751754	SEVENTH NINETEEN SIXTY	-0.034886044
-0.16751754	SIXTEENTH NINETEEN SIXTY	-0.034886044
-0.16751754	SECOND NINETEEN SIXTY	-0.034886044
-0.16751754	SIXTH NINETEEN SIXTY	-0.034886044
-0.2703096	FIVE SIXTEEN SIXTY	-0.034886044
-0.2703096	SIX SIXTEEN SIXTY	-0.034886044
-0.23753206	NINE OF SIXTY	-0.034886044
-0.23753206	MAY NINTH SIXTY	-0.034886044
-0.50053966	I SIXTY ONE	-0.034886044
-0.50053966	R SIXTY ONE	-0.034886044
-0.70393884	EIGHT SIXTY ONE	-0.034886044
-0.8966799	ENTER SIXTY ONE	-0.034886044
-0.80036896	FOURTEEN SIXTY ONE	-0.034886044
-1.0526507	NINETEEN SIXTY ONE	-0.12886542
-1.1921653	EIGHT ONE ONE	-0.034886044
-1.02438	FIVE ONE ONE	-0.034886044
-0.9695183	ZERO ONE ONE	-0.034886044
-1.2798647	FOUR ONE ONE	-0.034886044
-1.1126512	THREE ONE ONE	-0.034886044
-1.251903	<s> TWO ONE	-0.034886044
-1.3357329	ONE TWO ONE	-0.034886044
-1.1662921	TWO TWO ONE	-0.034886044
-1.0484493	FIVE TWO ONE	-0.070076615
-0.9107752	FOUR TWO ONE	-0.034886017
-1.0721939	SEVEN TWO ONE	-0.034886044
-0.822988	AND EIGHTY ONE	-0.034886044
-1.1775901	<s> NINE ONE	-0.034886044
-1.2342274	TWO NINE ONE	-0.034886044
-0.6889099	SEVEN NINE ONE	-0.12886542
-1.766843	E R ONE	-0.034886044
-1.2258544	R Y ONE	-0.034886044
-0.8559487	V Y ONE	-0.034886044
-1.2034433	ONE EIGHT ONE	-0.034886044
-0.9778592	TWO EIGHT ONE	-0.034886044
-1.0736045	SIX EIGHT ONE	-0.034886044
-1.1406126	ENTER EIGHT ONE	-0.034886044
-1.1767578	OH EIGHT ONE	-0.034886044
-0.93340325	<s> FIVE ONE	-0.09522816
-1.2306461	ONE FIVE ONE	-0.034886044
-1.1066308	TWO FIVE ONE	-0.034886044
-1.0205709	NINE FIVE ONE	-0.034886044
-1.119148	EIGHT FIVE ONE	-0.034886044
-0.7623086	FOUR FIVE ONE	-0.12886542
-1.0016153	SEVEN FIVE ONE	-0.034886044
-1.1231219	ONE SIX ONE	-0.034886044
-1.0868263	EIGHT SIX ONE	-0.034886044
-0.843065	FIVE SIX ONE	-0.034886044
-1.1782483	SIX SIX ONE	-0.034886044
-1.0741792	ENTER SIX ONE	-0.034886044
-1.0492977	THREE SIX ONE	-0.034886044
-0.88274217	K H ONE	-0.034886044
-0.97143936	ONE ZERO ONE	-0.034886044
-0.52904034	SIX ZERO ONE	-0.034886044
-0.8798232	SEVEN ZERO ONE	-0.034886044
-0.48882866	<s> FOUR ONE	-0.5228787
-1.0314957	TWO FOUR ONE	-0.12886542
-0.9673224	EIGHT FOUR ONE	-0.034886044
-0.7313114	ZERO FOUR ONE	-0.034886044
-0.880877	FOUR FOUR ONE	-0.034886044
-0.5174729	T FOUR ONE	-0.034886044
-0.91672426	SEVEN FOUR ONE	-0.034886044
-0.5174729	CODE FOUR ONE	-0.034886044
-1.5414659	<s> ENTER ONE	-0.034886017
-0.83713	<s> FIFTY ONE	-0.034886044
-0.9163742	ENTER FIFTY ONE	-0.034886044
-0.7440295	SEVENTEEN FIFTY ONE	-0.034886044
-1.3367026	<s> THREE ONE	-0.034886044
-1.2088214	EIGHT THREE ONE	-0.034886044
-0.95406663	SIX THREE ONE	-0.034886044
-0.94923717	SEVEN THREE ONE	-0.034886044
-0.56599617	EIGHT FORTY ONE	-0.034886044
-0.9424633	ENTER FORTY ONE	-0.034886044
-0.87662363	E B ONE	-0.034886044
-0.85374737	D Q ONE	-0.034886044
-0.7277045	<s> THIRTY ONE	-0.034886044
-0.3306352	ONE THIRTY ONE	-0.034886044
-0.4508972	TWO THIRTY ONE	-0.12886542
-0.43846822	R THIRTY ONE	-0.034886044
-0.43846822	L THIRTY ONE	-0.034886044
-0.43846822	TEN THIRTY ONE	-0.034886044
-0.8709165	Y U ONE	-0.034886044
-0.99594206	TWO SEVEN ONE	-0.034886044
-1.1588727	EIGHT SEVEN ONE	-0.034886044
-1.114099	THREE SEVEN ONE	-0.034886044
-0.57199425	C SEVEN ONE	-0.034886044
-0.83470035	M J ONE	-0.034886044
-0.5776912	D J ONE	-0.034886044
-1.2070142	E D ONE	-0.034886044
-1.0240803	Q D ONE	-0.034886044
-0.27466148	EIGHT SEVENTY ONE	-0.12886542
-0.3555741	FOUR SEVENTY ONE	-0.034886044
-0.5474366	ENTER SEVENTY ONE	-0.034886044
-0.49096304	THREE SEVENTY ONE	-0.034886044
-0.3555741	N SEVENTY ONE	-0.034886044
-0.3555741	TEN SEVENTY ONE	-0.034886044
-1.0836923	ONE OH ONE	-0.034886044
-1.0148579	TWO OH ONE	-0.034886044
-0.9980439	FIVE OH ONE	-0.034886044
-0.9482359	FOUR OH ONE	-0.034886044
-0.889448	THREE OH ONE	-0.034886044
-0.6053548	V S ONE	-0.034886044
-0.8637967	FOUR TWENTY ONE	-0.034886044
-0.53868026	FOUR NINETY ONE	-0.034886044
-0.53018516	SEVEN THOUSAND ONE	-0.034886044
-1.1012591	<s> X G	-0.034886044
-1.291251	R I G	-0.034886044
-0.8231922	ERASE I G	-0.034886044
-1.1002804	H I G	-0.034886044
-1.2512181	L I G	-0.034886044
-1.3572066	<s> R G	-0.034886044
-1.4749258	A R G	-0.034886044
-1.2047873	U R G	-0.034886044
-1.2494104	D R G	-0.034886044
-1.4040328	B E G	-0.034886044
-1.320965	F E G	-0.034886044
-1.2177784	N E G	-0.034886044
-1.4171642	O W G	-0.034886044
-0.6023169	Z Y G	-0.034886044
-1.27551	<s> ERASE G	-0.034886044
-1.0360689	O H G	-0.034886044
-0.8761334	J H G	-0.034886044
-1.2707059	T T G	-0.034886044
-0.9790368	RUBOUT T G	-0.034886044
-0.5809938	M T G	-0.034886044
-1.2141314	<s> A G	-0.12886542
-1.1316327	Z A G	-0.034886044
-1.4263915	N A G	-0.034886044
-1.1448449	H B G	-0.034886044
-1.0091112	I Q G	-0.034886044
-1.5970064	<s> P G	0
-1.2040558	O U G	-0.034886044
-1.0147173	RUBOUT U G	-0.034886044
-0.5625137	D U G	-0.034886044
-0.60350555	M F G	-0.034886044
-0.8694532	RUBOUT Z G	-0.034886044
-1.176727	RUBOUT O G	-0.034886044
-1.5200506	<s> RUBOUT G	-0.034886044
-1.3452957	<s> N G	-0.034886044
-0.8305583	I N G	-0.034886044
-1.4141634	A N G	-0.034886044
-1.3679245	O N G	-0.034886044
-1.3548634	G L G	-0.034886044
-1.683991	E L G	-0.034886044
-1.8122979	<s> M G	-0.034886044
-0.59491205	ERASE J G	-0.034886044
-0.5837195	S X TWO	-0.034886044
-0.84265316	ONE SIXTY TWO	-0.034886044
-0.95013267	ENTER SIXTY TWO	-0.034886044
-0.52122587	O SIXTY TWO	-0.034886044
-0.52122587	FIFTEEN SIXTY TWO	-0.034886044
-0.52122587	NINTH SIXTY TWO	-0.034886044
-1.5814962	<s> ONE TWO	-0.034886017
-0.97068155	TWO ONE TWO	-0.034886017
-0.9013044	NINE ONE TWO	-0.034886044
-0.54822075	R ONE TWO	-0.034886044
-1.139518	SIX ONE TWO	-0.034886044
-0.94247323	FOUR ONE TWO	-0.06400992
-0.7267735	THREE ONE TWO	-0.12886542
-1.4626198	<s> G TWO	-0.034886044
-1.007708	A G TWO	-0.034886044
-1.3095927	<s> TWO TWO	-0.034886044
-1.0194063	ONE TWO TWO	-0.034886017
-1.063045	TWO TWO TWO	-0.034886044
-0.9468644	NINE TWO TWO	-0.034886044
-1.0623952	FIVE TWO TWO	-0.034886044
-1.047025	SIX TWO TWO	-0.034886044
-0.8492679	FOUR TWO TWO	-0.034886017
-0.53029287	O TWO TWO	-0.034886044
-0.9749171	SEVEN TWO TWO	-0.034886044
-1.1057336	<s> NINE TWO	-0.034886044
-1.0770493	FIVE NINE TWO	-0.034886044
-1.0852358	SIX NINE TWO	-0.034886044
-1.0226237	SEVEN NINE TWO	-0.034886044
-1.7477415	L E TWO	-0.034886044
-0.5964866	W W TWO	-0.034886044
-1.0563517	<s> EIGHT TWO	-0.034886044
-1.0988077	ONE EIGHT TWO	-0.034886044
-1.1393274	TWO EIGHT TWO	-0.034886044
-1.0459234	EIGHT EIGHT TWO	-0.034886044
-0.5332464	ZERO EIGHT TWO	-0.034886044
-0.8476336	FOUR EIGHT TWO	-0.034886044
-1.0435991	ENTER EIGHT TWO	-0.034886044
-0.5680299	<s> FIVE TWO	-0.013620029
-1.095084	ONE FIVE TWO	-0.034886017
-0.8045606	TWO FIVE TWO	-0.034886017
-0.9127864	NINE FIVE TWO	-0.034886044
-0.8689235	FIVE FIVE TWO	-0.034886044
-0.9289381	FOUR FIVE TWO	-0.034886044
-0.8479407	ENTER FIVE TWO	-0.034886044
-0.9127864	THREE FIVE TWO	-0.034886044
-0.6968466	U FIVE TWO	-0.034886044
-0.9039286	SEVEN FIVE TWO	-0.034886044
-1.3066825	<s> SIX TWO	-0.034886044
-1.1202723	ONE SIX TWO	-0.034886044
-1.1248629	NINE SIX TWO	-0.034886044
-0.91907877	SIX SIX TWO	-0.034886044
-1.0714273	ENTER SIX TWO	-0.034886044
-0.5502364	Q SIX TWO	-0.034886044
-0.601897	B H TWO	-0.034886044
-1.0745331	EIGHT ZERO TWO	-0.034886044
-0.9741728	THREE ZERO TWO	-0.034886044
-0.7874386	<s> FOUR TWO	0
-0.76906097	TWO FOUR TWO	-0.070076615
-1.0837569	EIGHT FOUR TWO	-0.12886542
-1.1137161	FIVE FOUR TWO	-0.034886044
-1.1614499	<s> ENTER TWO	-0.09522816
-1.4410441	D A TWO	-0.034886044
-0.5741744	H FIFTY TWO	-0.034886044
-0.41446412	NINETEEN FIFTY TWO	-0.12886542
-1.19307	<s> THREE TWO	-0.034886044
-0.81959873	TWO THREE TWO	-0.034886044
-1.0911611	EIGHT THREE TWO	-0.034886044
-1.091741	FIVE THREE TWO	-0.034886044
-1.1186266	SIX THREE TWO	-0.034886044
-0.5377096	P THREE TWO	-0.034886044
-0.8108975	FOUR FORTY TWO	-0.034886044
-0.8108975	THREE FORTY TWO	-0.034886044
-0.84950995	T Q TWO	-0.034886044
-0.8575271	<s> THIRTY TWO	-0.034886044
-0.50032383	I THIRTY TWO	-0.034886044
-0.50032383	EIGHT THIRTY TWO	-0.034886044
-0.70359415	SIX THIRTY TWO	-0.034886044
-0.86687964	A U TWO	-0.034886044
-0.8048519	T F TWO	-0.034886044
-0.8048519	U F TWO	-0.034886044
-0.56092197	C F TWO	-0.034886044
-0.8573066	Y Z TWO	-0.034886044
-1.0534587	Z O TWO	-0.034886044
-1.098754	ONE SEVEN TWO	-0.034886044
-1.2733171	TWO SEVEN TWO	-0.034886044
-0.9219001	FOUR SEVEN TWO	-0.034886044
-1.098754	ENTER SEVEN TWO	-0.034886044
-1.0502714	C L TWO	-0.034886044
-0.8562186	I K TWO	-0.034886044
-0.8562186	J K TWO	-0.034886044
-1.4378729	A M TWO	-0.034886044
-0.8699667	P D TWO	-0.034886044
-0.5968506	J D TWO	-0.034886044
-0.44188738	X SEVENTY TWO	-0.034886044
-0.44188738	NINE SEVENTY TWO	-0.034886044
-0.69032025	ENTER SEVENTY TWO	-0.034886044
-0.44188738	SEVEN SEVENTY TWO	-0.034886044
-0.82346207	ONE OH TWO	-0.09522816
-1.0121267	TWO OH TWO	-0.034886044
-0.9459511	FOUR OH TWO	-0.034886044
-0.97412574	SEVEN OH TWO	-0.034886044
-0.5131595	OH OH TWO	-0.034886044
-0.57879126	<s> TWENTY TWO	-0.034886044
-0.57879126	ONE TWENTY TWO	-0.034886044
-1.3568811	I C TWO	-0.034886044
-0.61047465	Q G EIGHTY	-0.034886044
-0.9123339	G TWO EIGHTY	-0.034886044
-1.1803517	ENTER NINE EIGHTY	-0.034886044
-0.6173137	F SIX EIGHTY	-0.034886044
-1.8610245	<s> ENTER EIGHTY	-0.034886044
-1.4841082	S T EIGHTY	-0.034886044
-0.9053124	ENTER THREE EIGHTY	-0.034886044
-1.4389086	O U EIGHTY	-0.034886044
-0.89371353	G K EIGHTY	-0.034886044
-0.55054194	W FOURTEEN EIGHTY	-0.034886044
-0.8744156	EIGHT HUNDRED EIGHTY	-0.034886044
-0.52632976	FIVE HUNDRED EIGHTY	-0.034886044
-0.54494053	HUNDRED AND EIGHTY	-0.09522816
-0.99526745	B X NINE	-0.034886044
-0.7045812	EIGHT SIXTY NINE	-0.034886044
-0.7045812	SIX SIXTY NINE	-0.034886044
-0.37046784	Z SIXTY NINE	-0.12886542
-0.5009417	TEN SIXTY NINE	-0.034886044
-0.5738481	NINETEEN SIXTY NINE	-0.30103
-0.7045812	SIXTEEN SIXTY NINE	-0.034886044
-1.7119551	<s> ONE NINE	-0.034886044
-1.1692655	TWO ONE NINE	-0.034886044
-0.74866575	Y ONE NINE	-0.034886044
-0.7952571	EIGHT ONE NINE	-0.12886542
-1.1167425	FIVE ONE NINE	-0.034886044
-1.0709676	SIX ONE NINE	-0.034886044
-0.8569695	ENTER ONE NINE	-0.034886044
-0.9845793	THREE ONE NINE	-0.034886044
-0.9845793	OH ONE NINE	-0.034886044
-1.1860753	R G NINE	-0.034886044
-1.014809	T G NINE	-0.034886044
-1.4578471	<s> TWO NINE	-0.034886044
-1.1674732	TWO TWO NINE	-0.034886044
-1.2059113	FOUR TWO NINE	-0.034886044
-1.0732987	SEVEN TWO NINE	-0.034886044
-0.8087281	D TWO NINE	-0.034886044
-1.127313	OH TWO NINE	-0.034886044
-0.45732826	TWO EIGHTY NINE	-0.034886044
-0.45732826	NINE EIGHTY NINE	-0.034886044
-0.45732826	ENTER EIGHTY NINE	-0.034886044
-0.8067412	G NINE NINE	-0.034886044
-1.095399	EIGHT NINE NINE	-0.034886044
-1.0132592	FOUR NINE NINE	-0.034886044
-1.0272024	THREE NINE NINE	-0.034886044
-0.8307593	NINE EIGHT NINE	-0.034886044
-0.8307593	E EIGHT NINE	-0.034886044
-0.8349594	EIGHT EIGHT NINE	-0.034886044
-1.2374967	OH EIGHT NINE	-0.034886044
-1.1104118	NINE FIVE NINE	-0.034886044
-1.2266834	EIGHT FIVE NINE	-0.034886044
-1.0811427	SIX FIVE NINE	-0.034886044
-0.8060652	F FIVE NINE	-0.034886044
-1.035084	OH FIVE NINE	-0.034886044
-1.223994	ONE SIX NINE	-0.034886044
-1.1810094	EIGHT SIX NINE	-0.034886044
-1.2181907	FOUR SIX NINE	-0.034886044
-0.9393366	OH SIX NINE	-0.034886044
-0.8843826	F H NINE	-0.034886044
-0.91183645	ONE FOUR NINE	-0.034886044
-1.5186571	TWO FOUR NINE	-0.034886044
-1.4024049	SIX FOUR NINE	-0.034886044
-1.3816048	<s> ENTER NINE	-0.034886044
-1.2059315	E V NINE	-0.034886044
-0.86083496	NINE FIFTY NINE	-0.034886044
-1.1939961	TWO THREE NINE	-0.034886044
-1.2429215	SIX THREE NINE	-0.034886044
-1.2208356	THREE THREE NINE	-0.034886044
-0.5694039	N THREE NINE	-0.034886044
-0.70938355	FOUR FORTY NINE	-0.034886044
-0.70938355	B FORTY NINE	-0.034886044
-0.5039403	HUNDRED FORTY NINE	-0.034886044
-0.8438451	NINE THIRTY NINE	-0.034886044
-0.58272743	M THIRTY NINE	-0.034886044
-0.8633374	R Z NINE	-0.034886044
-1.259926	<s> SEVEN NINE	-0.034886044
-1.2814145	TWO SEVEN NINE	-0.034886044
-1.1717533	SIX SEVEN NINE	-0.034886044
-0.8254993	ZERO SEVEN NINE	-0.034886044
-1.5522588	L L NINE	-0.034886044
-0.6003778	M K NINE	-0.034886044
-0.5634419	G SEVENTY NINE	-0.034886044
-0.4082022	B SEVENTY NINE	-0.034886044
-1.2869567	ONE OH NINE	-0.034886044
-0.9387422	EIGHT OH NINE	-0.034886044
-1.0201634	THREE OH NINE	-0.034886044
-0.58150053	ENTER TWENTY NINE	-0.034886044
-0.58028936	SEVEN TWENTY NINE	-0.034886044
-0.5312699	EIGHT THOUSAND NINE	-0.034886044
-1.0041655	<s> TWELVE NINE	-0.034886044
-0.67460346	<s> ELEVEN NINE	-0.034886044
-1.0016369	B X R	-0.034886044
-0.88608325	Z I R	-0.034886044
-0.88608325	RUBOUT I R	-0.034886044
-1.5514432	<s> G R	-0.034886044
-1.1539598	A R R	0
-1.2022235	U R R	-0.034886044
-0.96751064	RUBOUT R R	-0.034886044
-0.96751064	L R R	-0.034886044
-0.8488084	<s> E R	0
-1.0059161	I E R	-0.034886044
-1.0055045	E E R	-0.034886044
-0.50666213	Y E R	-0.034886044
-0.95658207	H E R	-0.034886044
-0.64454025	T E R	-0.034886044
-0.8591136	V E R	-0.034886017
-0.71223027	B E R	-0.034886017
-0.7137601	P E R	-0.034886044
-0.96281606	F E R	-0.034886044
-1.1146468	L E R	-0.034886044
-0.9927476	K E R	-0.034886044
-0.7189325	M E R	-0.034886044
-0.728238	D E R	-0.034886044
-1.4258487	<s> W R	-0.034886044
-0.8783562	C Y R	-0.034886044
-1.463944	<s> ERASE R	-0.034886044
-0.87452376	M H R	-0.034886044
-1.4475938	C H R	-0.034886044
-1.0795289	<s> T R	-0.034886044
-1.1898944	N T R	-0.034886044
-1.3008317	S T R	-0.034886044
-1.0248691	ERASE V R	-0.034886044
-1.0541509	<s> A R	-0.034886044
-0.7050352	G A R	-0.034886044
-1.006874	E A R	-0.034886044
-0.7050352	W A R	-0.09522816
-0.8068969	H A R	-0.034886044
-0.98013	V A R	-0.034886044
-0.65694624	B A R	-0.034886044
-0.8513564	P A R	-0.034886044
-0.6992558	U A R	-0.034886044
-0.49760205	F A R	-0.034886044
-1.02439	L A R	-0.034886044
-0.6992558	K A R	-0.034886044
-0.7737492	M A R	-0.108372115
-0.9495328	C A R	-0.034886044
-0.49236387	<s> B R	-0.1393662
-0.866211	Y B R	-0.034886044
-1.0235348	S P R	-0.034886044
-0.5370423	I U R	-0.034886044
-0.7638061	H U R	-0.034886044
-0.26006404	B U R	-0.043548528
-1.1053736	O U R	-0.034886044
-1.268992	<s> F R	-0.034886044
-0.94120634	E F R	-0.034886044
-0.94120634	F F R	-0.034886044
-0.84475553	R Z R	-0.034886044
-0.84475553	L Z R	-0.034886044
-1.0135413	<s> O R	-0.034886044
-0.94031703	W O R	-0.034886044
-0.50640243	Y O R	-0.034886044
-1.0138814	H O R	-0.034886044
-0.6143793	B O R	-0.034886044
-0.8714886	P O R	-0.034886044
-0.5388223	F O R	-0.09522816
-0.91142553	L O R	-0.034886044
-0.686208	M O R	-0.09522816
-0.8916185	C O R	-0.034886044
-1.423671	<s> RUBOUT R	-0.034886017
-1.059238	Q N R	-0.034886044
-1.1549251	<s> L R	-0.034886044
-1.0439942	W L R	-0.034886044
-1.331028	R K R	-0.034886044
-1.1246822	<s> D R	-0.034886044
-0.71599823	G D R	-0.034886044
-0.6711111	E D R	-0.12886542
-0.8154793	Y D R	-0.034886044
-0.827438	A D R	-0.034886044
-1.009956	N D R	-0.034886044
-0.98079824	L D R	-0.034886044
-1.5989324	<s> C R	-0.034886044
-1.0383424	G I E	-0.034886044
-0.6425011	T I E	-0.12886542
-1.0518811	V I E	-0.034886044
-0.95375896	F I E	-0.034886044
-1.1062777	N I E	-0.034886044
-0.8916139	L I E	-0.034886017
-1.4842813	<s> G E	-0.034886044
-0.59540164	M G E	-0.034886044
-1.0957019	<s> R E	-0.034886044
-0.5117761	G R E	-0.034886044
-0.88404703	R R E	-0.034886044
-0.99062014	E R E	-0.09522816
-0.4694063	T R E	-0.034886017
-1.0504326	A R E	-0.034886044
-0.9703527	B R E	-0.034886044
-1.0737412	O R E	-0.034886044
-0.8230758	RUBOUT R E	-0.034886044
-0.79439545	G E E	-0.034886044
-1.079181	R E E	-0.034886044
-1.2629638	T E E	-0.034886044
-1.1790375	B E E	-0.034886044
-0.79439545	Q E E	-0.034886044
-1.3165593	L E E	-0.034886044
-0.8839675	K E E	-0.12886542
-1.0995106	M E E	-0.034886044
-1.2382128	<s> W E	-0.034886044
-0.5592555	ERASE W E	-0.034886044
-1.2124951	O W E	-0.034886044
-1.2121168	A Y E	-0.034886044
-1.2623156	<s> ERASE E	-0.034886044
-0.73164946	W H E	-0.034886044
-1.1665277	T H E	-0.034886044
-0.89808905	P H E	-0.034886044
-0.5176796	D H E	-0.034886044
-0.73164946	S H E	-0.034886044
-1.0773764	C H E	-0.034886044
-1.0359465	<s> T E	-0.034886044
-0.69731474	H T E	-0.034886044
-0.7802055	T T E	-0.034886044
-0.81395334	A T E	-0.034886044
-0.79211354	P T E	-0.034886044
-0.8863989	O T E	-0.034886044
-0.79211354	K T E	-0.034886044
-0.8134239	S T E	-0.034886017
-0.54858315	<s> V E	-0.00846234
-0.7717062	I V E	-0.034886044
-0.5190586	E V E	-0.034886044
-0.62371665	A V E	-0.047062445
-0.6808344	RUBOUT V E	-0.034886044
-1.605156	H A E	-0.034886044
-1.1705914	Z A E	-0.034886044
-0.7105991	<s> B E	-0.06400992
-0.73463374	Y B E	-0.034886044
-0.8390442	O B E	-0.034886044
-0.73463374	M B E	-0.034886044
-0.51950043	C B E	-0.034886044
-0.83112526	<s> Q E	-0.034886044
-0.83112526	ERASE Q E	-0.034886044
-0.58616173	V P E	-0.034886044
-0.99207723	M P E	-0.034886044
-0.5901929	Q U E	-0.034886044
-0.8575629	N U E	-0.034886044
-0.7931643	<s> F E	-0.034886017
-0.51886153	X F E	-0.034886044
-0.73358583	I F E	-0.034886044
-0.73358583	H F E	-0.034886044
-0.51886153	N F E	-0.034886044
-0.88390434	<s> Z E	-0.034886044
-0.5404173	O Z E	-0.034886044
-0.7695104	L Z E	-0.034886044
-1.5244703	H O E	-0.034886044
-1.500653	<s> RUBOUT E	-0.034886044
-0.4571404	<s> N E	-0.070076615
-1.0949348	I N E	-0.034886044
-0.6488041	R N E	-0.034886044
-0.68967646	Y N E	-0.034886044
-0.49155617	T N E	-0.034886044
-0.95299155	A N E	-0.09522816
-0.68967646	P N E	-0.034886044
-1.0287392	O N E	-0.034886044
-0.9356097	N N E	-0.034886044
-0.49155617	D N E	-0.034886044
-0.7886789	<s> L E	-0.034886044
-0.57153976	G L E	-0.034886017
-0.7116586	R L E	-0.034886044
-0.9215153	E L E	-0.034886044
-0.7799773	Y L E	-0.034886044
-0.6255568	H L E	-0.034886044
-0.33803996	T L E	-0.034886044
-0.77193713	A L E	-0.034886044
-0.49441618	P L E	0
-0.7799773	O L E	-0.034886044
-0.77705973	L L E	-0.034886044
-0.4498405	D L E	-0.034886044
-0.6255568	S L E	-0.034886044
-0.79712534	<s> K E	-0.034886044
-0.9664503	R K E	-0.034886044
-0.5029309	U K E	-0.034886044
-0.5029309	N K E	-0.034886044
-0.920487	S K E	-0.034886044
-0.98114777	C K E	-0.034886044
-1.2251508	<s> M E	-0.034886044
-1.0914762	A M E	-0.034886044
-0.84774697	B M E	-0.034886044
-0.9900482	O M E	-0.034886044
-0.84774697	M M E	-0.034886044
-0.7044991	<s> J E	-0.070076615
-1.1743735	<s> D E	-0.034886044
-0.91228896	I D E	-0.034886044
-0.74127823	G D E	-0.034886044
-1.070454	A D E	-0.034886044
-1.0568154	N D E	-0.034886044
-1.0261897	L D E	-0.034886044
-1.2815651	<s> S E	-0.034886044
-1.0554924	U S E	-0.034886044
-0.57581484	O S E	-0.034886044
-1.0101918	<s> C E	-0.09522816
-1.2058568	A C E	-0.034886044
-1.0159245	N C E	-0.034886044
-0.5930098	H X W	-0.034886044
-1.5104373	<s> G W	-0.034886044
-0.8741031	ERASE G W	-0.034886044
-1.5623846	O R W	-0.034886044
-1.4107301	D R W	-0.034886044
-1.3322947	<s> E W	-0.034886044
-1.2052231	I E W	-0.034886044
-1.1095045	R E W	-0.034886044
-1.1358144	H E W	-0.034886044
-1.2585024	V E W	-0.034886044
-1.3197297	N E W	-0.034886044
-1.1846337	L E W	-0.034886044
-1.1438284	K W W	-0.034886044
-1.0143402	<s> Y W	-0.034886044
-0.8660715	V Y W	-0.034886044
-1.485127	<s> ERASE W	-0.034886044
-1.0510513	RUBOUT H W	-0.034886044
-0.8954474	Q T W	-0.034886044
-1.2345866	H A W	-0.034886044
-1.2629647	O A W	-0.034886044
-1.0137026	I Q W	-0.034886044
-0.5982226	D Z W	-0.034886044
-1.0482794	R O W	-0.034886044
-1.1929495	H O W	-0.034886044
-1.098395	T O W	-0.034886044
-0.9926409	N O W	-0.034886044
-1.0462503	L O W	-0.034886044
-0.8433554	D O W	-0.034886017
-1.5321194	<s> RUBOUT W	-0.034886044
-1.2286698	<s> K W	-0.034886044
-0.5698384	Z K W	-0.034886044
-0.8770303	C K W	-0.034886044
-0.8696971	G J W	-0.034886044
-0.96278423	I D W	-0.034886044
-1.027279	R D W	-0.034886044
-1.027279	E D W	-0.034886044
-0.54346323	U D W	-0.034886044
-0.54346323	F D W	-0.034886044
-1.6962905	<s> S W	-0.034886044
-1.0358685	L S W	-0.034886044
-0.60561484	K C W	-0.034886044
-0.96478736	F X Y	-0.034886044
-0.830279	K X Y	-0.034886044
-1.1684551	F I Y	-0.034886044
-1.327872	A R Y	-0.034886017
-1.2645581	U R Y	-0.034886044
-1.4286784	O R Y	-0.034886044
-1.2592546	N E Y	-0.12886542
-1.2243236	L E Y	-0.09522816
-0.9072059	E W Y	-0.034886017
-0.6013036	RUBOUT Y Y	-0.034886044
-1.463944	<s> ERASE Y	-0.034886044
-1.3867899	T H Y	-0.034886044
-1.0518324	P H Y	-0.034886044
-1.3108342	C H Y	-0.034886044
-0.99440736	I V Y	-0.034886044
-0.99440736	ERASE V Y	-0.034886044
-1.3992461	<s> A Y	-0.034886044
-1.1863679	W A Y	-0.034886044
-1.3723228	H A Y	-0.034886044
-0.8376963	T A Y	-0.034886044
-0.8376963	S A Y	-0.034886044
-1.7859683	<s> B Y	-0.034886044
-0.5916061	G Q Y	-0.034886044
-1.1247065	E P Y	-0.034886044
-1.0298569	E U Y	-0.034886044
-1.4191759	<s> F Y	-0.034886044
-1.0127599	RUBOUT F Y	-0.034886044
-0.5954828	ERASE Z Y	-0.034886044
-1.5324028	H O Y	-0.034886044
-1.6551636	<s> RUBOUT Y	-0.034886044
-0.61131346	V N Y	-0.034886044
-0.9591421	R L Y	-0.034886044
-1.3959408	L L Y	-0.034886044
-0.5868109	J L Y	-0.034886044
-1.192533	S K Y	-0.034886044
-1.2993838	C K Y	-0.034886044
-0.5953332	ERASE M Y	-0.034886044
-1.4188727	A M Y	-0.034886044
-1.5159659	<s> D Y	-0.034886044
-0.98629963	N D Y	-0.12886542
-1.3593223	A C Y	-0.034886044
-1.0138383	RUBOUT C Y	-0.034886044
-0.5447228	NINE SIXTY EIGHT	-0.034886044
-0.7768322	FOUR SIXTY EIGHT	-0.034886044
-0.9823187	THREE SIXTY EIGHT	-0.034886044
-0.8934572	SEVEN SIXTY EIGHT	-0.034886044
-1.067421	ONE ONE EIGHT	-0.034886044
-1.0777023	TWO ONE EIGHT	-0.034886017
-1.1962042	FIVE ONE EIGHT	-0.034886044
-1.1844919	FOUR ONE EIGHT	-0.034886044
-0.5490259	B ONE EIGHT	-0.034886044
-1.0292126	SEVEN ONE EIGHT	-0.034886044
-0.7842014	D ONE EIGHT	-0.034886044
-1.0209966	ONE TWO EIGHT	-0.034886044
-0.530927	E TWO EIGHT	-0.034886044
-1.0881386	EIGHT TWO EIGHT	-0.034886044
-1.2158213	FIVE TWO EIGHT	-0.034886044
-1.049016	SIX TWO EIGHT	-0.034886044
-0.8078836	THREE TWO EIGHT	-0.12886542
-0.530927	Q TWO EIGHT	-0.034886044
-0.75354713	K TWO EIGHT	-0.034886044
-1.0245532	OH TWO EIGHT	-0.034886044
-0.57117116	SIX EIGHTY EIGHT	-0.034886044
-1.4116255	ONE NINE EIGHT	-0.034886044
-1.1362141	ENTER NINE EIGHT	-0.034886044
-0.896541	P E EIGHT	-0.034886044
-1.3712556	F E EIGHT	-0.034886044
-0.5892836	Q W EIGHT	-0.034886044
-0.5892836	Z W EIGHT	-0.034886044
-1.0001649	W Y EIGHT	-0.034886044
-0.58931994	Q Y EIGHT	-0.034886044
-0.88210964	<s> EIGHT EIGHT	-0.034886044
-1.264968	ONE EIGHT EIGHT	-0.034886044
-0.82995296	NINE EIGHT EIGHT	-0.034886044
-0.9334338	SEVEN EIGHT EIGHT	-0.034886044
-1.2080861	TWO FIVE EIGHT	-0.034886044
-1.2248762	EIGHT FIVE EIGHT	-0.034886044
-1.0798492	SIX FIVE EIGHT	-0.034886044
-1.1206442	FOUR FIVE EIGHT	-0.034886044
-1.0798492	SEVEN FIVE EIGHT	-0.034886044
-0.8313287	<s> SIX EIGHT	-0.079338595
-0.54504293	TWO SIX EIGHT	-0.0565438
-1.0868263	EIGHT SIX EIGHT	-0.034886044
-1.1782483	SIX SIX EIGHT	-0.034886044
-1.0492977	THREE SIX EIGHT	-0.034886044
-0.5510633	Z SIX EIGHT	-0.034886044
-1.188447	ONE ZERO EIGHT	-0.034886044
-1.2909535	<s> FOUR EIGHT	-0.034886044
-1.1049004	ONE FOUR EIGHT	-0.034886044
-0.7760836	ZERO FOUR EIGHT	-0.034886044
-1.1726235	FOUR FOUR EIGHT	-0.034886044
-1.029622	THREE FOUR EIGHT	-0.034886044
-0.9812145	SEVEN FOUR EIGHT	-0.034886044
-1.0895106	<s> ENTER EIGHT	-0.034886044
-0.8673698	<s> FIFTY EIGHT	-0.034886044
-0.7044424	ONE FIFTY EIGHT	-0.034886044
-0.6254977	NINE FIFTY EIGHT	-0.034886044
-0.6254977	Q FIFTY EIGHT	-0.034886044
-0.44980103	TWELVE FIFTY EIGHT	-0.034886044
-1.0869889	TWO THREE EIGHT	-0.034886044
-1.0948397	EIGHT THREE EIGHT	-0.034886044
-1.1224174	SIX THREE EIGHT	-0.034886044
-1.0140593	FOUR THREE EIGHT	-0.034886044
-1.1065607	THREE THREE EIGHT	-0.034886044
-0.8802979	OH THREE EIGHT	-0.034886044
-0.848405	B FORTY EIGHT	-0.034886044
-1.0292608	O B EIGHT	-0.034886044
-0.58197445	F THIRTY EIGHT	-0.034886044
-0.8424722	SEVEN THIRTY EIGHT	-0.034886044
-1.0149951	N P EIGHT	-0.034886044
-1.026973	F F EIGHT	-0.034886044
-0.61052	K O EIGHT	-0.034886044
-1.1117475	TWO SEVEN EIGHT	-0.034886044
-1.0228795	EIGHT SEVEN EIGHT	-0.034886044
-0.71014154	FIVE SEVEN EIGHT	-0.034886044
-1.0375862	SIX SEVEN EIGHT	-0.034886044
-0.5303586	H SEVEN EIGHT	-0.034886044
-0.99092996	THREE SEVEN EIGHT	-0.034886044
-0.75259864	B SEVEN EIGHT	-0.034886044
-0.87463677	J K EIGHT	-0.034886044
-0.8764021	V M EIGHT	-0.034886044
-0.98621583	ENTER SEVENTY EIGHT	-0.034886044
-0.94857734	TWO OH EIGHT	-0.034886044
-0.78178567	EIGHT OH EIGHT	-0.034886044
-0.69519	SIX OH EIGHT	-0.034886044
-0.8921478	FOUR OH EIGHT	-0.034886044
-0.83686036	THREE OH EIGHT	-0.034886044
-0.69519	SEVEN OH EIGHT	-0.12886542
-0.7074269	FOUR TWENTY EIGHT	-0.034886044
-0.8047286	THREE TWENTY EIGHT	-0.034886044
-0.50272006	TEN TWENTY EIGHT	-0.034886044
-0.50272006	NINETEEN TWENTY EIGHT	-0.034886044
-0.53868026	Z NINETY EIGHT	-0.034886044
-0.48111388	SIX THOUSAND EIGHT	-0.034886044
-0.76244974	FOUR THOUSAND EIGHT	-0.034886044
-0.5874119	W X FIVE	-0.034886044
-1.054076	P I FIVE	-0.034886044
-0.5986409	THIRTY SIXTY FIVE	-0.034886044
-1.1650655	NINETEEN SIXTY FIVE	0
-0.1446825	<s> ONE FIVE	-0.7428966
-1.0015883	ONE ONE FIVE	-0.034886044
-1.0171194	TWO ONE FIVE	-0.034886044
-1.1167425	FIVE ONE FIVE	-0.034886044
-0.8377343	SIX ONE FIVE	-0.034886044
-0.5323682	ZERO ONE FIVE	-0.034886044
-0.74866575	J ONE FIVE	-0.034886044
-0.9845793	OH ONE FIVE	-0.034886044
-0.5279968	S ONE FIVE	-0.034886044
-1.4041743	<s> TWO FIVE	-0.034886044
-0.75339407	ONE TWO FIVE	-0.079338595
-1.3025175	TWO TWO FIVE	-0.034886044
-1.3087066	FIVE TWO FIVE	-0.034886044
-1.1198949	SIX TWO FIVE	-0.034886044
-0.9862183	ENTER TWO FIVE	-0.034886044
-0.9275585	F TWO FIVE	-0.034886044
-0.5720674	FOURTEEN EIGHTY FIVE	-0.034886044
-0.90732074	ONE NINE FIVE	-0.034886044
-1.0304133	FIVE NINE FIVE	-0.034886044
-1.0396905	SIX NINE FIVE	-0.034886044
-0.9656718	FOUR NINE FIVE	-0.034886044
-0.9819101	THREE NINE FIVE	-0.034886044
-0.5994161	X W FIVE	-0.034886044
-0.98382926	<s> EIGHT FIVE	-0.034886044
-1.0604906	TWO EIGHT FIVE	-0.034886044
-0.7177227	Y EIGHT FIVE	-0.034886044
-0.9469488	FIVE EIGHT FIVE	-0.034886044
-1.0983573	SIX EIGHT FIVE	-0.034886044
-1.0130802	FOUR EIGHT FIVE	-0.034886044
-1.0213921	SEVEN EIGHT FIVE	-0.034886044
-0.50911754	K EIGHT FIVE	-0.034886044
-1.0000038	OH EIGHT FIVE	-0.034886044
-1.4263321	ONE FIVE FIVE	-0.034886044
-1.2713412	TWO FIVE FIVE	-0.034886044
-1.291375	EIGHT FIVE FIVE	-0.034886044
-1.0650872	FIVE FIVE FIVE	-0.034886044
-1.4532474	<s> SIX FIVE	-0.034886044
-0.97902197	SIX SIX FIVE	-0.034886044
-1.1872274	ZERO SIX FIVE	-0.034886044
-1.2181907	FOUR SIX FIVE	-0.034886044
-1.1907516	ONE ZERO FIVE	-0.034886044
-1.5365357	<s> FOUR FIVE	-0.034886044
-1.0725355	FIVE FOUR FIVE	-0.034886044
-1.0059783	SIX FOUR FIVE	-0.034886044
-0.9255623	U FOUR FIVE	-0.034886044
-0.8011601	OH FOUR FIVE	-0.034886044
-1.3816048	<s> ENTER FIVE	-0.034886044
-0.48655286	SIXTY FIFTY FIVE	-0.034886044
-0.8267934	ENTER FIFTY FIVE	-0.034886044
-0.48655286	V FIFTY FIVE	-0.034886044
-0.48655286	SEVEN FIFTY FIVE	-0.034886044
-1.1381692	TWO THREE FIVE	-0.034886044
-0.65894926	NINE THREE FIVE	-0.034886044
-0.79295564	E THREE FIVE	-0.034886044
-1.150195	EIGHT THREE FIVE	-0.034886044
-1.1609793	THREE THREE FIVE	-0.034886044
-0.45625207	FIVE FORTY FIVE	-0.034886044
-0.45625207	SIX FORTY FIVE	-0.034886044
-0.6352017	THREE FORTY FIVE	-0.034886044
-0.45625207	P FORTY FIVE	-0.034886044
-1.1351359	N B FIVE	-0.034886044
-0.8558817	J Q FIVE	-0.034886044
-0.46945548	E THIRTY FIVE	-0.034886044
-0.6552954	FIVE THIRTY FIVE	-0.034886044
-0.6552954	ENTER THIRTY FIVE	-0.034886044
-0.46945548	S THIRTY FIVE	-0.034886044
-0.46945548	C THIRTY FIVE	-0.034886044
-0.85658073	P U FIVE	-0.034886044
-1.0010461	M U FIVE	-0.034886044
-0.592219	W F FIVE	-0.034886044
-0.8613204	K F FIVE	-0.034886044
-1.2601105	F O FIVE	-0.034886044
-1.1610018	EIGHT SEVEN FIVE	-0.034886044
-1.2340537	FOUR SEVEN FIVE	-0.034886044
-0.7615495	THREE SEVEN FIVE	-0.034886044
-0.9718112	SEVEN SEVEN FIVE	-0.034886044
-1.1744865	ONE OH FIVE	-0.034886044
-0.85147685	TWO OH FIVE	-0.12886542
-1.0741161	FIVE OH FIVE	-0.034886044
-1.0480441	SIX OH FIVE	-0.034886044
-1.02245	SEVEN TWENTY FIVE	-0.034886044
-0.5398095	O NINETY FIVE	-0.034886044
-1.4010817	A C FIVE	-0.034886044
-1.0936999	ENTER SIXTY SIX	-0.034886044
-0.56932867	AND SIXTY SIX	-0.034886044
-1.4725991	NINETEEN SIXTY SIX	-0.034886044
-1.8700286	<s> ONE SIX	-0.034886044
-1.1074071	ONE ONE SIX	-0.034886044
-1.1141253	TWO ONE SIX	-0.034886044
-1.1507156	EIGHT ONE SIX	-0.034886044
-1.2321889	FOUR ONE SIX	-0.034886044
-1.0656856	SEVEN ONE SIX	-0.034886044
-0.45926875	<s> TWO SIX	-0.47712123
-1.2019167	ONE TWO SIX	-0.034886044
-1.0663121	TWO TWO SIX	-0.034886044
-0.72038364	EIGHT TWO SIX	-0.034886017
-1.0505152	SIX TWO SIX	-0.034886044
-1.094449	FOUR TWO SIX	-0.034886044
-0.93180084	ENTER TWO SIX	-0.034886044
-0.75434256	D TWO SIX	-0.034886044
-1.0259588	OH TWO SIX	-0.034886044
-0.39452735	G EIGHTY SIX	-0.034886044
-0.39452735	THREE EIGHTY SIX	-0.034886044
-0.39452735	U EIGHTY SIX	-0.034886044
-0.5450861	AND EIGHTY SIX	-0.034886044
-0.87403274	ONE NINE SIX	-0.09522816
-0.74877113	G NINE SIX	-0.034886044
-1.053509	TWO NINE SIX	-0.034886044
-0.70711637	EIGHT NINE SIX	-0.12886542
-0.9847491	FIVE NINE SIX	-0.034886044
-0.8571048	OH NINE SIX	-0.034886044
-1.206141	ONE EIGHT SIX	-0.034886044
-0.8060567	Y EIGHT SIX	-0.034886044
-1.0754209	SIX EIGHT SIX	-0.034886044
-1.1895841	FOUR EIGHT SIX	-0.034886044
-1.1793423	OH EIGHT SIX	-0.034886044
-1.0481147	<s> FIVE SIX	-0.034886017
-1.2310959	ONE FIVE SIX	-0.034886044
-1.0405338	EIGHT FIVE SIX	-0.034886044
-0.8322909	<s> SIX SIX	-0.079338595
-1.3421354	TWO SIX SIX	-0.034886044
-0.8441702	NINE SIX SIX	-0.034886044
-1.1298189	FIVE SIX SIX	-0.034886044
-1.0968454	ZERO SIX SIX	-0.034886044
-0.9091536	SEVEN SIX SIX	-0.034886044
-0.7186316	ONE ZERO SIX	-0.034886044
-0.7630882	TWO ZERO SIX	-0.034886044
-0.71820724	EIGHT ZERO SIX	-0.034886044
-0.71820724	FIVE ZERO SIX	-0.034886044
-0.420075	ZERO ZERO SIX	-0.034886044
-0.6523901	THREE ZERO SIX	-0.034886044
-1.1556723	ONE FOUR SIX	-0.034886044
-1.0193396	NINE FOUR SIX	-0.034886044
-1.0547562	EIGHT FOUR SIX	-0.09522816
-0.74213505	FIVE FOUR SIX	-0.034886044
-1.2628292	SIX FOUR SIX	-0.034886044
-1.0269607	<s> ENTER SIX	-0.021473262
-1.3244451	G A SIX	-0.034886044
-1.5310813	E A SIX	-0.034886044
-0.66002417	<s> FIFTY SIX	-0.034886017
-0.7735696	ONE FIFTY SIX	-0.034886044
-0.48689622	FOUR FIFTY SIX	-0.034886044
-0.6823454	Q FIFTY SIX	-0.034886044
-1.1091526	<s> THREE SIX	-0.034886044
-1.1066374	FOUR THREE SIX	-0.034886044
-1.2220197	THREE THREE SIX	-0.034886044
-0.9513069	SEVEN THREE SIX	-0.034886044
-0.58650863	O FORTY SIX	-0.034886044
-0.6017909	P B SIX	-0.034886044
-0.5898632	W Q SIX	-0.034886044
-0.5831045	THREE THIRTY SIX	-0.034886044
-0.5831045	SEVENTEEN THIRTY SIX	-0.034886044
-0.8778175	K F SIX	-0.034886044
-0.59384716	B Z SIX	-0.034886044
-0.61032426	X N SIX	-0.034886044
-1.3573269	TWO SEVEN SIX	-0.034886044
-0.85298336	NINE SEVEN SIX	-0.034886044
-1.1732855	OH SEVEN SIX	-0.034886044
-1.2849168	R K SIX	-0.034886044
-0.86285985	Q K SIX	-0.034886044
-0.5849943	E SEVENTY SIX	-0.034886044
-0.35096538	<s> OH SIX	-0.034886044
-0.94858724	ONE OH SIX	-0.034886044
-0.8926339	TWO OH SIX	-0.034886044
-0.8805069	FIVE OH SIX	-0.034886044
-0.86484694	SIX OH SIX	-0.034886044
-0.791236	THREE OH SIX	-0.034886044
-0.86484694	SEVEN OH SIX	-0.034886044
-0.7092467	TWO TWENTY SIX	-0.034886044
-0.503855	W TWENTY SIX	-0.034886044
-0.503855	FIVE TWENTY SIX	-0.034886044
-0.503855	SIX TWENTY SIX	-0.034886044
-0.4961673	ONE NINETY SIX	-0.034886044
-0.4961673	K NINETY SIX	-0.034886044
-1.0972425	<s> X H	-0.034886044
-0.6290703	I G H	-0.034886044
-0.9697786	R G H	-0.034886044
-0.74940264	ERASE G H	-0.034886044
-0.52843994	P G H	-0.034886044
-1.0282221	N G H	-0.034886044
-1.5751153	<s> R H	-0.034886044
-1.6729206	N E H	-0.034886044
-1.3790475	<s> W H	-0.034886044
-1.1045979	K W H	-0.034886044
-0.6013036	P Y H	-0.034886044
-0.60620624	R H H	-0.034886044
-0.73624253	<s> T H	-0.09522816
-0.67205584	I T H	-0.034886044
-0.8251902	R T H	-0.034886044
-0.46807253	W T H	-0.034886044
-0.46807253	FIVE T H	-0.034886044
-0.90223265	T T H	-0.034886044
-0.96010077	A T H	-0.034886044
-0.78731716	U T H	-0.034886044
-0.73785514	F T H	-0.034886044
-0.819946	O T H	-0.034886044
-1.4349173	H A H	-0.034886044
-1.3101532	V A H	-0.034886044
-1.0958481	P A H	-0.034886044
-1.4052286	M A H	-0.034886044
-0.60319906	A B H	-0.034886044
-1.596751	<s> P H	-0.034886044
-0.98551905	E P H	-0.034886044
-0.7892918	O P H	-0.034886044
-0.59416723	ERASE F H	-0.034886044
-1.0127599	O F H	-0.034886044
-0.5954828	Q Z H	-0.034886044
-1.1037909	RUBOUT O H	-0.034886044
-1.3266888	M O H	-0.034886044
-1.1743698	J O H	-0.034886044
-1.423671	<s> RUBOUT H	-0.034886017
-1.5185901	<s> N H	-0.034886044
-1.0448418	Q N H	-0.034886044
-1.5601363	A L H	-0.034886044
-0.86573744	O K H	-0.034886044
-1.0138701	L K H	-0.034886044
-0.5953332	Y M H	-0.034886044
-0.8671253	D M H	-0.034886044
-1.4776205	<s> J H	-0.034886044
-0.84096706	G J H	-0.034886044
-1.4412388	A D H	-0.034886044
-1.6783814	<s> S H	-0.034886044
-1.1337929	N S H	-0.034886044
-0.81705886	<s> C H	-0.09522816
-0.6340388	I C H	-0.079338595
-0.35294193	R C H	-0.034886044
-0.660824	E C H	-0.034886044
-0.7471679	RUBOUT C H	-0.034886044
-0.660824	J C H	-0.034886044
-0.47305143	C C H	-0.034886044
-0.23806934	O APOSTROPHE H	-0.034886044
-0.981307	F X ZERO	-0.034886044
-0.8423369	K X ZERO	-0.034886044
-1.8274038	<s> ONE ZERO	-0.034886044
-1.2983454	SIX ONE ZERO	-0.034886044
-1.35616	FOUR ONE ZERO	-0.034886044
-1.155816	SEVEN ONE ZERO	-0.034886044
-1.31261	TWO TWO ZERO	-0.034886044
-1.6070957	FIVE TWO ZERO	-0.034886044
-1.2074279	SEVEN TWO ZERO	-0.034886044
-1.1779833	FOUR NINE ZERO	-0.034886044
-1.2612845	FOUR EIGHT ZERO	-0.034886044
-1.2130349	ENTER EIGHT ZERO	-0.034886044
-1.2227492	THREE EIGHT ZERO	-0.034886044
-1.2667757	SEVEN EIGHT ZERO	-0.034886044
-1.4451715	ONE FIVE ZERO	-0.034886044
-0.57899106	W FIVE ZERO	-0.034886044
-1.0631185	ENTER FIVE ZERO	-0.034886044
-1.1753005	THREE FIVE ZERO	-0.034886044
-1.7738277	<s> SIX ZERO	-0.034886044
-1.2084371	ONE ZERO ZERO	-0.034886044
-1.5773044	SIX FOUR ZERO	-0.034886044
-1.8495764	<s> ENTER ZERO	-0.034886044
-0.6091439	X THREE ZERO	-0.034886044
-1.410395	EIGHT THREE ZERO	-0.034886044
-0.8608228	NINE SEVEN ZERO	-0.034886044
-0.5919511	R SEVEN ZERO	-0.034886044
-1.2367374	EIGHT SEVEN ZERO	-0.034886044
-1.4477453	I L ZERO	-0.034886044
-0.89871716	X S ZERO	-0.034886044
-0.9921175	F X FOUR	-0.034886044
-1.1663151	K I FOUR	-0.034886044
-1.0163399	ENTER SIXTY FOUR	-0.034886044
-0.64799786	THREE SIXTY FOUR	-0.034886044
-0.8934572	SEVEN SIXTY FOUR	-0.034886044
-0.8934572	FOURTEEN SIXTY FOUR	-0.034886044
-1.7118374	<s> ONE FOUR	-0.12886542
-1.3113141	TWO ONE FOUR	-0.034886044
-0.9286604	NINE ONE FOUR	-0.034886044
-1.2430558	FIVE ONE FOUR	-0.034886044
-1.1838866	SIX ONE FOUR	-0.034886044
-1.0766051	OH ONE FOUR	-0.034886044
-1.1288717	<s> TWO FOUR	-0.034886044
-0.5208062	X TWO FOUR	-0.034886044
-0.99602133	ONE TWO FOUR	-0.034886044
-1.167851	TWO TWO FOUR	-0.034886044
-0.82910347	EIGHT TWO FOUR	-0.034886044
-0.9487873	FIVE TWO FOUR	-0.09522816
-1.0179541	SIX TWO FOUR	-0.034886044
-1.0317974	THREE TWO FOUR	-0.034886044
-0.5208062	U TWO FOUR	-0.034886044
-0.94900686	SEVEN TWO FOUR	-0.034886044
-0.57117116	K EIGHTY FOUR	-0.034886044
-1.1097519	<s> NINE FOUR	-0.034886044
-1.0346017	NINE NINE FOUR	-0.034886044
-0.5614269	H NINE FOUR	-0.034886044
-0.5614269	L NINE FOUR	-0.034886044
-0.8750825	G E FOUR	-0.034886044
-1.6105917	L E FOUR	-0.034886044
-1.2761523	D E FOUR	-0.034886044
-1.019172	<s> EIGHT FOUR	-0.034886044
-1.0584748	ONE EIGHT FOUR	-0.034886044
-0.7500429	EIGHT EIGHT FOUR	-0.034886044
-1.1399374	SIX EIGHT FOUR	-0.034886017
-0.82509446	FOUR EIGHT FOUR	-0.034886044
-1.0057765	ENTER EIGHT FOUR	-0.034886044
-1.0575507	SEVEN EIGHT FOUR	-0.034886044
-0.5212122	M EIGHT FOUR	-0.034886044
-1.3495039	ONE FIVE FOUR	-0.034886044
-1.2080861	TWO FIVE FOUR	-0.034886044
-1.108933	NINE FIVE FOUR	-0.034886044
-1.2248762	EIGHT FIVE FOUR	-0.034886044
-1.108933	THREE FIVE FOUR	-0.034886044
-1.1198401	<s> SIX FOUR	-0.034886044
-0.98018247	NINE SIX FOUR	-0.034886044
-0.7602762	FIVE SIX FOUR	-0.034886044
-1.0178754	SIX SIX FOUR	-0.034886044
-0.95589477	ZERO SIX FOUR	-0.034886044
-0.9654696	FOUR SIX FOUR	-0.034886044
-0.92993814	ENTER SIX FOUR	-0.034886044
-0.8044419	A SIX FOUR	-0.034886044
-0.9196218	THREE SIX FOUR	-0.034886044
-0.7071977	K SIX FOUR	-0.034886044
-0.6036155	Z H FOUR	-0.034886044
-0.7078743	FIVE ZERO FOUR	-0.034886044
-0.99658084	<s> FOUR FOUR	-0.079338595
-1.2622342	EIGHT FOUR FOUR	-0.034886044
-1.2038312	SIX FOUR FOUR	-0.034886044
-1.1726235	FOUR FOUR FOUR	-0.034886044
-0.7212287	THREE FOUR FOUR	-0.12886542
-0.7760836	OH FOUR FOUR	-0.034886044
-1.2591723	<s> ENTER FOUR	-0.070076615
-1.2985849	N T FOUR	-0.034886044
-1.10109	ENTER FIFTY FOUR	-0.034886044
-1.2259129	<s> THREE FOUR	-0.034886044
-0.7706365	FIVE THREE FOUR	-0.034886017
-0.42084184	NINETEEN FORTY FOUR	-0.12886542
-0.59501845	T P FOUR	-0.034886044
-1.1875334	O U FOUR	-0.034886044
-0.8006911	K U FOUR	-0.034886044
-0.92493796	M U FOUR	-0.034886044
-1.3737724	D O FOUR	-0.034886044
-1.2571024	<s> SEVEN FOUR	-0.034886044
-1.2786986	TWO SEVEN FOUR	-0.034886044
-1.2316073	FOUR SEVEN FOUR	-0.034886044
-0.9568733	J SEVEN FOUR	-0.034886044
-0.60027	K M FOUR	-0.034886044
-1.4577682	<s> J FOUR	-0.034886044
-0.5776912	N J FOUR	-0.034886044
-1.4658575	ONE OH FOUR	-0.034886044
-1.297709	FIVE OH FOUR	-0.034886044
-0.76377773	TWO TWENTY FOUR	-0.034886044
-0.53702545	F TWENTY FOUR	-0.034886044
-0.53702545	TWELVE TWENTY FOUR	-0.034886044
-0.49463606	ENTER NINETY FOUR	-0.034886044
-0.49463606	A NINETY FOUR	-0.034886044
-1.0010395	<s> TWELVE FOUR	-0.034886044
-0.23645952	AREA CODE FOUR	-0.034886044
-0.99598235	<s> I T	-0.034886044
-1.0500329	H I T	-0.034886044
-0.91860074	P I T	-0.034886044
-0.7959221	RUBOUT I T	-0.034886044
-0.7375171	M I T	-0.034886044
-1.3380497	N G T	-0.034886044
-1.5875845	E R T	-0.034886044
-1.5730737	A R T	-0.034886044
-1.1293032	O R T	-0.034886044
-1.2380122	I E T	-0.034886044
-1.3829918	R E T	-0.034886044
-1.2525276	E E T	-0.034886044
-0.8271758	U E T	-0.034886044
-1.3619924	N E T	-0.034886044
-1.0466235	J E T	-0.034886044
-1.033259	A W T	-0.034886044
-1.6772408	<s> FIVE T	-0.034886044
-1.2700582	G H T	-0.034886044
-1.1003978	C H T	-0.12886542
-0.81438005	I T T	-0.034886044
-0.6661476	E T T	-0.09522816
-0.5340198	A T T	-0.079338595
-1.0719169	O T T	-0.034886044
-1.2526845	<s> A T	-0.034886044
-1.0852311	G A T	-0.034886044
-1.1933892	E A T	-0.034886044
-1.0852311	W A T	-0.034886044
-0.98170656	P A T	-0.034886044
-0.9421602	N A T	-0.12886542
-1.2094339	M A T	-0.034886044
-0.7868614	S A T	-0.034886044
-0.8351863	J Q T	-0.034886044
-0.8351863	D Q T	-0.034886044
-1.7102702	<s> P T	-0.034886044
-1.0920409	E P T	-0.034886044
-1.0058428	O U T	-0.034886044
-1.1051136	RUBOUT U T	-0.034886044
-0.813663	I F T	-0.034886044
-0.813663	A F T	-0.034886044
-0.813663	D F T	-0.034886044
-0.8684279	C Z T	-0.034886044
-0.56600696	G O T	-0.034886044
-0.8138086	ERASE O T	-0.034886044
-1.2449359	H O T	-0.034886044
-0.94248885	Z O T	-0.034886044
-1.2132597	M O T	-0.034886044
-1.4268607	<s> RUBOUT T	-0.034886017
-1.1025482	E N T	-0.034886044
-1.3375012	A N T	-0.034886044
-0.80101645	U N T	-0.034886044
-1.28949	O N T	-0.034886044
-0.80101645	M N T	-0.034886044
-1.5627408	A L T	-0.034886044
-0.56789505	H K T	-0.034886044
-0.8171549	O K T	-0.034886044
-0.94699514	D K T	-0.034886044
-0.88294846	D M T	-0.034886044
-0.5943155	O J T	-0.034886044
-0.5815187	<s> S T	-0.2515004
-1.010237	I S T	-0.034886044
-0.86731136	R S T	-0.034886044
-0.79392165	A S T	-0.034886017
-0.86731136	O S T	-0.034886044
-0.5227432	FIFTH S T	-0.034886044
-1.0387189	RUBOUT C T	-0.034886044
-0.8663008	N X V	-0.034886044
-1.0941613	<s> I V	-0.034886044
-1.384299	R I V	-0.034886044
-0.8552295	Z I V	-0.034886044
-0.8766999	H G V	-0.034886044
-1.3145561	N G V	-0.034886044
-0.4374381	Z R V	-0.034886044
-1.4099079	T E V	-0.034886044
-1.309657	B E V	-0.034886044
-0.9986454	Z E V	-0.034886044
-1.4904729	L E V	-0.034886044
-1.2779653	K E V	-0.034886044
-0.6053712	B Y V	-0.034886044
-1.1763041	<s> ERASE V	-0.034886017
-1.567321	<s> T V	-0.034886044
-1.3539953	<s> A V	-0.034886044
-1.2669734	R A V	-0.034886044
-1.286294	E A V	-0.034886044
-1.3272692	H A V	-0.034886044
-0.77650464	D A V	-0.09522816
-1.1671863	C A V	-0.034886044
-1.8189887	<s> B V	-0.034886044
-1.0458927	E F V	-0.034886044
-1.544533	<s> RUBOUT V	-0.034886044
-0.88861156	F K V	-0.034886044
-1.0261824	RUBOUT M V	-0.034886044
-1.0261824	M M V	-0.034886044
-1.5907848	<s> J V	-0.034886044
-0.58045167	ERASE S V	-0.034886044
-0.8397021	T S V	-0.034886044
-0.58045167	S S V	-0.034886044
-1.3627502	R I A	-0.034886044
-1.2864883	N I A	-0.034886044
-1.316317	L I A	-0.034886044
-0.9729532	<s> G A	-0.034886044
-0.965497	R G A	-0.034886044
-0.5268853	W G A	-0.034886044
-0.8546022	U G A	-0.034886044
-0.7468199	L G A	-0.034886044
-1.0948566	<s> R A	-0.034886044
-1.180567	E R A	-0.034886044
-0.915782	T R A	-0.034886044
-1.0496893	A R A	-0.034886044
-0.96964425	B R A	-0.034886044
-0.8225422	F R A	-0.034886044
-0.5115155	N R A	-0.034886044
-1.0151749	D R A	-0.034886044
-0.5115155	C R A	-0.034886044
-0.71991616	<s> E A	-0.00846234
-1.2527938	R E A	-0.034886044
-1.1388121	E E A	-0.034886044
-0.78145814	H E A	-0.034886044
-1.1452655	B E A	-0.034886044
-1.2740891	L E A	-0.034886044
-1.1208644	K E A	-0.034886044
-1.0710843	M E A	-0.034886044
-0.96989393	J E A	-0.034886044
-0.55403113	<s> W A	-0.079338595
-0.75777453	R W A	-0.034886044
-1.1226512	E W A	-0.034886044
-0.75777453	Y W A	-0.034886044
-0.874542	M Y A	-0.034886044
-1.4477115	<s> ERASE A	-0.034886044
-0.83683765	<s> H A	-0.034886017
-0.49956578	T H A	-0.06400992
-0.7994267	RUBOUT H A	-0.034886044
-0.70318395	K H A	-0.034886044
-0.70318395	S H A	-0.034886044
-0.7580134	C H A	-0.00846234
-0.50006694	APOSTROPHE H A	-0.034886044
-1.157091	<s> T A	-0.034886044
-0.69931275	<s> V A	-0.034886017
-0.71978974	I V A	-0.034886044
-0.8314239	E V A	-0.034886044
-0.4582727	T V A	-0.034886044
-0.63825625	RUBOUT V A	-0.034886044
-0.71978974	S V A	-0.034886044
-1.4559141	<s> A A	-0.034886044
-1.2225399	W A A	-0.034886044
-1.3573098	N A A	-0.034886044
-1.3885955	L A A	-0.034886044
-1.337886	<s> B A	-0.034886044
-0.9015386	H B A	-0.034886044
-0.83823574	O B A	-0.034886044
-0.9015386	N B A	-0.034886044
-0.7339979	D B A	-0.034886044
-1.591216	<s> P A	-0.034886044
-0.90542537	I P A	-0.034886044
-0.90542537	A P A	-0.034886044
-0.58966196	Z U A	-0.034886044
-0.85658073	N U A	-0.034886044
-1.459115	<s> F A	-0.034886044
-0.71489453	E Z A	-0.034886044
-0.71489453	W Z A	-0.034886044
-0.50736594	H Z A	-0.034886044
-0.50736594	J Z A	-0.034886044
-0.8046243	<s> O A	-0.034886017
-1.0113935	R O A	0
-0.590694	E O A	-0.034886044
-1.6340251	<s> RUBOUT A	-0.034886044
-1.1736987	<s> N A	-0.034886044
-1.2256451	I N A	-0.034886044
-0.98907584	R N A	-0.034886044
-0.7514526	P N A	-0.034886044
-0.9088892	O N A	-0.034886017
-0.92745966	RUBOUT N A	-0.034886044
-1.0450795	N N A	-0.034886044
-1.0480214	<s> L A	-0.034886044
-0.97897893	I L A	-0.034886044
-0.9648784	G L A	-0.034886044
-0.79361445	R L A	-0.034886017
-0.8929343	Y L A	-0.034886044
-0.701532	H L A	-0.034886044
-0.49903136	B L A	-0.034886044
-0.67593974	P L A	-0.12886542
-0.79736584	C L A	-0.034886044
-0.8073186	<s> K A	0
-0.86190486	F K A	-0.034886044
-0.4175356	<s> M A	-0.11009344
-0.5232367	FIVE M A	-0.034886044
-0.5232367	T M A	-0.034886044
-0.7007841	O M A	-0.034886044
-0.74078226	S M A	-0.034886044
-1.2024188	<s> J A	-0.12886542
-0.57884026	ONE J A	-0.034886044
-0.66858643	<s> D A	-0.079338595
-0.7693073	T D A	-0.034886044
-0.8611002	N D A	-0.034886044
-1.0791911	L D A	-0.034886044
-0.5402975	K D A	-0.034886044
-1.4111943	<s> S A	-0.034886044
-0.95181936	<s> C A	-0.09522816
-1.0994675	I C A	-0.034886044
-0.8810844	A C A	-0.034886044
-0.5380151	S C A	-0.034886044
-0.7726679	SEVEN FOURTEEN A	-0.034886044
-0.44032165	NINE AND A	-0.034886044
-0.44032165	FOUR AND A	-0.034886044
-1.0579444	ONE SIXTY FIFTY	-0.034886044
-2.1466417	<s> ONE FIFTY	-0.034886044
-1.1343246	FIFTY ONE FIFTY	-0.034886044
-1.3171272	THIRTY ONE FIFTY	-0.034886044
-0.91119003	FIFTY TWO FIFTY	-0.034886044
-1.0521953	SEVENTY NINE FIFTY	-0.034886044
-1.0521953	TWENTY NINE FIFTY	-0.034886044
-1.1721902	A H FIFTY	-0.034886044
-1.1857158	ENTER FOUR FIFTY	-0.034886044
-1.2830275	<s> ENTER FIFTY	-0.070076615
-1.0617448	K T FIFTY	-0.034886044
-0.88217473	R V FIFTY	-0.034886044
-0.58306706	E Q FIFTY	-0.034886044
-0.58306706	Y Q FIFTY	-0.034886044
-1.5210464	<s> SEVEN FIFTY	-0.034886044
-0.44635138	SEVEN SEVENTEEN FIFTY	-0.034886044
-0.44635138	ELEVEN SEVENTEEN FIFTY	-0.034886044
-0.5481932	THREE TWELVE FIFTY	-0.034886044
-0.56970805	EIGHTH NINETEEN FIFTY	-0.034886044
-0.56970805	FOURTH NINETEEN FIFTY	-0.034886044
-0.9968511	B X THREE	-0.034886044
-0.6725143	<s> SIXTY THREE	-0.034886044
-0.76147234	ONE SIXTY THREE	-0.034886044
-0.6725143	SIX SIXTY THREE	-0.034886044
-0.48060223	T SIXTY THREE	-0.034886044
-0.48060223	FIFTY SIXTY THREE	-0.034886044
-0.8360122	THREE SIXTY THREE	-0.034886044
-1.1389712	NINETEEN SIXTY THREE	-0.034886044
-1.2466073	ONE ONE THREE	-0.034886044
-1.532364	TWO ONE THREE	-0.034886044
-1.0906351	FIVE ONE THREE	-0.034886044
-1.4226983	TWO TWO THREE	-0.034886044
-1.0615185	NINE TWO THREE	-0.034886044
-1.2478826	EIGHT TWO THREE	-0.034886044
-1.4259833	FIVE TWO THREE	-0.034886017
-1.2137115	THREE TWO THREE	-0.034886044
-0.8253927	HUNDRED EIGHTY THREE	-0.034886044
-1.1127903	<s> NINE THREE	-0.034886044
-1.2223006	ONE NINE THREE	-0.034886044
-0.8632213	TWO NINE THREE	-0.12886542
-1.0279701	SEVEN NINE THREE	-0.034886044
-1.4649043	E E THREE	-0.034886044
-0.89809096	A E THREE	-0.034886044
-0.59978807	U Y THREE	-0.034886044
-0.86574095	TWO EIGHT THREE	-0.09522816
-1.1160927	SIX EIGHT THREE	-0.034886044
-1.2124777	THREE EIGHT THREE	-0.034886044
-1.2384858	OH EIGHT THREE	-0.034886044
-0.810973	ONE FIVE THREE	-0.079338595
-1.0817908	SIX FIVE THREE	-0.034886044
-1.1228021	FOUR FIVE THREE	-0.034886044
-1.0127633	ENTER FIVE THREE	-0.034886044
-0.56182283	C FIVE THREE	-0.034886044
-1.0245632	<s> SIX THREE	-0.034886017
-1.0888479	EIGHT SIX THREE	-0.034886044
-1.1298189	FIVE SIX THREE	-0.034886044
-0.73166907	THREE SIX THREE	-0.034886044
-0.9091536	SEVEN SIX THREE	-0.034886044
-1.1590022	OH SIX THREE	-0.034886044
-0.88520515	N H THREE	-0.034886044
-0.8839788	ONE FOUR THREE	-0.034886044
-1.4460615	TWO FOUR THREE	-0.034886044
-1.294634	FOUR FOUR THREE	-0.034886044
-1.1193486	THREE FOUR THREE	-0.034886044
-1.6369635	<s> ENTER THREE	-0.034886044
-1.2591652	<s> FIFTY THREE	-0.034886044
-0.5771239	TWO FIFTY THREE	-0.034886044
-0.66617864	ONE THREE THREE	-0.034886044
-1.0070442	NINE THREE THREE	-0.034886044
-1.1512454	EIGHT THREE THREE	-0.034886044
-0.85274523	FIVE THREE THREE	-0.034886017
-1.059128	FOUR THREE THREE	-0.034886044
-0.45657068	<s> FORTY THREE	-0.034886044
-0.45657068	NINE FORTY THREE	-0.034886044
-0.7166867	ENTER FORTY THREE	-0.034886044
-0.45657068	M FORTY THREE	-0.034886044
-1.075783	<s> THIRTY THREE	-0.034886044
-0.5831045	FOUR THIRTY THREE	-0.034886044
-1.019244	I P THREE	-0.034886044
-0.59897995	C U THREE	-0.034886044
-1.3726908	N N THREE	-0.034886044
-1.3391483	<s> SEVEN THREE	-0.034886044
-1.1585116	ONE SEVEN THREE	-0.034886044
-0.5877126	U SEVEN THREE	-0.034886044
-0.6103094	Z L THREE	-0.034886044
-0.60090053	K K THREE	-0.034886044
