\data\
ngram 1=100
ngram 2=1179
ngram 3=2879
ngram 4=3156

\1-grams:
-2.890402	<unk>	0
0	<s>	-1.0703963
-1.3775749	</s>	0
-1.856032	EX	-0.2416302
-1.7018508	EYE	-0.5076288
-1.6495135	SIXTY	-0.6135448
-1.5882959	ONE	-0.6661432
-1.7406111	GEE	-0.36836597
-1.5606458	TWO	-0.7493856
-2.0136914	EIGHTY	-0.3521654
-1.6178269	NINE	-0.53573173
-2.8073003	YES	-0.2526797
-1.7018508	AR	-0.51656044
-1.6495135	EE	-0.61022866
-1.7831728	DOUBLE	-1.2383931
-1.7207987	YOU	-0.33988318
-1.7018508	WHY	-0.33769876
-1.6028105	EIGHT	-0.6410873
-1.6495135	FIVE	-0.6559162
-1.6333814	SIX	-0.6590023
-2.8073003	NO	-0.2526797
-2.8073003	ERASE	-0.2526797
-1.6836951	AYCH	-0.40428326
-1.9436283	ZERO	-0.5575536
-1.6028105	FOUR	-0.60474074
-2.8073003	START	-0.2526797
-2.8073003	ENTER	-0.2526797
-1.7207987	TEE	-0.44552904
-1.856032	VEE	-0.37887192
-1.6333814	AY	-0.633261
-1.9124248	FIFTY	-0.38325086
-1.6333814	THREE	-0.54016685
-1.8833138	FORTY	-0.38098705
-1.7406111	BEE	-0.36582172
-1.8303633	CUE	-0.26736662
-1.7406111	THIRTY	-0.43934727
-1.8061274	PEE	-0.30414185
-1.7018508	EFF	-0.3397924
-1.7207987	ZEE	-0.2964293
-1.5606458	OH	-0.5915237
-2.8073003	RUBOUT	-0.2526797
-1.7831728	EN	-0.5180794
-1.5606458	SEVEN	-0.5322
-1.7207987	EL	-0.53082055
-1.7018508	KAY	-0.32101238
-1.7406111	EM	-0.34495008
-1.8061274	JAY	-0.26069635
-2.8073003	HELP	-0.2526797
-2.425688	FIFTEEN	-0.34238765
-2.8073003	REPEAT	-0.2526797
-1.7207987	DEE	-0.43234545
-1.8833138	SEVENTY	-0.4323945
-2.8073003	GO	-0.2526797
-2.8073003	STOP	-0.2526797
-1.7406111	ESS	-0.4520808
-1.6836951	TWENTY	-0.36007956
-2.425688	SEVENTEEN	-0.22242309
-2.2008696	NINETY	-0.23352377
-2.2008696	TEN	-0.38736644
-1.7831728	SEE	-0.40403426
-2.263701	FOURTEEN	-0.29559538
-2.425688	THOUSAND	-0.2416302
-2.5369663	TWELVE	-0.2526797
-2.2008696	HUNDRED	-0.32697326
-2.686962	AND	-0.23728795
-2.8073003	HALF	-0.2526797
-2.686962	ELEVEN	-0.2526797
-2.7131143	FIFTH	-0.2526797
-2.8073003	APOSTROPHE	-0.2526797
-2.8073003	AREA	-0.2526797
-2.8073003	CODE	-0.2526797
-2.8073003	MARCH	-0.2526797
-2.7131143	THIRD	-0.21517724
-1.8303633	NINETEEN	-0.5487989
-2.8073003	JUNE	-0.2526797
-2.8073003	ELEVENTH	-0.2526797
-2.8073003	SEPTEMBER	-0.2526797
-2.7131143	FIFTEENTH	-0.21517724
-2.7131143	MAY	-0.2526797
-2.7131143	FIRST	-0.21517724
-2.8073003	OCTOBER	-0.2526797
-2.8073003	JANUARY	-0.2526797
-2.7131143	SIXTEEN	-0.21517724
-2.8073003	DECEMBER	-0.2526797
-2.8073003	EIGHTEENTH	-0.2526797
-2.8073003	JULY	-0.2526797
-2.686962	THIRTIETH	-0.41448438
-2.7131143	TWELFTH	-0.21517724
-2.8073003	SEVENTH	-0.2526797
-2.8073003	OF	-0.2526797
-2.8073003	AUGUST	-0.2526797
-2.8073003	SIXTEENTH	-0.2526797
-2.8073003	SECOND	-0.2526797
-2.7131143	FEBRUARY	-0.2526797
-2.8073003	EIGHTH	-0.2526797
-2.8073003	NINTH	-0.2526797
-2.8073003	SIXTH	-0.2526797
-2.8073003	EIGHTEEN	-0.2526797
-2.8073003	APRIL	-0.2526797
-2.8073003	FOURTH	-0.2526797

\2-grams:
-1.4426584	EYE </s>	0
-1.0599636	SIXTY </s>	0
-0.69068056	ONE </s>	0
-1.492718	GEE </s>	0
-0.6672674	TWO </s>	0
-0.5385921	NINE </s>	0
-0.33297098	YES </s>	0
-1.6687167	AR </s>	0
-1.0881803	EE </s>	0
-1.5247518	YOU </s>	0
-0.73007894	WHY </s>	0
-0.6633848	EIGHT </s>	0
-0.6640286	FIVE </s>	0
-0.66953015	SIX </s>	0
-0.33297098	NO </s>	0
-1.2047476	AYCH </s>	0
-0.4245405	ZERO </s>	0
-0.6758213	FOUR </s>	0
-0.33297098	START </s>	0
-1.0641116	TEE </s>	0
-1.1395876	AY </s>	0
-1.3345447	FIFTY </s>	0
-0.647217	THREE </s>	0
-0.8561399	THIRTY </s>	0
-1.5556455	EFF </s>	0
-1.4665145	ZEE </s>	0
-1.0965441	OH </s>	0
-1.0846137	EN </s>	0
-0.6307596	SEVEN </s>	0
-1.3155224	EL </s>	0
-1.0399165	KAY </s>	0
-1.4760592	EM </s>	0
-0.33297098	HELP </s>	0
-0.41113797	FIFTEEN </s>	0
-0.33297098	REPEAT </s>	0
-1.0456262	DEE </s>	0
-0.9485124	SEVENTY </s>	0
-0.33297098	GO </s>	0
-0.33297098	STOP </s>	0
-0.8152982	ESS </s>	0
-1.4937592	TWENTY </s>	0
-0.74135387	SEVENTEEN </s>	0
-0.43567306	TEN </s>	0
-1.589654	SEE </s>	0
-0.9248106	FOURTEEN </s>	0
-1.0602357	THOUSAND </s>	0
-1.1047528	TWELVE </s>	0
-1.0092745	HUNDRED </s>	0
-0.33297098	HALF </s>	0
-0.87384266	ELEVEN </s>	0
-2.344889	<s> EX	-0.11977387
-1.4449764	EX EX	-0.11977387
-2.1795194	EE EX	-0.11977387
-1.7676741	YOU EX	-0.11977387
-1.4909041	ERASE EX	-0.11977387
-1.899415	AYCH EX	-0.11977387
-1.7429075	VEE EX	-0.11977387
-2.1694016	AY EX	-0.11977387
-1.37496	BEE EX	-0.11977387
-1.3711603	EFF EX	-0.11977387
-1.698677	ZEE EX	-0.11977387
-1.5692066	RUBOUT EX	-0.11977387
-1.868758	EN EX	-0.11977387
-1.6752473	KAY EX	-0.11977387
-1.8397065	EM EX	-0.11977387
-1.6775669	JAY EX	-0.11977387
-1.9276919	ESS EX	-0.11977387
-2.298899	<s> EYE	-0.11977387
-1.5663248	EX EYE	-0.11977387
-1.0150436	GEE EYE	-0.11977387
-1.0856483	AR EYE	-0.1549293
-1.5936425	EE EYE	-0.18477833
-1.7035937	YOU EYE	-0.11977387
-1.4484245	ERASE EYE	-0.11977387
-1.2698914	AYCH EYE	-0.11977387
-1.3101729	TEE EYE	-0.15354826
-0.93890464	VEE EYE	-0.1419958
-1.7126137	AY EYE	-0.11977387
-1.7643079	BEE EYE	-0.11977387
-1.5859383	CUE EYE	-0.11977387
-1.531674	PEE EYE	-0.11977387
-1.6124731	EFF EYE	-0.11977387
-1.4811871	ZEE EYE	-0.11977387
-1.5188042	RUBOUT EYE	-0.11977387
-1.1958375	EN EYE	-0.151061
-1.2634332	EL EYE	-0.1496632
-1.3600044	KAY EYE	-0.15354826
-1.2099903	EM EYE	-0.14657997
-1.8499117	DEE EYE	-0.11977387
-1.8567314	ESS EYE	-0.11977387
-1.7688792	SEE EYE	-0.11977387
-2.5494514	<s> SIXTY	-0.11977387
-1.9038566	EYE SIXTY	-0.11977387
-1.6560789	ONE SIXTY	-0.11977387
-2.0968375	TWO SIXTY	-0.11977387
-1.8855677	NINE SIXTY	-0.11977387
-1.9309415	AR SIXTY	-0.11977387
-1.9892422	EIGHT SIXTY	-0.11977387
-1.8726265	SIX SIXTY	-0.11977387
-1.8276523	FOUR SIXTY	-0.11977387
-1.4611533	ENTER SIXTY	-0.11977387
-1.8379885	TEE SIXTY	-0.11977387
-1.5915731	FIFTY SIXTY	-0.11977387
-1.3718963	THREE SIXTY	-0.15354826
-1.6501542	THIRTY SIXTY	-0.11977387
-1.4645977	ZEE SIXTY	-0.19017237
-2.0531974	OH SIXTY	-0.11977387
-1.5484425	SEVEN SIXTY	-0.11977387
-1.0069529	FIFTEEN SIXTY	-0.11977387
-1.3072634	TEN SIXTY	-0.11977387
-0.61626714	FOURTEEN SIXTY	-0.11977387
-1.1696323	TWELVE SIXTY	-0.11977387
-0.994814	AND SIXTY	-0.11977387
-0.91078293	ELEVEN SIXTY	-0.11977387
-0.23873693	NINETEEN SIXTY	-0.31817037
-0.39322394	SIXTEEN SIXTY	-0.11977387
-0.34328523	OF SIXTY	-0.11977387
-0.34328523	NINTH SIXTY	-0.11977387
-1.0081372	<s> ONE	-0.68024343
-0.9864046	SIXTY ONE	-0.50983465
-1.3819578	ONE ONE	-0.11977387
-1.3130112	TWO ONE	-0.16704413
-1.3667562	EIGHTY ONE	-0.11977387
-1.4603474	NINE ONE	-0.11977387
-1.8942766	AR ONE	-0.11977387
-1.7485796	YOU ONE	-0.11977387
-1.5454011	WHY ONE	-0.11977387
-1.2958117	EIGHT ONE	-0.13875079
-1.1327549	FIVE ONE	-0.15675299
-1.2341827	SIX ONE	-0.15354826
-1.7622769	AYCH ONE	-0.11977387
-1.1221948	ZERO ONE	-0.16541642
-1.0560215	FOUR ONE	-0.16063017
-1.4379708	ENTER ONE	-0.11977387
-1.1023452	FIFTY ONE	-0.15354826
-1.3620082	THREE ONE	-0.14657997
-1.3192699	FORTY ONE	-0.19017237
-1.7041323	BEE ONE	-0.11977387
-1.5353115	CUE ONE	-0.11977387
-0.7807589	THIRTY ONE	-0.15572047
-1.4725491	OH ONE	-0.14657997
-1.3867294	SEVEN ONE	-0.11977387
-1.4220754	JAY ONE	-0.11977387
-1.6663969	DEE ONE	-0.11977387
-0.5775299	SEVENTY ONE	-0.50983465
-1.7957535	ESS ONE	-0.11977387
-1.6012415	TWENTY ONE	-0.11977387
-1.1535884	NINETY ONE	-0.11977387
-1.1089623	THOUSAND ONE	-0.11977387
-1.7797958	<s> GEE	-0.16592465
-1.5821699	EX GEE	-0.11977387
-1.3850298	EYE GEE	-0.15354826
-1.4301487	AR GEE	-0.11977387
-1.7489287	EE GEE	-0.11977387
-1.3253338	YOU GEE	-0.15354826
-1.7511553	WHY GEE	-0.11977387
-1.4601436	ERASE GEE	-0.11977387
-1.704064	AYCH GEE	-0.11977387
-1.4730874	TEE GEE	-0.11977387
-1.721549	AY GEE	-0.11977387
-1.7831519	BEE GEE	-0.11977387
-1.6015575	CUE GEE	-0.11977387
-1.697912	PEE GEE	-0.11977387
-1.7705926	EFF GEE	-0.11977387
-1.6544983	ZEE GEE	-0.11977387
-2.110089	OH GEE	-0.11977387
-1.532618	RUBOUT GEE	-0.11977387
-1.4047319	EN GEE	-0.11977387
-1.8168987	EL GEE	-0.11977387
-1.7856687	EM GEE	-0.11977387
-1.6319523	JAY GEE	-0.11977387
-1.5536485	<s> TWO	-0.2983231
-1.5014096	EX TWO	-0.11977387
-1.0778302	SIXTY TWO	-0.28168833
-1.217836	ONE TWO	-0.20784253
-1.5853033	GEE TWO	-0.11977387
-1.1179636	TWO TWO	-0.18153082
-1.3023705	NINE TWO	-0.15354826
-2.0024505	EE TWO	-0.11977387
-1.6330476	YOU TWO	-0.11977387
-1.1293161	EIGHT TWO	-0.16888262
-0.96288985	FIVE TWO	-0.20170906
-1.2314216	SIX TWO	-0.13875079
-1.7457942	AYCH TWO	-0.11977387
-1.4370068	ZERO TWO	-0.11977387
-1.390402	FOUR TWO	-0.17147438
-1.4268277	ENTER TWO	-0.11977387
-2.0031528	AY TWO	-0.11977387
-1.3944731	FIFTY TWO	-0.11977387
-1.1595445	THREE TWO	-0.15859495
-1.3129252	FORTY TWO	-0.19017237
-1.5218681	CUE TWO	-0.11977387
-0.99238175	THIRTY TWO	-0.18477833
-1.3120239	EFF TWO	-0.16541642
-1.5707134	ZEE TWO	-0.11977387
-1.3854944	OH TWO	-0.13875079
-1.3814908	SEVEN TWO	-0.11977387
-1.8637655	EL TWO	-0.11977387
-1.5590415	KAY TWO	-0.11977387
-1.6861975	EM TWO	-0.11977387
-1.6539485	DEE TWO	-0.11977387
-0.7961768	SEVENTY TWO	-0.33374336
-1.4386355	TWENTY TWO	-0.11977387
-1.6981627	SEE TWO	-0.11977387
-1.9147339	GEE EIGHTY	-0.11977387
-2.241414	TWO EIGHTY	-0.11977387
-2.0310898	NINE EIGHTY	-0.11977387
-1.9799318	YOU EIGHTY	-0.11977387
-2.1599252	SIX EIGHTY	-0.11977387
-1.5611213	ENTER EIGHTY	-0.11977387
-2.0017135	TEE EIGHTY	-0.11977387
-2.0768998	THREE EIGHTY	-0.11977387
-1.8929322	KAY EIGHTY	-0.11977387
-1.2215191	FOURTEEN EIGHTY	-0.11977387
-1.0824617	HUNDRED EIGHTY	-0.11977387
-1.0276384	AND EIGHTY	-0.11977387
-2.1118267	<s> NINE	-0.11977387
-1.5290706	EX NINE	-0.11977387
-0.98814654	SIXTY NINE	-0.50983465
-1.1050379	ONE NINE	-0.16541637
-1.6102896	GEE NINE	-0.11977387
-1.3157169	TWO NINE	-0.15859495
-0.8462136	EIGHTY NINE	-0.16541642
-1.3110664	NINE NINE	-0.18477833
-1.4135381	EIGHT NINE	-0.17515013
-1.3007536	FIVE NINE	-0.14657997
-1.4411852	SIX NINE	-0.17097573
-1.7794099	AYCH NINE	-0.11977387
-1.5535774	FOUR NINE	-0.11977387
-1.4494073	ENTER NINE	-0.11977387
-1.6511196	VEE NINE	-0.11977387
-1.5798311	FIFTY NINE	-0.11977387
-1.366924	THREE NINE	-0.15354826
-1.0093169	FORTY NINE	-0.16541642
-1.4688572	THIRTY NINE	-0.19017237
-1.5993453	ZEE NINE	-0.11977387
-1.7174435	OH NINE	-0.11977387
-1.3920318	SEVEN NINE	-0.15354826
-1.896699	EL NINE	-0.11977387
-1.7059504	KAY NINE	-0.11977387
-1.3007215	SEVENTY NINE	-0.16541642
-1.45666	TWENTY NINE	-0.16541642
-1.1144243	THOUSAND NINE	-0.11977387
-1.1635897	TWELVE NINE	-0.11977387
-0.90744305	ELEVEN NINE	-0.11977387
-1.6766934	<s> YES	-1.010437
-1.8415393	<s> AR	-0.19271785
-1.5663248	EX AR	-0.11977387
-1.7974806	EYE AR	-0.11977387
-1.781794	GEE AR	-0.11977387
-1.4241524	AR AR	-0.11977387
-1.0089821	EE AR	-0.22737202
-1.2093419	YOU AR	-0.13633281
-1.7324749	WHY AR	-0.11977387
-1.4484245	ERASE AR	-0.11977387
-1.689615	AYCH AR	-0.11977387
-1.4653077	TEE AR	-0.18477833
-1.6870385	VEE AR	-0.11977387
-1.0026946	AY AR	-0.2025443
-1.6219811	BEE AR	-0.1419958
-1.6800427	PEE AR	-0.11977387
-1.3442924	EFF AR	-0.11977387
-1.4811871	ZEE AR	-0.19017237
-1.1714907	OH AR	-0.1508549
-1.5188042	RUBOUT AR	-0.11977387
-1.9477692	EN AR	-0.11977387
-1.8028914	EL AR	-0.11977387
-1.7531072	KAY AR	-0.11977387
-1.012054	DEE AR	-0.151061
-1.7688792	SEE AR	-0.11977387
-1.7704641	<s> EE	-0.20187117
-1.1705377	EYE EE	-0.15354826
-1.6233433	GEE EE	-0.11977387
-1.0269309	AR EE	-0.19735695
-1.2588558	EE EE	-0.13446146
-1.4495376	YOU EE	-0.11977387
-1.7058798	WHY EE	-0.11977387
-1.4314184	ERASE EE	-0.11977387
-1.0605918	AYCH EE	-0.1419958
-0.96379405	TEE EE	-0.18665065
-0.93491054	VEE EE	-0.17305791
-1.9405864	AY EE	-0.11977387
-1.0703648	BEE EE	-0.1474713
-1.4083238	CUE EE	-0.11977387
-1.5134033	PEE EE	-0.11977387
-1.0673305	EFF EE	-0.11977387
-1.1831895	ZEE EE	-0.16541642
-2.0531974	OH EE	-0.11977387
-1.498874	RUBOUT EE	-0.11977387
-0.9504165	EN EE	-0.16405141
-0.8053838	EL EE	-0.17979592
-0.9981722	KAY EE	-0.13633281
-1.089753	EM EE	-0.1419958
-1.5906765	JAY EE	-0.11977387
-1.0818735	DEE EE	-0.16541642
-1.4348606	ESS EE	-0.14657997
-1.3253734	SEE EE	-0.11977387
-1.974786	<s> DOUBLE	-0.6859259
-1.5986149	EX DOUBLE	-0.11977387
-1.6723934	GEE DOUBLE	-0.19017237
-1.8633608	AR DOUBLE	-0.19017237
-1.3335191	EE DOUBLE	-0.5767814
-1.8672507	YOU DOUBLE	-0.11977387
-1.6162456	WHY DOUBLE	-0.19017237
-1.4721875	ERASE DOUBLE	-0.11977387
-1.8661649	AYCH DOUBLE	-0.11977387
-1.9068204	TEE DOUBLE	-0.11977387
-1.99634	AY DOUBLE	-0.19017237
-1.6177595	CUE DOUBLE	-0.11977387
-1.6716344	ZEE DOUBLE	-0.11977387
-1.4163637	OH DOUBLE	-0.50983465
-1.5468857	RUBOUT DOUBLE	-0.11977387
-1.3764296	KAY DOUBLE	-0.20880464
-1.6496274	JAY DOUBLE	-0.11977387
-1.1854881	DEE DOUBLE	-0.4306534
-1.7440674	ESS DOUBLE	-0.19017237
-1.8044282	SEE DOUBLE	-0.11977387
-2.6707058	<s> YOU	-0.11977387
-1.9421906	EYE YOU	-0.11977387
-1.7914437	GEE YOU	-0.11977387
-1.839472	AR YOU	-0.11977387
-1.7438885	EE YOU	-0.11977387
-0.025331173	DOUBLE YOU	-0.21237172
-1.5957505	WHY YOU	-0.11977387
-1.6967795	AYCH YOU	-0.11977387
-1.9715644	AY YOU	-0.11977387
-1.077892	BEE YOU	-0.3608696
-1.5936778	CUE YOU	-0.11977387
-1.5379392	PEE YOU	-0.11977387
-1.6461774	ZEE YOU	-0.11977387
-1.2751111	OH YOU	-0.13446146
-1.5256562	RUBOUT YOU	-0.11977387
-1.8218307	EN YOU	-0.11977387
-1.8098385	EL YOU	-0.11977387
-1.6279545	KAY YOU	-0.11977387
-1.3689718	EM YOU	-0.11977387
-1.4670571	JAY YOU	-0.11977387
-1.8596548	DEE YOU	-0.11977387
-1.866186	ESS YOU	-0.11977387
-1.7774973	SEE YOU	-0.11977387
-2.4142842	<s> WHY	-0.11977387
-1.4056311	EX WHY	-0.11977387
-1.9322852	EYE WHY	-0.11977387
-1.576	AR WHY	-0.1419958
-1.9772879	EE WHY	-0.16541642
-1.7035937	YOU WHY	-0.11977387
-1.7324749	WHY WHY	-0.11977387
-1.4484245	ERASE WHY	-0.11977387
-1.4249555	AYCH WHY	-0.11977387
-1.5227337	VEE WHY	-0.11977387
-1.4512243	AY WHY	-0.14657997
-1.7643079	BEE WHY	-0.11977387
-1.5859383	CUE WHY	-0.11977387
-1.6800427	PEE WHY	-0.11977387
-1.6124731	EFF WHY	-0.11977387
-1.6380129	ZEE WHY	-0.11977387
-2.0864308	OH WHY	-0.11977387
-1.5188042	RUBOUT WHY	-0.11977387
-1.9477692	EN WHY	-0.11977387
-1.5345441	EL WHY	-0.15354826
-1.6205498	KAY WHY	-0.19017237
-1.6298717	EM WHY	-0.11977387
-1.7130111	DEE WHY	-0.11977387
-1.6176941	SEE WHY	-0.11977387
-2.046997	<s> EIGHT	-0.13875079
-1.2008425	SIXTY EIGHT	-0.33374336
-1.2217903	ONE EIGHT	-0.1474713
-1.1205534	TWO EIGHT	-0.18585178
-1.3705825	EIGHTY EIGHT	-0.11977387
-1.7267616	NINE EIGHT	-0.11977387
-1.9286542	EE EIGHT	-0.11977387
-1.7581236	YOU EIGHT	-0.11977387
-1.5513847	WHY EIGHT	-0.11977387
-1.4113622	EIGHT EIGHT	-0.16541642
-1.2991307	FIVE EIGHT	-0.17097573
-1.23557	SIX EIGHT	-0.18708189
-1.6335732	ZERO EIGHT	-0.11977387
-1.1946511	FOUR EIGHT	-0.15354826
-1.4436514	ENTER EIGHT	-0.11977387
-0.8160809	FIFTY EIGHT	-0.17097573
-1.1641692	THREE EIGHT	-0.25015697
-1.5032678	FORTY EIGHT	-0.11977387
-1.712235	BEE EIGHT	-0.11977387
-1.4649323	THIRTY EIGHT	-0.19017237
-1.6304637	PEE EIGHT	-0.11977387
-1.6976194	EFF EIGHT	-0.11977387
-1.3228188	OH EIGHT	-0.1474713
-1.1186664	SEVEN EIGHT	-0.16888262
-1.6971037	KAY EIGHT	-0.11977387
-1.7111466	EM EIGHT	-0.11977387
-1.4889448	SEVENTY EIGHT	-0.11977387
-1.0008967	TWENTY EIGHT	-0.15354826
-1.1566635	NINETY EIGHT	-0.11977387
-0.89983875	THOUSAND EIGHT	-0.19017237
-1.7414433	<s> FIVE	-0.24156551
-1.5435911	EX FIVE	-0.11977387
-1.9038566	EYE FIVE	-0.11977387
-1.6760198	SIXTY FIVE	-0.19017237
-1.1070666	ONE FIVE	-0.21704823
-1.2431645	TWO FIVE	-0.1496632
-1.3822677	EIGHTY FIVE	-0.11977387
-1.20018	NINE FIVE	-0.11977387
-1.4495376	YOU FIVE	-0.11977387
-1.0161899	EIGHT FIVE	-0.14657997
-1.4198817	FIVE FIVE	-0.15354826
-1.4456699	SIX FIVE	-0.14657997
-1.6469415	ZERO FIVE	-0.11977387
-1.2895385	FOUR FIVE	-0.1419958
-1.4611533	ENTER FIVE	-0.11977387
-0.9406703	FIFTY FIVE	-0.18477833
-1.2586094	THREE FIVE	-0.11977387
-0.8392584	FORTY FIVE	-0.33374336
-1.7374914	BEE FIVE	-0.11977387
-1.5635148	CUE FIVE	-0.11977387
-0.8788434	THIRTY FIVE	-0.28168833
-1.5922468	EFF FIVE	-0.11977387
-1.4838997	OH FIVE	-0.28168833
-1.3973998	SEVEN FIVE	-0.14657997
-1.6277056	TWENTY FIVE	-0.11977387
-1.1660221	NINETY FIVE	-0.11977387
-1.7440054	SEE FIVE	-0.11977387
-1.6402007	<s> SIX	-0.2129338
-1.370994	SIXTY SIX	-0.20880464
-1.2984633	ONE SIX	-0.15572047
-1.1222886	TWO SIX	-0.3608696
-0.6705162	EIGHTY SIX	-0.33374336
-1.1077801	NINE SIX	-0.15859495
-1.3008307	EIGHT SIX	-0.1419958
-1.5753028	FIVE SIX	-0.15859495
-1.2383578	SIX SIX	-0.16541637
-0.7307634	ZERO SIX	-0.16201177
-1.2877595	FOUR SIX	-0.13875079
-1.4552407	ENTER SIX	-0.11977387
-1.9331753	AY SIX	-0.11977387
-0.93934286	FIFTY SIX	-0.16201177
-1.369403	THREE SIX	-0.14657997
-1.5131421	FORTY SIX	-0.11977387
-1.7289084	BEE SIX	-0.11977387
-1.5562904	CUE SIX	-0.11977387
-1.4728177	THIRTY SIX	-0.19017237
-1.7147456	EFF SIX	-0.11977387
-1.6068083	ZEE SIX	-0.11977387
-1.3268052	OH SIX	-0.16888262
-1.9098446	EN SIX	-0.11977387
-1.5446353	SEVEN SIX	-0.11977387
-1.5921326	KAY SIX	-0.11977387
-1.4974186	SEVENTY SIX	-0.11977387
-1.0041306	TWENTY SIX	-0.15354826
-0.9536451	NINETY SIX	-0.19017237
-1.7560785	<s> NO	-0.93580335
-1.5515003	<s> ERASE	-0.1569782
-1.7741728	<s> AYCH	-0.20187117
-1.5586139	EX AYCH	-0.11977387
-1.1036019	GEE AYCH	-0.1419958
-1.9505041	AR AYCH	-0.11977387
-2.0820227	EE AYCH	-0.11977387
-1.8092686	YOU AYCH	-0.11977387
-1.7234278	WHY AYCH	-0.11977387
-1.8158473	AYCH AYCH	-0.11977387
-0.91083044	TEE AYCH	-0.26503304
-1.5594248	AY AYCH	-0.15354826
-1.7551838	BEE AYCH	-0.11977387
-1.2486795	PEE AYCH	-0.11977387
-1.6056259	EFF AYCH	-0.11977387
-1.629999	ZEE AYCH	-0.11977387
-1.737594	OH AYCH	-0.16541642
-1.5120587	RUBOUT AYCH	-0.11977387
-1.8072512	EN AYCH	-0.11977387
-1.9323363	EL AYCH	-0.11977387
-1.6132692	KAY AYCH	-0.11977387
-1.6228303	EM AYCH	-0.11977387
-1.4553674	JAY AYCH	-0.11977387
-1.8403823	DEE AYCH	-0.11977387
-1.709411	ESS AYCH	-0.11977387
-0.88626146	SEE AYCH	-0.1549293
-0.3441938	APOSTROPHE AYCH	-0.11977387
-1.4629948	EX ZERO	-0.19017237
-1.5369523	ONE ZERO	-0.11977387
-1.7258649	TWO ZERO	-0.17515013
-2.0086312	NINE ZERO	-0.11977387
-1.4475563	EIGHT ZERO	-0.15354826
-1.4486206	FIVE ZERO	-0.15354826
-2.1371846	SIX ZERO	-0.11977387
-1.7101574	ZERO ZERO	-0.11977387
-2.0925677	FOUR ZERO	-0.11977387
-1.5463862	ENTER ZERO	-0.11977387
-1.8802844	THREE ZERO	-0.11977387
-1.6012367	SEVEN ZERO	-0.16541642
-2.0487754	EL ZERO	-0.11977387
-1.9620533	ESS ZERO	-0.11977387
-1.4737468	<s> FOUR	-0.40754628
-1.5219885	EX FOUR	-0.11977387
-1.8771751	EYE FOUR	-0.11977387
-1.2008425	SIXTY FOUR	-0.28168833
-1.2953153	ONE FOUR	-0.15859495
-1.0713375	TWO FOUR	-0.33197984
-1.3705825	EIGHTY FOUR	-0.11977387
-1.308876	NINE FOUR	-0.15354826
-1.7101557	EE FOUR	-0.11977387
-1.4355409	YOU FOUR	-0.11977387
-1.0690799	EIGHT FOUR	-0.26718792
-1.2991307	FIVE FOUR	-0.14657997
-0.993054	SIX FOUR	-0.19999929
-1.7707589	AYCH FOUR	-0.11977387
-1.6335732	ZERO FOUR	-0.11977387
-1.1946511	FOUR FOUR	-0.17305791
-1.4436514	ENTER FOUR	-0.11977387
-1.8115306	TEE FOUR	-0.11977387
-1.5740771	FIFTY FOUR	-0.11977387
-1.767352	THREE FOUR	-0.14657997
-1.5032678	FORTY FOUR	-0.11977387
-1.6304637	PEE FOUR	-0.11977387
-1.7125486	OH FOUR	-0.11977387
-1.3893725	SEVEN FOUR	-0.15354826
-1.7111466	EM FOUR	-0.11977387
-1.4274498	JAY FOUR	-0.11977387
-1.1640322	TWENTY FOUR	-0.11977387
-0.9497948	NINETY FOUR	-0.19017237
-1.1605996	TWELVE FOUR	-0.11977387
-0.3419259	CODE FOUR	-0.11977387
-1.9787428	<s> START	-0.7316834
-1.0561316	<s> ENTER	-0.41255447
-1.8437195	<s> TEE	-0.17586389
-1.2678438	EYE TEE	-0.16541642
-1.7914437	GEE TEE	-0.11977387
-1.5802445	AR TEE	-0.18477833
-1.4004015	EE TEE	-0.20880464
-1.4689307	YOU TEE	-0.14657997
-2.0301359	FIVE TEE	-0.11977387
-1.6967795	AYCH TEE	-0.11977387
-1.3128786	TEE TEE	-0.15354826
-1.2277949	AY TEE	-0.23436639
-1.4292016	CUE TEE	-0.11977387
-1.5379392	PEE TEE	-0.11977387
-1.3480304	EFF TEE	-0.11977387
-1.6461774	ZEE TEE	-0.11977387
-1.4955549	OH TEE	-0.11977387
-1.5256562	RUBOUT TEE	-0.11977387
-1.2878442	EN TEE	-0.1419958
-1.9513153	EL TEE	-0.11977387
-1.3640529	KAY TEE	-0.11977387
-1.7756236	EM TEE	-0.11977387
-1.6233773	JAY TEE	-0.11977387
-1.0839832	ESS TEE	-0.16541637
-1.7774973	SEE TEE	-0.11977387
-1.9372784	<s> VEE	-0.22281364
-1.6245127	EX VEE	-0.11977387
-1.5624207	EYE VEE	-0.11977387
-1.6952385	GEE VEE	-0.11977387
-2.0389724	AR VEE	-0.11977387
-1.5047472	EE VEE	-0.17097573
-1.8017058	WHY VEE	-0.11977387
-1.4909041	ERASE VEE	-0.11977387
-1.9400234	TEE VEE	-0.11977387
-1.3767503	AY VEE	-0.17637445
-1.8341831	BEE VEE	-0.11977387
-1.823333	EFF VEE	-0.11977387
-1.5692066	RUBOUT VEE	-0.11977387
-1.8291254	KAY VEE	-0.11977387
-1.6826444	EM VEE	-0.11977387
-1.6775669	JAY VEE	-0.11977387
-1.471791	ESS VEE	-0.11977387
-1.7397196	<s> AY	-0.17236276
-1.5187265	EYE AY	-0.11977387
-1.2098242	GEE AY	-0.1419958
-1.0257397	AR AY	-0.14462066
-1.2037482	EE AY	-0.14407353
-1.4448218	YOU AY	-0.13875079
-1.6973647	WHY AY	-0.11977387
-1.4258945	ERASE AY	-0.11977387
-0.9853068	AYCH AY	-0.14715278
-1.8289889	TEE AY	-0.11977387
-0.8407304	VEE AY	-0.15354826
-1.5502003	AY AY	-0.11977387
-1.0685031	BEE AY	-0.14657997
-1.2390609	PEE AY	-0.11977387
-1.7147456	EFF AY	-0.11977387
-1.020332	ZEE AY	-0.11977387
-1.7223941	OH AY	-0.11977387
-1.4924288	RUBOUT AY	-0.11977387
-1.1155599	EN AY	-0.14657997
-0.97406507	EL AY	-0.16793454
-1.5921326	KAY AY	-0.11977387
-1.0877111	EM AY	-0.15188852
-1.4384024	JAY AY	-0.11977387
-1.1691091	DEE AY	-0.16888262
-1.8208463	ESS AY	-0.11977387
-1.1646752	SEE AY	-0.16541642
-1.1744673	FOURTEEN AY	-0.11977387
-0.77018106	AND AY	-0.19017237
-2.0426419	<s> FIFTY	-0.16888262
-1.9280783	SIXTY FIFTY	-0.11977387
-1.701571	ONE FIFTY	-0.11977387
-2.208392	TWO FIFTY	-0.11977387
-1.8223264	NINE FIFTY	-0.11977387
-1.9230858	AYCH FIFTY	-0.11977387
-2.0813863	FOUR FIFTY	-0.11977387
-1.539202	ENTER FIFTY	-0.11977387
-1.9636587	TEE FIFTY	-0.11977387
-1.7602854	VEE FIFTY	-0.11977387
-1.4742332	CUE FIFTY	-0.11977387
-2.0564094	SEVEN FIFTY	-0.11977387
-0.7861755	SEVENTEEN FIFTY	-0.11977387
-1.2077681	TWELVE FIFTY	-0.11977387
-1.3508096	NINETEEN FIFTY	-0.19017237
-1.7397196	<s> THREE	-0.16405141
-1.5362703	EX THREE	-0.11977387
-0.9116497	SIXTY THREE	-0.42781636
-1.6524945	ONE THREE	-0.19017237
-1.4078739	TWO THREE	-0.15859495
-1.3783376	EIGHTY THREE	-0.11977387
-1.3132677	NINE THREE	-0.15354826
-1.944268	EE THREE	-0.11977387
-1.7778649	YOU THREE	-0.11977387
-1.6973647	WHY THREE	-0.11977387
-1.4157249	EIGHT THREE	-0.13633281
-1.3023826	FIVE THREE	-0.17637445
-1.2383578	SIX THREE	-0.1496632
-1.7882366	AYCH THREE	-0.11977387
-1.4017936	FOUR THREE	-0.14657997
-1.4552407	ENTER THREE	-0.11977387
-1.4137967	FIFTY THREE	-0.11977387
-1.2566874	THREE THREE	-0.15354826
-0.8382015	FORTY THREE	-0.11977387
-1.4728177	THIRTY THREE	-0.19017237
-1.6463693	PEE THREE	-0.11977387
-1.7223941	OH THREE	-0.11977387
-1.9098446	EN THREE	-0.11977387
-1.5446353	SEVEN THREE	-0.11977387
-1.9053379	EL THREE	-0.11977387
-1.7149811	KAY THREE	-0.11977387
-0.8850443	TWENTY THREE	-0.28168833
-1.1171813	THOUSAND THREE	-0.11977387
-2.787916	<s> FORTY	-0.11977387
-1.9872773	NINE FORTY	-0.11977387
-2.0905094	EIGHT FORTY	-0.11977387
-2.095911	FIVE FORTY	-0.11977387
-2.1155756	SIX FORTY	-0.11977387
-1.9012481	FOUR FORTY	-0.11977387
-1.5321347	ENTER FORTY	-0.11977387
-1.8644545	THREE FORTY	-0.11977387
-1.6786782	BEE FORTY	-0.11977387
-1.7564058	PEE FORTY	-0.11977387
-2.1899443	OH FORTY	-0.11977387
-1.8849026	SEVEN FORTY	-0.19017237
-1.8513705	EM FORTY	-0.11977387
-1.9347637	DEE FORTY	-0.11977387
-1.2986596	HUNDRED FORTY	-0.11977387
-1.3484809	NINETEEN FORTY	-0.19017237
-1.5132626	<s> BEE	-0.37844592
-1.5821699	EX BEE	-0.11977387
-1.9523271	EYE BEE	-0.11977387
-1.8013127	GEE BEE	-0.11977387
-1.4301487	AR BEE	-0.11977387
-1.9947896	EE BEE	-0.11977387
-1.7209582	YOU BEE	-0.11977387
-1.6024753	WHY BEE	-0.11977387
-1.4601436	ERASE BEE	-0.11977387
-1.2753316	AYCH BEE	-0.11977387
-1.8860164	TEE BEE	-0.11977387
-2.1103134	AY BEE	-0.11977387
-1.7831519	BEE BEE	-0.11977387
-1.697912	PEE BEE	-0.11977387
-1.6265005	EFF BEE	-0.11977387
-1.7533453	OH BEE	-0.11977387
-1.4047319	EN BEE	-0.11977387
-1.7856687	EM BEE	-0.11977387
-1.6319523	JAY BEE	-0.11977387
-1.7273031	DEE BEE	-0.11977387
-1.4529334	ESS BEE	-0.16541642
-1.78629	SEE BEE	-0.11977387
-2.6629775	<s> CUE	-0.11977387
-1.5582619	EYE CUE	-0.11977387
-1.843197	GEE CUE	-0.11977387
-2.026877	AR CUE	-0.11977387
-2.1660666	EE CUE	-0.11977387
-1.7579203	YOU CUE	-0.11977387
-1.7911141	WHY CUE	-0.11977387
-1.4845752	ERASE CUE	-0.11977387
-1.8880465	AYCH CUE	-0.11977387
-1.774963	TEE CUE	-0.11977387
-1.5546601	VEE CUE	-0.19017237
-1.1450835	CUE CUE	-0.11977387
-1.81226	EFF CUE	-0.11977387
-2.1616626	OH CUE	-0.11977387
-1.5616381	RUBOUT CUE	-0.11977387
-1.8283477	EM CUE	-0.11977387
-1.6680527	JAY CUE	-0.11977387
-1.7573805	DEE CUE	-0.11977387
-2.3115497	<s> THIRTY	-0.11977387
-1.9523271	EYE THIRTY	-0.11977387
-1.9499042	ONE THIRTY	-0.19017237
-1.6988101	TWO THIRTY	-0.16541642
-1.7751051	NINE THIRTY	-0.11977387
-1.9816064	AR THIRTY	-0.11977387
-2.1160712	EE THIRTY	-0.11977387
-2.0323725	EIGHT THIRTY	-0.11977387
-1.8827502	FIVE THIRTY	-0.11977387
-1.9038428	SIX THIRTY	-0.11977387
-2.0102699	FOUR THIRTY	-0.11977387
-1.4919881	ENTER THIRTY	-0.11977387
-1.7022815	VEE THIRTY	-0.11977387
-1.9656744	THREE THIRTY	-0.11977387
-1.7705926	EFF THIRTY	-0.11977387
-1.8377676	SEVEN THIRTY	-0.11977387
-1.9611251	EL THIRTY	-0.11977387
-1.7856687	EM THIRTY	-0.11977387
-1.8758509	ESS THIRTY	-0.11977387
-1.0038738	SEVENTEEN THIRTY	-0.11977387
-1.3228557	TEN THIRTY	-0.11977387
-1.78629	SEE THIRTY	-0.11977387
-1.2151264	<s> PEE	-0.70757306
-1.6070771	EX PEE	-0.11977387
-1.5541424	EYE PEE	-0.11977387
-1.8323412	GEE PEE	-0.11977387
-2.0224402	EE PEE	-0.11977387
-1.8798375	YOU PEE	-0.11977387
-1.7807745	WHY PEE	-0.11977387
-1.8769679	AYCH PEE	-0.11977387
-1.9176085	TEE PEE	-0.11977387
-1.7261983	VEE PEE	-0.11977387
-1.7353066	AY PEE	-0.11977387
-1.8130459	BEE PEE	-0.11977387
-1.6260929	CUE PEE	-0.11977387
-2.0220184	OH PEE	-0.11977387
-1.5541993	RUBOUT PEE	-0.11977387
-1.5734447	EN PEE	-0.11977387
-1.666901	EM PEE	-0.11977387
-1.9009724	DEE PEE	-0.11977387
-1.4641495	ESS PEE	-0.11977387
-1.8784097	<s> EFF	-0.16606338
-1.5663248	EX EFF	-0.11977387
-1.7974806	EYE EFF	-0.11977387
-1.8317924	AR EFF	-0.11977387
-1.7389061	EE EFF	-0.11977387
-1.4640007	YOU EFF	-0.11977387
-1.5891283	WHY EFF	-0.11977387
-1.4484245	ERASE EFF	-0.11977387
-1.689615	AYCH EFF	-0.11977387
-1.7301644	TEE EFF	-0.11977387
-1.6870385	VEE EFF	-0.11977387
-1.9636103	AY EFF	-0.11977387
-1.5859383	CUE EFF	-0.11977387
-1.6800427	PEE EFF	-0.11977387
-1.3442924	EFF EFF	-0.11977387
-1.7427812	OH EFF	-0.11977387
-1.5188042	RUBOUT EFF	-0.11977387
-1.9477692	EN EFF	-0.11977387
-1.5345441	EL EFF	-0.11977387
-1.6205498	KAY EFF	-0.11977387
-1.7658055	EM EFF	-0.11977387
-1.7130111	DEE EFF	-0.11977387
-1.7161245	ESS EFF	-0.11977387
-1.7688792	SEE EFF	-0.11977387
-2.4224925	<s> ZEE	-0.11977387
-1.5741751	EX ZEE	-0.11977387
-1.839472	AR ZEE	-0.11977387
-1.9859506	EE ZEE	-0.11977387
-1.8315413	YOU ZEE	-0.11977387
-1.5957505	WHY ZEE	-0.11977387
-1.4542445	ERASE ZEE	-0.11977387
-1.8352805	AYCH ZEE	-0.11977387
-1.8759764	TEE ZEE	-0.11977387
-1.6945932	VEE ZEE	-0.11977387
-1.7736278	BEE ZEE	-0.11977387
-1.5936778	CUE ZEE	-0.11977387
-1.7607718	EFF ZEE	-0.11977387
-1.6461774	ZEE ZEE	-0.11977387
-2.0980988	OH ZEE	-0.11977387
-1.5256562	RUBOUT ZEE	-0.11977387
-1.8218307	EN ZEE	-0.11977387
-1.8098385	EL ZEE	-0.11977387
-1.6279545	KAY ZEE	-0.11977387
-1.6233773	JAY ZEE	-0.11977387
-1.8596548	DEE ZEE	-0.11977387
-1.866186	ESS ZEE	-0.11977387
-1.623761	SEE ZEE	-0.11977387
-1.8959322	<s> OH	-0.17305791
-1.8520384	EYE OH	-0.11977387
-1.217836	ONE OH	-0.15861286
-1.7034211	GEE OH	-0.11977387
-1.5120173	TWO OH	-0.13633281
-1.0735277	AR OH	-0.16739371
-2.0024505	EE OH	-0.11977387
-1.6330476	YOU OH	-0.11977387
-1.6571271	WHY OH	-0.11977387
-1.5569525	EIGHT OH	-0.11977387
-1.2047528	FIVE OH	-0.13875079
-1.2314216	SIX OH	-0.1419958
-1.3992822	ERASE OH	-0.11977387
-1.0506889	AYCH OH	-0.11977385
-1.390402	FOUR OH	-0.14657997
-1.1778268	TEE OH	-0.1419958
-1.624381	VEE OH	-0.11977387
-1.7490954	THREE OH	-0.11977387
-1.169884	BEE OH	-0.19017237
-1.2234887	PEE OH	-0.11977387
-1.0556859	EFF OH	-0.17097573
-1.1664861	ZEE OH	-0.11977387
-1.3169068	OH OH	-0.11977387
-1.4615638	RUBOUT OH	-0.11977387
-1.3745909	EN OH	-0.11977387
-1.2732011	SEVEN OH	-0.1419958
-1.355446	EL OH	-0.11977387
-1.6715963	KAY OH	-0.11977387
-1.1863486	EM OH	-0.16888262
-1.148781	JAY OH	-0.11977387
-1.1591773	DEE OH	-0.13633281
-0.93307036	ESS OH	-0.3750957
-1.1541888	SEE OH	-0.15354826
-1.1909189	<s> RUBOUT	-0.23403803
-1.8879844	<s> EN	-0.23462144
-1.5986149	EX EN	-0.11977387
-0.78073037	EYE EN	-0.23519391
-1.2307775	GEE EN	-0.11977387
-1.436229	AR EN	-0.14657997
-1.122735	EE EN	-0.2318344
-1.4840658	YOU EN	-0.11977387
-1.6162456	WHY EN	-0.11977387
-1.7190102	AYCH EN	-0.11977387
-1.9068204	TEE EN	-0.11977387
-1.7180789	VEE EN	-0.11977387
-1.0429097	AY EN	-0.21704823
-1.1395595	CUE EN	-0.11977387
-1.5572959	PEE EN	-0.11977387
-1.1334181	OH EN	-0.15988043
-1.5468857	RUBOUT EN	-0.11977387
-1.294397	EN EN	-0.13875079
-1.6592383	EM EN	-0.11977387
-1.8902687	DEE EN	-0.11977387
-1.895851	ESS EN	-0.11977387
-1.8959322	<s> SEVEN	-0.11977387
-0.9080062	SIXTY SEVEN	-0.42781636
-1.4878554	ONE SEVEN	-0.11977387
-1.236329	TWO SEVEN	-0.15860659
-1.3592035	EIGHTY SEVEN	-0.11977387
-1.7099355	NINE SEVEN	-0.11977387
-1.8770431	AR SEVEN	-0.11977387
-1.7300987	YOU SEVEN	-0.11977387
-1.6571271	WHY SEVEN	-0.11977387
-1.4048992	EIGHT SEVEN	-0.1419958
-1.407233	FIVE SEVEN	-0.17515013
-1.3203689	SIX SEVEN	-0.16541642
-1.7457942	AYCH SEVEN	-0.11977387
-1.620604	ZERO SEVEN	-0.11977387
-1.1903739	FOUR SEVEN	-0.15354826
-1.4268277	ENTER SEVEN	-0.11977387
-1.624381	VEE SEVEN	-0.11977387
-1.3944731	FIFTY SEVEN	-0.11977387
-1.3571475	THREE SEVEN	-0.14657997
-1.0031004	FORTY SEVEN	-0.16541642
-1.565959	BEE SEVEN	-0.11977387
-1.4533664	THIRTY SEVEN	-0.19017237
-1.5707134	ZEE SEVEN	-0.11977387
-1.5673776	OH SEVEN	-0.17097573
-1.5260843	SEVEN SEVEN	-0.16541642
-1.6861975	EM SEVEN	-0.11977387
-1.148781	JAY SEVEN	-0.11977387
-1.2899749	SEVENTY SEVEN	-0.19017237
-1.7797958	ESS SEVEN	-0.11977387
-1.4386355	TWENTY SEVEN	-0.11977387
-1.1475025	NINETY SEVEN	-0.11977387
-1.6981627	SEE SEVEN	-0.11977387
-1.103568	THOUSAND SEVEN	-0.11977387
-1.8437195	<s> EL	-0.177618
-1.5741751	EX EL	-0.11977387
-1.2678438	EYE EL	-0.151061
-1.0166795	GEE EL	-0.15572047
-1.5802445	AR EL	-0.17147438
-1.0433583	EE EL	-0.29468933
-1.321786	YOU EL	-0.16201177
-1.1594634	WHY EL	-0.11977387
-1.6967795	AYCH EL	-0.11977387
-1.7373172	TEE EL	-0.19017237
-1.2277949	AY EL	-0.15354826
-1.7736278	BEE EL	-0.11977387
-0.9764872	PEE EL	-0.20125553
-1.6461774	ZEE EL	-0.11977387
-1.6036986	OH EL	-0.11977387
-1.5256562	RUBOUT EL	-0.11977387
-1.9577913	EN EL	-0.11977387
-1.0991526	EL EL	-0.1637108
-1.7631856	KAY EL	-0.11977387
-1.6233773	JAY EL	-0.11977387
-1.8596548	DEE EL	-0.11977387
-1.7229435	ESS EL	-0.11977387
-1.623761	SEE EL	-0.11977387
-2.0126052	<s> KAY	-0.16888262
-1.5663248	EX KAY	-0.11977387
-1.7974806	EYE KAY	-0.11977387
-1.6436905	GEE KAY	-0.11977387
-1.2227226	AR KAY	-0.13875079
-2.0930781	EE KAY	-0.11977387
-1.8202622	YOU KAY	-0.11977387
-1.8254552	AYCH KAY	-0.11977387
-1.7301644	TEE KAY	-0.11977387
-1.5227337	VEE KAY	-0.11977387
-1.7126137	AY KAY	-0.11977387
-1.7643079	BEE KAY	-0.11977387
-1.4238873	CUE KAY	-0.11977387
-1.6124731	EFF KAY	-0.11977387
-1.6380129	ZEE KAY	-0.11977387
-1.975026	OH KAY	-0.11977387
-1.9477692	EN KAY	-0.11977387
-1.5345441	EL KAY	-0.11977387
-1.7531072	KAY KAY	-0.11977387
-1.7658055	EM KAY	-0.11977387
-1.4611729	JAY KAY	-0.11977387
-1.4470376	DEE KAY	-0.11977387
-1.1733325	ESS KAY	-0.14657997
-0.8873811	SEE KAY	-0.15859495
-1.5132626	<s> EM	-0.41971833
-1.5420133	EYE EM	-0.15354826
-1.6007922	EE EM	-0.15354826
-1.7209582	YOU EM	-0.11977387
-1.7511553	WHY EM	-0.11977387
-2.038944	FIVE EM	-0.11977387
-1.4601436	ERASE EM	-0.11977387
-1.8860164	TEE EM	-0.11977387
-1.5331173	VEE EM	-0.11977387
-1.174011	AY EM	-0.14407353
-1.3565464	BEE EM	-0.11977387
-1.7705926	EFF EM	-0.11977387
-1.4985182	OH EM	-0.17515013
-1.532618	RUBOUT EM	-0.11977387
-1.9680502	EN EM	-0.11977387
-1.8168987	EL EM	-0.11977387
-1.7735035	KAY EM	-0.11977387
-1.3728824	EM EM	-0.11977387
-1.6319523	JAY EM	-0.11977387
-1.7273031	DEE EM	-0.11977387
-1.7298713	ESS EM	-0.11977387
-1.78629	SEE EM	-0.11977387
-1.7010531	<s> JAY	-0.2502455
-2.1253228	ONE JAY	-0.11977387
-1.6798757	GEE JAY	-0.11977387
-2.0224402	EE JAY	-0.19017237
-1.7483807	YOU JAY	-0.11977387
-1.7807745	WHY JAY	-0.11977387
-1.4783373	ERASE JAY	-0.11977387
-1.9176085	TEE JAY	-0.11977387
-2.1447935	AY JAY	-0.11977387
-1.8130459	BEE JAY	-0.11977387
-1.6484295	EFF JAY	-0.11977387
-2.1481838	OH JAY	-0.11977387
-1.5541993	RUBOUT JAY	-0.11977387
-2.0003664	EN JAY	-0.11977387
-1.666901	EM JAY	-0.11977387
-1.6587423	JAY JAY	-0.11977387
-1.9009724	DEE JAY	-0.11977387
-1.9062074	ESS JAY	-0.11977387
-1.8137895	SEE JAY	-0.11977387
-1.9327813	<s> HELP	-0.77307606
-2.175228	EYE FIFTEEN	-0.11977387
-2.3069763	ONE FIFTEEN	-0.11977387
-2.3299034	TWO FIFTEEN	-0.11977387
-1.617028	ENTER FIFTEEN	-0.11977387
-2.2012496	SEVEN FIFTEEN	-0.11977387
-1.7560785	<s> REPEAT	-0.93580335
-1.8437195	<s> DEE	-0.25015697
-1.382261	EYE DEE	-0.11977387
-1.6506903	GEE DEE	-0.11977387
-1.5802445	AR DEE	-0.14657997
-1.5972025	EE DEE	-0.14657997
-1.7121892	YOU DEE	-0.11977387
-1.3188308	WHY DEE	-0.11977387
-1.7373172	TEE DEE	-0.11977387
-1.3646761	AY DEE	-0.1496632
-1.7736278	BEE DEE	-0.11977387
-1.4292016	CUE DEE	-0.11977387
-1.5379392	PEE DEE	-0.11977387
-1.7607718	EFF DEE	-0.11977387
-1.6461774	ZEE DEE	-0.11977387
-1.7480311	OH DEE	-0.11977387
-1.5256562	RUBOUT DEE	-0.11977387
-1.4019037	EN DEE	-0.15354826
-1.0991526	EL DEE	-0.13875079
-1.7631856	KAY DEE	-0.11977387
-1.7756236	EM DEE	-0.11977387
-1.6233773	JAY DEE	-0.11977387
-1.4508648	DEE DEE	-0.16541642
-1.7774973	SEE DEE	-0.11977387
-1.6335002	EX SEVENTY	-0.11977387
-2.1583586	ONE SEVENTY	-0.11977387
-1.8657582	GEE SEVENTY	-0.11977387
-1.9872773	NINE SEVENTY	-0.11977387
-2.1934025	EE SEVENTY	-0.11977387
-1.9180833	EIGHT SEVENTY	-0.19017237
-2.0704856	FOUR SEVENTY	-0.11977387
-1.5321347	ENTER SEVENTY	-0.11977387
-1.9516803	TEE SEVENTY	-0.11977387
-1.8644545	THREE SEVENTY	-0.11977387
-1.6786782	BEE SEVENTY	-0.19017237
-2.0352821	EN SEVENTY	-0.11977387
-2.0442646	SEVEN SEVENTY	-0.11977387
-2.0251493	EL SEVENTY	-0.11977387
-1.3423369	TEN SEVENTY	-0.11977387
-1.3484809	NINETEEN SEVENTY	-0.19017237
-2.155856	<s> GO	-0.5767814
-1.786129	<s> STOP	-0.9077746
-1.5477993	<s> ESS	-0.23173288
-1.4165137	EX ESS	-0.11977387
-1.3850298	EYE ESS	-0.16201177
-1.8013127	GEE ESS	-0.11977387
-1.584531	AR ESS	-0.16541642
-1.4026796	EE ESS	-0.21371242
-1.3253338	YOU ESS	-0.11977387
-1.4601436	ERASE ESS	-0.11977387
-1.7445899	TEE ESS	-0.11977387
-1.7022815	VEE ESS	-0.11977387
-1.4560962	AY ESS	-0.15859495
-1.6354767	BEE ESS	-0.11977387
-1.544296	PEE ESS	-0.11977387
-1.9932175	OH ESS	-0.16541642
-1.5610694	EN ESS	-0.11977387
-1.542039	EL ESS	-0.11977387
-1.6354876	KAY ESS	-0.11977387
-1.7856687	EM ESS	-0.11977387
-1.7273031	DEE ESS	-0.11977387
-1.8758509	ESS ESS	-0.11977387
-1.78629	SEE ESS	-0.11977387
-0.636925	FIFTH ESS	-0.11977387
-2.642305	<s> TWENTY	-0.11977387
-2.0659516	ONE TWENTY	-0.11977387
-1.9668602	TWO TWENTY	-0.11977387
-1.75634	NINE TWENTY	-0.11977387
-1.8092686	YOU TWENTY	-0.11977387
-2.0059838	EIGHT TWENTY	-0.11977387
-2.013038	FIVE TWENTY	-0.11977387
-2.0297768	SIX TWENTY	-0.11977387
-1.8401388	FOUR TWENTY	-0.11977387
-1.4732258	ENTER TWENTY	-0.11977387
-1.7995958	THREE TWENTY	-0.11977387
-1.741772	EFF TWENTY	-0.11977387
-1.5561585	SEVEN TWENTY	-0.16541642
-1.7432573	KAY TWENTY	-0.11977387
-1.3134333	TEN TWENTY	-0.11977387
-1.1757603	TWELVE TWENTY	-0.11977387
-1.2686601	HUNDRED TWENTY	-0.11977387
-0.9990499	AND TWENTY	-0.11977387
-0.63425624	MARCH TWENTY	-0.11977387
-1.5365334	NINETEEN TWENTY	-0.11977387
-0.63425624	JUNE TWENTY	-0.11977387
-0.7996502	SEPTEMBER TWENTY	-0.11977387
-0.7996502	MAY TWENTY	-0.11977387
-0.7996502	OCTOBER TWENTY	-0.11977387
-0.63425624	AUGUST TWENTY	-0.11977387
-2.2504501	SIX SEVENTEEN	-0.11977387
-2.1761632	THREE SEVENTEEN	-0.11977387
-1.8897214	PEE SEVENTEEN	-0.11977387
-2.2012496	SEVEN SEVENTEEN	-0.11977387
-0.94932413	ELEVEN SEVENTEEN	-0.11977387
-2.2611506	ONE NINETY	-0.11977387
-2.1664734	FOUR NINETY	-0.11977387
-1.5921819	ENTER NINETY	-0.11977387
-2.301547	AY NINETY	-0.11977387
-1.8491226	PEE NINETY	-0.11977387
-1.7916646	ZEE NINETY	-0.11977387
-2.3261168	OH NINETY	-0.11977387
-1.9517237	KAY NINETY	-0.11977387
-2.4122233	<s> TEN	-0.11977387
-2.2611506	ONE TEN	-0.11977387
-2.289754	TWO TEN	-0.11977387
-1.9108356	WHY TEN	-0.11977387
-2.185758	FIVE TEN	-0.11977387
-1.9569447	SEVEN TEN	-0.19017237
-1.3697505	TEN TEN	-0.11977387
-1.2316655	TWELVE TEN	-0.11977387
-1.6994823	<s> SEE	-0.18192425
-1.5986149	EX SEE	-0.11977387
-1.274253	EYE SEE	-0.151061
-1.6723934	GEE SEE	-0.11977387
-1.8633608	AR SEE	-0.19017237
-2.0130262	EE SEE	-0.11977387
-1.8672507	YOU SEE	-0.11977387
-1.4721875	ERASE SEE	-0.11977387
-1.2321612	AY SEE	-0.13446146
-1.6177595	CUE SEE	-0.11977387
-1.716548	PEE SEE	-0.11977387
-1.6716344	ZEE SEE	-0.11977387
-2.1351109	OH SEE	-0.11977387
-1.5468857	RUBOUT SEE	-0.11977387
-1.4104441	EN SEE	-0.11977387
-1.7949053	KAY SEE	-0.11977387
-1.8064841	EM SEE	-0.11977387
-1.4852037	JAY SEE	-0.11977387
-1.895851	ESS SEE	-0.11977387
-1.8044282	SEE SEE	-0.11977387
-3.0085614	<s> FOURTEEN	-0.11977387
-2.0688498	YOU FOURTEEN	-0.11977387
-2.195561	EIGHT FOURTEEN	-0.11977387
-1.600307	ENTER FOURTEEN	-0.11977387
-2.145414	THREE FOURTEEN	-0.11977387
-1.9668522	SEVEN FOURTEEN	-0.11977387
-1.2373333	FOURTEEN FOURTEEN	-0.11977387
-2.3069763	ONE THOUSAND	-0.11977387
-2.2228084	EIGHT THOUSAND	-0.11977387
-2.2504501	SIX THOUSAND	-0.11977387
-1.6402617	FOUR THOUSAND	-0.11977387
-2.2012496	SEVEN THOUSAND	-0.11977387
-2.322903	<s> TWELVE	-0.11977387
-2.2650723	SIX TWELVE	-0.11977387
-2.1923945	THREE TWELVE	-0.11977387
-1.3841347	TEN TWELVE	-0.11977387
-2.062417	ONE HUNDRED	-0.11977387
-2.289754	TWO HUNDRED	-0.11977387
-2.0798233	NINE HUNDRED	-0.11977387
-1.9777671	EIGHT HUNDRED	-0.16541642
-2.185758	FIVE HUNDRED	-0.11977387
-2.2093244	SIX HUNDRED	-0.11977387
-2.130819	THREE HUNDRED	-0.11977387
-2.152514	SEVEN HUNDRED	-0.11977387
-2.1496074	NINE AND	-0.11977387
-2.2394073	FOUR AND	-0.11977387
-0.5444641	HUNDRED AND	-0.17097573
-2.4098773	AY HALF	-0.11977387
-2.9622035	<s> ELEVEN	-0.11977387
-2.3404548	ONE ELEVEN	-0.11977387
-2.2092562	THREE ELEVEN	-0.11977387
-1.4898727	EIGHTY FIFTH	-0.11977387
-1.8347607	TWENTY FIFTH	-0.11977387
-2.4552314	OH APOSTROPHE	-0.11977387
-3.1873116	<s> AREA	-0.11977387
-0.35458878	AREA CODE	-0.11977387
-2.979384	<s> MARCH	-0.11977387
-1.5974913	TWENTY THIRD	-0.19017237
-0.6543502	MARCH THIRD	-0.11977387
-1.022543	FIFTEEN NINETEEN	-0.11977387
-1.1979157	TWELVE NINETEEN	-0.11977387
-0.64050895	FIFTH NINETEEN	-0.11977387
-0.39824817	THIRD NINETEEN	-0.11977387
-0.34738883	ELEVENTH NINETEEN	-0.11977387
-0.39824817	FIFTEENTH NINETEEN	-0.19017237
-0.8088319	MAY NINETEEN	-0.11977387
-0.39824817	FIRST NINETEEN	-0.19017237
-0.34738883	EIGHTEENTH NINETEEN	-0.11977387
-0.20715897	THIRTIETH NINETEEN	-0.20880464
-0.39824817	TWELFTH NINETEEN	-0.19017237
-0.34738883	SEVENTH NINETEEN	-0.11977387
-0.34738883	SIXTEENTH NINETEEN	-0.11977387
-0.34738883	SECOND NINETEEN	-0.11977387
-0.64050895	FEBRUARY NINETEEN	-0.11977387
-0.34738883	EIGHTH NINETEEN	-0.11977387
-0.34738883	SIXTH NINETEEN	-0.11977387
-0.34738883	FOURTH NINETEEN	-0.11977387
-2.979384	<s> JUNE	-0.11977387
-0.65476376	JUNE ELEVENTH	-0.11977387
-2.6391587	<s> SEPTEMBER	-0.11977387
-0.8293828	SEPTEMBER FIFTEENTH	-0.11977387
-0.6543502	JANUARY FIFTEENTH	-0.11977387
-2.9662905	<s> MAY	-0.11977387
-2.2397237	SEVEN MAY	-0.11977387
-1.8347607	TWENTY FIRST	-0.11977387
-0.8293828	OCTOBER FIRST	-0.11977387
-2.6391587	<s> OCTOBER	-0.11977387
-2.979384	<s> JANUARY	-0.11977387
-2.2551746	FIVE SIXTEEN	-0.11977387
-2.2823908	SIX SIXTEEN	-0.11977387
-3.1873116	<s> DECEMBER	-0.11977387
-0.35458878	DECEMBER EIGHTEENTH	-0.11977387
-2.979384	<s> JULY	-0.11977387
-0.82918596	OCTOBER THIRTIETH	-0.11977387
-0.6542187	JULY THIRTIETH	-0.11977387
-0.3543156	APRIL THIRTIETH	-0.11977387
-0.6543502	JANUARY TWELFTH	-0.11977387
-0.6543502	JULY TWELFTH	-0.11977387
-1.8396784	TWENTY SEVENTH	-0.11977387
-2.1585822	NINE OF	-0.11977387
-2.4599657	<s> AUGUST	-0.18477833
-0.65476376	AUGUST SIXTEENTH	-0.11977387
-1.8396784	TWENTY SECOND	-0.11977387
-3.166369	<s> FEBRUARY	-0.11977387
-0.35438156	EIGHTEEN FEBRUARY	-0.11977387
-0.65476376	FEBRUARY EIGHTH	-0.11977387
-0.8300017	MAY NINTH	-0.11977387
-0.8300017	SEPTEMBER SIXTH	-0.11977387
-3.1873116	<s> EIGHTEEN	-0.11977387
-3.1873116	<s> APRIL	-0.11977387
-1.8396784	TWENTY FOURTH	-0.11977387

\3-grams:
-1.3263309	AR EYE </s>	0
-1.121513	AYCH EYE </s>	0
-1.0675462	KAY EYE </s>	0
-0.5126684	TWO SIXTY </s>	0
-0.9418977	ENTER SIXTY </s>	0
-1.2631886	NINETEEN SIXTY </s>	0
-0.7290349	SIXTEEN SIXTY </s>	0
-0.5126684	OF SIXTY </s>	0
-0.12270137	SIXTY ONE </s>	0
-0.7102084	ONE ONE </s>	0
-0.8154744	TWO ONE </s>	0
-0.40258235	EIGHTY ONE </s>	0
-0.6288173	NINE ONE </s>	0
-0.5602989	WHY ONE </s>	0
-0.73864883	EIGHT ONE </s>	0
-0.6849453	FIVE ONE </s>	0
-0.6348981	SIX ONE </s>	0
-0.40258235	AYCH ONE </s>	0
-0.67417973	FOUR ONE </s>	0
-0.49424738	FIFTY ONE </s>	0
-0.7129509	THREE ONE </s>	0
-0.31321275	FORTY ONE </s>	0
-0.40258235	CUE ONE </s>	0
-0.5142541	THIRTY ONE </s>	0
-0.5416653	OH ONE </s>	0
-0.69266415	SEVEN ONE </s>	0
-0.5602989	JAY ONE </s>	0
-0.12270137	SEVENTY ONE </s>	0
-0.40258235	TWENTY ONE </s>	0
-0.40258235	NINETY ONE </s>	0
-1.1389909	AR GEE </s>	0
-1.2303338	EN GEE </s>	0
-0.26640528	SIXTY TWO </s>	0
-0.7432855	ONE TWO </s>	0
-0.7517683	TWO TWO </s>	0
-0.4836324	NINE TWO </s>	0
-0.7545874	EIGHT TWO </s>	0
-0.6053462	FIVE TWO </s>	0
-0.58901525	SIX TWO </s>	0
-0.39327797	AYCH TWO </s>	0
-0.5469825	ZERO TWO </s>	0
-0.63150144	FOUR TWO </s>	0
-0.65063214	ENTER TWO </s>	0
-0.39327797	AY TWO </s>	0
-0.5469825	FIFTY TWO </s>	0
-0.60094684	THREE TWO </s>	0
-0.3067511	FORTY TWO </s>	0
-0.3697053	THIRTY TWO </s>	0
-0.41634685	EFF TWO </s>	0
-0.39327797	ZEE TWO </s>	0
-0.58901525	OH TWO </s>	0
-0.39327797	EL TWO </s>	0
-0.39327797	EM TWO </s>	0
-0.19651105	SEVENTY TWO </s>	0
-0.5469825	TWENTY TWO </s>	0
-0.39327797	SEE TWO </s>	0
-0.33664948	EX NINE </s>	0
-0.10773765	SIXTY NINE </s>	0
-0.55831504	ONE NINE </s>	0
-0.51979524	TWO NINE </s>	0
-0.36241582	EIGHTY NINE </s>	0
-0.32298452	NINE NINE </s>	0
-0.47475776	EIGHT NINE </s>	0
-0.45805025	FIVE NINE </s>	0
-0.3724274	SIX NINE </s>	0
-0.5530628	FOUR NINE </s>	0
-0.5530628	ENTER NINE </s>	0
-0.33664948	VEE NINE </s>	0
-0.33664948	FIFTY NINE </s>	0
-0.41967842	THREE NINE </s>	0
-0.36241582	FORTY NINE </s>	0
-0.26652893	THIRTY NINE </s>	0
-0.52296084	OH NINE </s>	0
-0.33664948	KAY NINE </s>	0
-0.36241582	SEVENTY NINE </s>	0
-0.36241582	TWENTY NINE </s>	0
-0.023317145	<s> YES </s>	0
-0.73185194	EE AR </s>	0
-1.1567379	OH AR </s>	0
-0.83574855	EYE EE </s>	0
-1.0039433	AR EE </s>	0
-0.9579914	YOU EE </s>	0
-1.1447858	TEE EE </s>	0
-0.7713192	VEE EE </s>	0
-0.5185889	OH EE </s>	0
-0.8784828	EN EE </s>	0
-0.8065904	EL EE </s>	0
-0.75952315	DEE EE </s>	0
-0.9728628	ESS EE </s>	0
-0.91290224	SEE EE </s>	0
-1.3643979	DOUBLE YOU </s>	0
-0.9871053	EM YOU </s>	0
-0.59781766	AR WHY </s>	0
-0.43936843	EE WHY </s>	0
-0.65434384	AYCH WHY </s>	0
-0.41756278	OH WHY </s>	0
-0.51140666	EL WHY </s>	0
-0.32352692	KAY WHY </s>	0
-0.582005	EM WHY </s>	0
-0.582005	DEE WHY </s>	0
-0.582005	SEE WHY </s>	0
-0.1958997	SIXTY EIGHT </s>	0
-0.5500408	ONE EIGHT </s>	0
-0.59173644	TWO EIGHT </s>	0
-0.3917057	EIGHTY EIGHT </s>	0
-0.3917057	YOU EIGHT </s>	0
-0.4254404	FIVE EIGHT </s>	0
-0.65189755	SIX EIGHT </s>	0
-0.738601	FOUR EIGHT </s>	0
-0.4254404	FIFTY EIGHT </s>	0
-0.31916875	THREE EIGHT </s>	0
-0.3917057	FORTY EIGHT </s>	0
-0.3917057	BEE EIGHT </s>	0
-0.305655	THIRTY EIGHT </s>	0
-0.3917057	EFF EIGHT </s>	0
-0.5500408	OH EIGHT </s>	0
-0.53718257	SEVEN EIGHT </s>	0
-0.3917057	SEVENTY EIGHT </s>	0
-0.6722619	TWENTY EIGHT </s>	0
-0.3917057	NINETY EIGHT </s>	0
-0.391967	EYE FIVE </s>	0
-0.30583724	SIXTY FIVE </s>	0
-0.588915	ONE FIVE </s>	0
-0.6338179	TWO FIVE </s>	0
-0.391967	EIGHTY FIVE </s>	0
-0.6889178	NINE FIVE </s>	0
-0.61109203	YOU FIVE </s>	0
-0.6466894	EIGHT FIVE </s>	0
-0.48213938	FIVE FIVE </s>	0
-0.52796715	SIX FIVE </s>	0
-0.64826393	ENTER FIVE </s>	0
-0.36863592	FIFTY FIVE </s>	0
-0.6889178	THREE FIVE </s>	0
-0.19600138	FORTY FIVE </s>	0
-0.391967	BEE FIVE </s>	0
-0.26573062	THIRTY FIVE </s>	0
-0.26573062	OH FIVE </s>	0
-0.391967	TWENTY FIVE </s>	0
-0.391967	NINETY FIVE </s>	0
-0.28900513	SIXTY SIX </s>	0
-0.5042818	ONE SIX </s>	0
-0.44936493	TWO SIX </s>	0
-0.19686517	EIGHTY SIX </s>	0
-0.6022935	NINE SIX </s>	0
-0.56457126	EIGHT SIX </s>	0
-0.73758864	FIVE SIX </s>	0
-0.64774764	SIX SIX </s>	0
-0.47077584	ZERO SIX </s>	0
-0.59038675	FOUR SIX </s>	0
-0.6933341	ENTER SIX </s>	0
-0.6147807	AY SIX </s>	0
-0.47077584	FIFTY SIX </s>	0
-0.39419037	FORTY SIX </s>	0
-0.39419037	BEE SIX </s>	0
-0.30738658	THIRTY SIX </s>	0
-0.5402868	OH SIX </s>	0
-0.6147807	SEVEN SIX </s>	0
-0.4846719	TWENTY SIX </s>	0
-0.30738658	NINETY SIX </s>	0
-0.027832009	<s> NO </s>	0
-0.7872659	GEE AYCH </s>	0
-0.8883077	TEE AYCH </s>	0
-0.96809036	PEE AYCH </s>	0
-1.1831249	SEE AYCH </s>	0
-0.2237177	EX ZERO </s>	0
-0.40537715	TWO ZERO </s>	0
-0.27853596	NINE ZERO </s>	0
-0.3550812	EIGHT ZERO </s>	0
-0.4888606	FIVE ZERO </s>	0
-0.27853596	FOUR ZERO </s>	0
-0.27853596	ENTER ZERO </s>	0
-0.43664384	THREE ZERO </s>	0
-0.3067424	SEVEN ZERO </s>	0
-0.27853596	EL ZERO </s>	0
-0.27853596	ESS ZERO </s>	0
-0.39671236	EYE FOUR </s>	0
-0.26816824	SIXTY FOUR </s>	0
-0.40417373	TWO FOUR </s>	0
-0.39671236	EIGHTY FOUR </s>	0
-0.48754683	NINE FOUR </s>	0
-0.42467865	EIGHT FOUR </s>	0
-0.701743	FIVE FOUR </s>	0
-0.48397923	SIX FOUR </s>	0
-0.39671236	AYCH FOUR </s>	0
-0.5915389	FOUR FOUR </s>	0
-0.6568637	ENTER FOUR </s>	0
-0.39671236	FIFTY FOUR </s>	0
-0.701743	THREE FOUR </s>	0
-0.39671236	FORTY FOUR </s>	0
-0.39671236	PEE FOUR </s>	0
-0.61897993	OH FOUR </s>	0
-0.48754683	SEVEN FOUR </s>	0
-0.3091411	NINETY FOUR </s>	0
-0.04542968	<s> START </s>	0
-0.46514016	AR TEE </s>	0
-0.6122605	EE TEE </s>	0
-0.826138	TEE TEE </s>	0
-1.0946193	AY TEE </s>	0
-0.98976	EN TEE </s>	0
-0.8609121	ESS TEE </s>	0
-0.8684539	EYE AY </s>	0
-1.1187444	AR AY </s>	0
-1.1310515	EE AY </s>	0
-1.0912707	VEE AY </s>	0
-0.91129315	EN AY </s>	0
-0.94412035	EL AY </s>	0
-1.1008412	DEE AY </s>	0
-0.77534986	SEE AY </s>	0
-0.5286169	FOURTEEN AY </s>	0
-0.9375206	ONE FIFTY </s>	0
-0.558843	TEE FIFTY </s>	0
-0.16986534	SIXTY THREE </s>	0
-0.49117887	ONE THREE </s>	0
-0.58889014	TWO THREE </s>	0
-0.38506854	EIGHTY THREE </s>	0
-0.6606139	NINE THREE </s>	0
-0.38506854	YOU THREE </s>	0
-0.5964365	EIGHT THREE </s>	0
-0.7339045	FIVE THREE </s>	0
-0.62263477	SIX THREE </s>	0
-0.51911664	FOUR THREE </s>	0
-0.5353334	ENTER THREE </s>	0
-0.5353334	FIFTY THREE </s>	0
-0.6075479	THREE THREE </s>	0
-0.6358958	FORTY THREE </s>	0
-0.30101484	THIRTY THREE </s>	0
-0.59972537	OH THREE </s>	0
-0.59972537	SEVEN THREE </s>	0
-0.26216385	TWENTY THREE </s>	0
-0.7799977	<s> THIRTY </s>	0
-0.6454759	FIVE THIRTY </s>	0
-0.6454759	SIX THIRTY </s>	0
-0.46000847	VEE THIRTY </s>	0
-0.6454759	SEVEN THIRTY </s>	0
-0.99371827	EFF EFF </s>	0
-0.573567	TEE ZEE </s>	0
-0.520286	EYE OH </s>	0
-1.1301179	ONE OH </s>	0
-1.1446366	AR OH </s>	0
-0.8504378	EIGHT OH </s>	0
-0.7972784	FIVE OH </s>	0
-1.0091774	SIX OH </s>	0
-0.917122	EN OH </s>	0
-1.0091774	SEVEN OH </s>	0
-0.9626753	JAY OH </s>	0
-1.0524486	DEE OH </s>	0
-1.1946002	ESS OH </s>	0
-0.7592822	EYE EN </s>	0
-0.9709076	AR EN </s>	0
-0.71836716	EE EN </s>	0
-0.9559819	YOU EN </s>	0
-0.62905383	AY EN </s>	0
-0.8910246	OH EN </s>	0
-0.79288876	EN EN </s>	0
-0.16778369	SIXTY SEVEN </s>	0
-0.64624697	ONE SEVEN </s>	0
-0.5576308	TWO SEVEN </s>	0
-0.3781624	EIGHTY SEVEN </s>	0
-0.5421923	EIGHT SEVEN </s>	0
-0.52550983	FIVE SEVEN </s>	0
-0.555812	SIX SEVEN </s>	0
-0.52560407	ZERO SEVEN </s>	0
-0.596929	FOUR SEVEN </s>	0
-0.64624697	ENTER SEVEN </s>	0
-0.3781624	VEE SEVEN </s>	0
-0.52560407	FIFTY SEVEN </s>	0
-0.40198433	FORTY SEVEN </s>	0
-0.29616404	THIRTY SEVEN </s>	0
-0.41242304	OH SEVEN </s>	0
-0.40198433	SEVEN SEVEN </s>	0
-0.3781624	EM SEVEN </s>	0
-0.29616404	SEVENTY SEVEN </s>	0
-0.52560407	TWENTY SEVEN </s>	0
-0.3781624	NINETY SEVEN </s>	0
-1.191921	EYE EL </s>	0
-1.2026471	AR EL </s>	0
-0.84251827	EE EL </s>	0
-1.0349302	EL EL </s>	0
-0.72182715	EYE KAY </s>	0
-0.77575904	AR KAY </s>	0
-0.5082745	EE KAY </s>	0
-0.72182715	VEE KAY </s>	0
-0.78349835	SEE KAY </s>	0
-0.78471744	OH EM </s>	0
-0.97591066	EM EM </s>	0
-0.041097634	<s> HELP </s>	0
-0.2712168	EYE FIFTEEN </s>	0
-0.2712168	ONE FIFTEEN </s>	0
-0.2712168	ENTER FIFTEEN </s>	0
-0.027832009	<s> REPEAT </s>	0
-0.89080954	EYE DEE </s>	0
-0.68596613	AR DEE </s>	0
-0.84592843	AY DEE </s>	0
-0.89080954	OH DEE </s>	0
-1.0299126	EN DEE </s>	0
-0.7780079	EL DEE </s>	0
-0.4861465	ONE SEVENTY </s>	0
-0.68620867	THREE SEVENTY </s>	0
-0.3693024	NINETEEN SEVENTY </s>	0
-0.06645513	<s> GO </s>	0
-0.02975246	<s> STOP </s>	0
-0.5283912	EYE ESS </s>	0
-0.44714576	GEE ESS </s>	0
-0.44167808	EE ESS </s>	0
-0.68295985	AY ESS </s>	0
-0.6259132	BEE ESS </s>	0
-0.6259132	PEE ESS </s>	0
-0.7535447	EN ESS </s>	0
-0.6259132	KAY ESS </s>	0
-0.6259132	EM ESS </s>	0
-0.6259132	DEE ESS </s>	0
-0.8390459	NINE TWENTY </s>	0
-0.42169577	THREE SEVENTEEN </s>	0
-0.42169577	PEE SEVENTEEN </s>	0
-0.28453743	ONE TEN </s>	0
-0.28453743	TWO TEN </s>	0
-0.28453743	FIVE TEN </s>	0
-0.22820814	SEVEN TEN </s>	0
-0.28453743	TEN TEN </s>	0
-1.3160934	EYE SEE </s>	0
-0.4798169	ENTER FOURTEEN </s>	0
-0.4798169	FOURTEEN FOURTEEN </s>	0
-0.5127269	ONE THOUSAND </s>	0
-0.5219265	SIX TWELVE </s>	0
-0.71039474	ONE HUNDRED </s>	0
-0.5012471	NINE HUNDRED </s>	0
-0.22650225	AY HALF </s>	0
-0.46532923	ONE ELEVEN </s>	0
-0.5714279	EE EX EX	-0.063271455
-0.5714279	AY EX EX	-0.063271455
-0.90123963	ERASE EE EX	-0.063271455
-1.8038265	DOUBLE YOU EX	-0.063271455
-0.8746095	PEE YOU EX	-0.063271455
-1.4929848	<s> ERASE EX	-0.063271455
-1.3074901	GEE AYCH EX	-0.063271455
-1.0265889	ERASE VEE EX	-0.063271455
-1.6567754	AYCH AY EX	-0.063271455
-1.0349611	AYCH BEE EX	-0.063271455
-1.0349611	EN BEE EX	-0.063271455
-0.56378025	JAY BEE EX	-0.063271455
-0.8158667	WHY EFF EX	-0.063271455
-0.56333303	CUE EFF EX	-0.063271455
-0.9483371	EL EFF EX	-0.063271455
-0.86740935	EN ZEE EX	-0.063271455
-1.69821	<s> RUBOUT EX	-0.063271455
-1.6121466	OH EN EX	-0.063271455
-1.1516604	RUBOUT EN EX	-0.063271455
-0.8647231	TEE KAY EX	-0.063271455
-0.8647231	CUE KAY EX	-0.063271455
-1.4909034	AY EM EX	-0.063271455
-0.5901115	BEE JAY EX	-0.063271455
-0.88780284	EX ESS EX	-0.063271455
-1.0922745	<s> EX EYE	-0.063271455
-0.8305717	<s> GEE EYE	-0.22175556
-0.50259954	EX GEE EYE	-0.063271455
-0.8925027	EYE GEE EYE	-0.063271455
-0.8742908	EE GEE EYE	-0.063271455
-0.50259954	EFF GEE EYE	-0.063271455
-0.71258587	EL GEE EYE	-0.063271455
-0.95164025	<s> AR EYE	-0.14642078
-1.1068565	EE AR EYE	-0.10285921
-0.82788706	YOU AR EYE	-0.063271455
-0.73796076	AYCH AR EYE	-0.14642078
-1.0027189	BEE AR EYE	-0.063271455
-0.51807	PEE AR EYE	-0.063271455
-0.845712	EFF AR EYE	-0.063271455
-0.6965421	DEE AR EYE	-0.3466943
-1.1703674	YOU EE EYE	-0.063271455
-1.232459	AYCH EE EYE	-0.063271455
-1.2693942	EFF EE EYE	-0.063271455
-1.4744496	EN EE EYE	-0.063271455
-1.2308604	DOUBLE YOU EYE	-0.116899766
-0.86795694	JAY YOU EYE	-0.063271455
-1.2742804	<s> ERASE EYE	-0.063271455
-1.0736339	<s> AYCH EYE	-0.063271455
-0.7924111	YOU AYCH EYE	-0.063271455
-0.99556565	PEE AYCH EYE	-0.063271455
-1.2254039	SEE AYCH EYE	-0.063271455
-1.0373639	<s> TEE EYE	-0.14642078
-1.0801933	YOU TEE EYE	-0.063271455
-1.190398	TEE TEE EYE	-0.063271455
-1.2201731	ESS TEE EYE	-0.063271455
-0.48361123	EX VEE EYE	-0.063271455
-0.6821968	GEE VEE EYE	-0.063271455
-0.74957585	AY VEE EYE	-0.116899766
-0.48361123	BEE VEE EYE	-0.063271455
-0.775456	ESS VEE EYE	-0.063271455
-1.314137	YOU AY EYE	-0.063271455
-1.1251309	AY AY EYE	-0.063271455
-1.2073635	BEE AY EYE	-0.063271455
-1.0296452	YOU BEE EYE	-0.063271455
-0.5838269	OH CUE EYE	-0.063271455
-0.14261112	<s> PEE EYE	-1.1653978
-0.5794831	EX PEE EYE	-0.063271455
-0.91810066	<s> EFF EYE	-0.063271485
-0.85686505	AR EFF EYE	-0.063271455
-0.97713554	<s> ZEE EYE	-0.063271455
-0.57497036	EX ZEE EYE	-0.063271455
-1.5181111	<s> RUBOUT EYE	-0.063271455
-1.2289577	<s> EN EYE	-0.063271455
-1.2903614	EYE EN EYE	-0.063271455
-1.015227	YOU EN EYE	-0.063271455
-1.2771609	AY EN EYE	-0.063271455
-1.0535017	OH EN EYE	-0.116899766
-1.0930487	EN EN EYE	-0.063271455
-1.0208143	<s> EL EYE	-0.14642078
-1.3866655	EE EL EYE	-0.063271455
-0.6413077	YOU EL EYE	-0.116899766
-1.2338125	AY EL EYE	-0.063271455
-0.8767201	EL EL EYE	-0.063271455
-1.1794963	AR KAY EYE	-0.063271455
-0.9451095	EL KAY EYE	-0.063271455
-0.7619847	ESS KAY EYE	-0.063271455
-1.1706901	<s> EM EYE	-0.116899766
-0.9848323	EYE EM EYE	-0.063271455
-0.7764714	YOU EM EYE	-0.063271455
-0.7764714	ESS EM EYE	-0.063271455
-1.3497219	EL DEE EYE	-0.063271455
-1.1498888	YOU ESS EYE	-0.063271455
-1.5955507	<s> SEE EYE	-0.063271455
-0.6011961	EX EYE SIXTY	-0.063271455
-1.5345392	TWO ONE SIXTY	-0.063271455
-0.58874667	YOU ONE SIXTY	-0.063271455
-1.3022773	THIRTY ONE SIXTY	-0.063271455
-0.8976127	KAY TWO SIXTY	-0.063271455
-0.60049045	ELEVEN NINE SIXTY	-0.063271455
-0.8880271	AYCH AR SIXTY	-0.063271455
-0.7340061	TWENTY EIGHT SIXTY	-0.063271455
-1.3062325	FIFTY SIX SIXTY	-0.063271455
-1.1569421	TWENTY SIX SIXTY	-0.063271455
-1.0379655	TWENTY FOUR SIXTY	-0.063271455
-0.5980582	TWELVE FOUR SIXTY	-0.063271455
-1.0258027	<s> ENTER SIXTY	-0.13807169
-1.0392256	EFF TEE SIXTY	-0.063271455
-1.0985694	ENTER FIFTY SIXTY	-0.063271455
-1.298502	SIXTY THREE SIXTY	-0.063271455
-0.56341994	WHY THREE SIXTY	-0.063271455
-1.2451007	SIX THREE SIXTY	-0.063271455
-1.1523739	TWENTY THREE SIXTY	-0.063271455
-0.86170065	NINE THIRTY SIXTY	-0.063271455
-0.5733805	ZEE ZEE SIXTY	-0.063271455
-0.83400553	KAY ZEE SIXTY	-0.063271455
-1.0601954	ZEE OH SIXTY	-0.063271455
-1.3011187	FOUR SEVEN SIXTY	-0.063271455
-0.5808791	ESS SEVEN SIXTY	-0.063271455
-0.8477689	TWENTY SEVEN SIXTY	-0.063271455
-0.500699	TWO FIFTEEN SIXTY	-0.063271455
-0.5552759	TWELVE TEN SIXTY	-0.063271455
-0.3719547	EIGHT FOURTEEN SIXTY	-0.063271455
-0.3719547	THREE FOURTEEN SIXTY	-0.063271455
-0.516912	SEVEN FOURTEEN SIXTY	-0.063271455
-0.5340469	TEN TWELVE SIXTY	-0.063271455
-0.93377703	HUNDRED AND SIXTY	-0.063271455
-0.47595042	THREE ELEVEN SIXTY	-0.063271455
-0.16810301	TWELVE NINETEEN SIXTY	-0.063271455
-0.16810301	FIFTH NINETEEN SIXTY	-0.063271455
-0.25295436	THIRD NINETEEN SIXTY	-0.063271455
-0.16810301	ELEVENTH NINETEEN SIXTY	-0.063271455
-0.1384229	FIFTEENTH NINETEEN SIXTY	-0.063271455
-0.1384229	FIRST NINETEEN SIXTY	-0.063271455
-0.13163	THIRTIETH NINETEEN SIXTY	-0.063271485
-0.1384229	TWELFTH NINETEEN SIXTY	-0.063271455
-0.16810301	SEVENTH NINETEEN SIXTY	-0.063271455
-0.16810301	SIXTEENTH NINETEEN SIXTY	-0.063271455
-0.16810301	SECOND NINETEEN SIXTY	-0.063271455
-0.16810301	SIXTH NINETEEN SIXTY	-0.063271455
-0.26127407	FIVE SIXTEEN SIXTY	-0.063271455
-0.26127407	SIX SIXTEEN SIXTY	-0.063271455
-0.23259892	NINE OF SIXTY	-0.063271455
-0.23259892	MAY NINTH SIXTY	-0.063271455
-0.4957492	EYE SIXTY ONE	-0.063271455
-0.4957492	AR SIXTY ONE	-0.063271455
-0.7015302	EIGHT SIXTY ONE	-0.063271455
-0.8978537	ENTER SIXTY ONE	-0.14642078
-0.79955107	FOURTEEN SIXTY ONE	-0.063271455
-1.0608801	NINETEEN SIXTY ONE	-0.14642078
-1.1898834	EIGHT ONE ONE	-0.063271455
-1.0296571	FIVE ONE ONE	-0.116899766
-0.9637816	ZERO ONE ONE	-0.063271455
-1.2775989	FOUR ONE ONE	-0.063271455
-1.108925	THREE ONE ONE	-0.063271455
-1.2572219	<s> TWO ONE	-0.063271455
-1.3352761	ONE TWO ONE	-0.063271455
-1.1708063	TWO TWO ONE	-0.41943118
-1.0417315	FIVE TWO ONE	-0.5222782
-0.91569775	FOUR TWO ONE	-0.10285921
-1.0699607	SEVEN TWO ONE	-0.063271455
-0.8149323	AND EIGHTY ONE	-0.063271455
-1.1773969	<s> NINE ONE	-0.063271455
-1.2329979	TWO NINE ONE	-0.063271455
-0.6954473	SEVEN NINE ONE	-0.14642078
-1.7544912	EE AR ONE	-0.063271455
-0.87271845	WHY YOU ONE	-0.063271455
-1.2167301	AR WHY ONE	-0.063271455
-0.8473077	VEE WHY ONE	-0.063271455
-1.2019353	ONE EIGHT ONE	-0.063271455
-0.9833555	TWO EIGHT ONE	-0.063271455
-1.0780501	SIX EIGHT ONE	-0.063271455
-1.137631	ENTER EIGHT ONE	-0.063271455
-1.2019353	OH EIGHT ONE	-0.063271455
-0.9260003	<s> FIVE ONE	-0.116899766
-1.2301303	ONE FIVE ONE	-0.13532396
-1.1025369	TWO FIVE ONE	-0.063271455
-1.0173721	NINE FIVE ONE	-0.063271455
-1.1154089	EIGHT FIVE ONE	-0.063271455
-0.766193	FOUR FIVE ONE	-0.14642078
-0.9966831	SEVEN FIVE ONE	-0.063271455
-1.1239	ONE SIX ONE	-0.063271455
-1.0849878	EIGHT SIX ONE	-0.063271455
-0.8483447	FIVE SIX ONE	-0.063271455
-1.1763413	SIX SIX ONE	-0.063271455
-1.0734801	ENTER SIX ONE	-0.063271455
-1.0466305	THREE SIX ONE	-0.063271455
-0.87408257	KAY AYCH ONE	-0.063271455
-0.976792	ONE ZERO ONE	-0.063271455
-0.5253306	SIX ZERO ONE	-0.063271455
-0.87971747	SEVEN ZERO ONE	-0.063271455
-0.48773324	<s> FOUR ONE	-0.7446343
-1.0381833	TWO FOUR ONE	-0.14642078
-0.97219825	EIGHT FOUR ONE	-0.063271455
-0.7276343	ZERO FOUR ONE	-0.063271455
-0.8862915	FOUR FOUR ONE	-0.063271455
-0.5118168	TEE FOUR ONE	-0.063271455
-0.9137204	SEVEN FOUR ONE	-0.063271455
-0.5118168	CODE FOUR ONE	-0.063271455
-1.5349798	<s> ENTER ONE	-0.063271485
-0.8470941	<s> FIFTY ONE	-0.063271455
-0.9200251	ENTER FIFTY ONE	-0.063271455
-0.74357975	SEVENTEEN FIFTY ONE	-0.063271455
-1.3386648	<s> THREE ONE	-0.063271455
-1.2085043	EIGHT THREE ONE	-0.063271455
-0.96025014	SIX THREE ONE	-0.063271455
-0.94569355	SEVEN THREE ONE	-0.063271455
-0.5568698	EIGHT FORTY ONE	-0.063271455
-0.93281645	ENTER FORTY ONE	-0.063271455
-0.8680166	EE BEE ONE	-0.063271455
-0.84575784	DEE CUE ONE	-0.063271455
-0.7304987	<s> THIRTY ONE	-0.063271455
-0.33580536	ONE THIRTY ONE	-0.063271455
-0.45643395	TWO THIRTY ONE	-0.14642078
-0.43561146	AR THIRTY ONE	-0.063271455
-0.43561146	EL THIRTY ONE	-0.063271455
-0.43561146	TEN THIRTY ONE	-0.063271455
-1.3775765	ONE OH ONE	-0.063271455
-1.2617048	TWO OH ONE	-0.063271455
-1.229839	FIVE OH ONE	-0.063271455
-1.1412104	FOUR OH ONE	-0.063271455
-1.0663929	THREE OH ONE	-0.063271455
-1.0025764	TWO SEVEN ONE	-0.063271455
-1.1563308	EIGHT SEVEN ONE	-0.063271455
-1.1107345	THREE SEVEN ONE	-0.063271455
-0.5651436	SEE SEVEN ONE	-0.063271455
-0.8261397	EM JAY ONE	-0.063271455
-0.5690464	DEE JAY ONE	-0.063271455
-1.196626	EE DEE ONE	-0.063271455
-1.0145547	CUE DEE ONE	-0.063271455
-0.27957013	EIGHT SEVENTY ONE	-0.14642078
-0.35477808	FOUR SEVENTY ONE	-0.063271455
-0.55112183	ENTER SEVENTY ONE	-0.14642078
-0.49311298	THREE SEVENTY ONE	-0.063271455
-0.35477808	EN SEVENTY ONE	-0.063271455
-0.35477808	TEN SEVENTY ONE	-0.063271455
-0.59658015	VEE ESS ONE	-0.063271455
-0.85535175	FOUR TWENTY ONE	-0.063271455
-0.53118557	FOUR NINETY ONE	-0.063271455
-0.5227581	SEVEN THOUSAND ONE	-0.063271455
-1.0962571	<s> EX GEE	-0.063271455
-1.2945246	AR EYE GEE	-0.063271455
-0.8187608	ERASE EYE GEE	-0.063271455
-1.0997399	AYCH EYE GEE	-0.063271455
-1.2520003	EL EYE GEE	-0.063271455
-1.357376	<s> AR GEE	-0.063271455
-1.2421281	YOU AR GEE	-1.0821317
-1.4770321	AY AR GEE	-0.22175556
-1.2490449	DEE AR GEE	-0.063271455
-1.4036794	BEE EE GEE	-0.063271455
-1.3190985	EFF EE GEE	-0.063271455
-1.2254916	EN EE GEE	-0.063271455
-1.4655573	DOUBLE YOU GEE	-0.063271455
-1.2113308	OH YOU GEE	-0.063271455
-1.0170952	RUBOUT YOU GEE	-0.063271455
-0.55766034	DEE YOU GEE	-0.063271455
-0.59433246	ZEE WHY GEE	-0.063271455
-1.2797084	<s> ERASE GEE	-0.063271455
-1.027574	OH AYCH GEE	-0.063271455
-0.86800903	JAY AYCH GEE	-0.063271455
-1.2695972	TEE TEE GEE	-0.063271455
-0.9751958	RUBOUT TEE GEE	-0.063271455
-0.5742009	EM TEE GEE	-0.063271455
-1.221507	<s> AY GEE	-0.14642078
-1.1268697	ZEE AY GEE	-0.063271455
-1.4242281	EN AY GEE	-0.063271455
-1.138098	AYCH BEE GEE	-0.063271455
-1.0028814	EYE CUE GEE	-0.063271455
-1.5858195	<s> PEE GEE	-0.22175556
-0.59533906	EM EFF GEE	-0.063271455
-0.86223495	RUBOUT ZEE GEE	-0.063271455
-1.179489	RUBOUT OH GEE	-0.063271455
-1.5261036	<s> RUBOUT GEE	-0.063271455
-1.3481951	<s> EN GEE	-0.063271455
-0.8265342	EYE EN GEE	-0.063271455
-1.4194367	AY EN GEE	-0.063271455
-1.3735001	OH EN GEE	-0.063271455
-1.3459848	GEE EL GEE	-0.14642078
-1.6752126	EE EL GEE	-0.063271455
-1.8096101	<s> EM GEE	-0.063271455
-0.5871371	ERASE JAY GEE	-0.063271455
-0.57683545	ESS EX TWO	-0.063271455
-0.8422797	ONE SIXTY TWO	-0.063271455
-0.9521403	ENTER SIXTY TWO	-0.063271455
-0.51645243	OH SIXTY TWO	-0.063271455
-0.51645243	FIFTEEN SIXTY TWO	-0.063271455
-0.51645243	NINTH SIXTY TWO	-0.063271455
-1.5777117	<s> ONE TWO	-0.063271485
-0.9642465	TWO ONE TWO	-0.063271485
-0.8985846	NINE ONE TWO	-0.063271455
-0.54213566	AR ONE TWO	-0.063271455
-1.1387608	SIX ONE TWO	-0.063271455
-0.9478649	FOUR ONE TWO	-0.17685685
-0.73270917	THREE ONE TWO	-0.14642078
-1.4565674	<s> GEE TWO	-0.063271455
-0.9997257	AY GEE TWO	-0.063271455
-1.311359	<s> TWO TWO	-0.063271455
-1.024533	ONE TWO TWO	-0.063271485
-1.067337	TWO TWO TWO	-0.063271455
-0.9439593	NINE TWO TWO	-0.063271455
-1.0694298	FIVE TWO TWO	-0.3114152
-1.0467049	SIX TWO TWO	-0.063271455
-0.8538625	FOUR TWO TWO	-0.063271485
-1.0467049	OH TWO TWO	-0.063271455
-0.9744892	SEVEN TWO TWO	-0.063271455
-1.1078893	<s> NINE TWO	-0.063271455
-1.0768977	FIVE NINE TWO	-0.063271455
-1.0870885	SIX NINE TWO	-0.063271455
-1.021099	SEVEN NINE TWO	-0.063271455
-1.7435145	EL EE TWO	-0.063271455
-1.7096342	DOUBLE YOU TWO	-0.063271455
-0.8595507	AY YOU TWO	-0.063271455
-1.0536695	<s> EIGHT TWO	-0.063271455
-1.0988076	ONE EIGHT TWO	-0.063271455
-1.1396544	TWO EIGHT TWO	-0.063271455
-1.0414288	EIGHT EIGHT TWO	-0.063271455
-0.52668905	ZERO EIGHT TWO	-0.063271455
-0.8514397	FOUR EIGHT TWO	-0.063271455
-1.0419879	ENTER EIGHT TWO	-0.063271455
-0.56522965	<s> FIVE TWO	-0.15128869
-1.0955179	ONE FIVE TWO	-0.712766
-0.8069585	TWO FIVE TWO	-0.15128869
-0.9106637	NINE FIVE TWO	-0.063271455
-0.7877852	YOU FIVE TWO	-0.063271455
-0.8641066	FIVE FIVE TWO	-0.063271455
-0.9254927	FOUR FIVE TWO	-0.063271455
-0.844893	ENTER FIVE TWO	-0.063271455
-0.9106637	THREE FIVE TWO	-0.063271455
-0.89988804	SEVEN FIVE TWO	-0.063271455
-1.3130854	<s> SIX TWO	-0.063271455
-1.1224014	ONE SIX TWO	-0.063271455
-1.1239614	NINE SIX TWO	-0.063271455
-0.9248106	SIX SIX TWO	-0.063271455
-1.0720305	ENTER SIX TWO	-0.063271455
-0.544283	CUE SIX TWO	-0.063271455
-0.5940472	BEE AYCH TWO	-0.063271455
-1.0658655	EIGHT ZERO TWO	-0.063271455
-0.96621585	THREE ZERO TWO	-0.063271455
-0.7852518	<s> FOUR TWO	-0.22175556
-0.764035	TWO FOUR TWO	-0.13532396
-1.0909808	EIGHT FOUR TWO	-0.14642078
-1.112119	FIVE FOUR TWO	-0.063271455
-1.1610503	<s> ENTER TWO	-0.116899766
-1.4334725	DEE AY TWO	-0.063271455
-0.566023	AYCH FIFTY TWO	-0.063271455
-0.4195029	NINETEEN FIFTY TWO	-0.14642078
-1.1969744	<s> THREE TWO	-0.063271455
-0.8256978	TWO THREE TWO	-0.35248438
-1.092991	EIGHT THREE TWO	-0.063271455
-1.0938113	FIVE THREE TWO	-0.063271455
-1.1200551	SIX THREE TWO	-0.063271455
-0.5322579	PEE THREE TWO	-0.063271455
-0.80289316	FOUR FORTY TWO	-0.063271455
-0.80289316	THREE FORTY TWO	-0.063271455
-0.843645	TEE CUE TWO	-0.063271455
-0.86170614	<s> THIRTY TWO	-0.063271455
-0.4972074	EYE THIRTY TWO	-0.063271455
-0.4972074	EIGHT THIRTY TWO	-0.063271455
-0.7038746	SIX THIRTY TWO	-0.063271455
-0.93054473	YOU EFF TWO	-0.063271455
-0.8026816	TEE EFF TWO	-0.063271455
-0.55591244	SEE EFF TWO	-0.063271455
-0.85106385	WHY ZEE TWO	-0.063271455
-0.9330976	ONE OH TWO	-0.116899766
-1.2203952	TWO OH TWO	-0.063271455
-1.1102674	FOUR OH TWO	-0.063271455
-0.9523983	ZEE OH TWO	-0.063271455
-1.2120445	OH OH TWO	-0.063271455
-1.1558065	SEVEN OH TWO	-0.063271455
-1.098344	ONE SEVEN TWO	-0.063271455
-1.276244	TWO SEVEN TWO	-0.063271455
-0.9287731	FOUR SEVEN TWO	-0.063271455
-1.098344	ENTER SEVEN TWO	-0.063271455
-1.0422552	SEE EL TWO	-0.063271455
-0.849355	EYE KAY TWO	-0.063271455
-0.849355	JAY KAY TWO	-0.063271455
-1.4354117	AY EM TWO	-0.063271455
-0.8621676	PEE DEE TWO	-0.063271455
-0.58860785	JAY DEE TWO	-0.063271455
-0.44083574	EX SEVENTY TWO	-0.063271455
-0.44083574	NINE SEVENTY TWO	-0.063271455
-0.69530463	ENTER SEVENTY TWO	-0.063271455
-0.44083574	SEVEN SEVENTY TWO	-0.063271455
-0.5707797	<s> TWENTY TWO	-0.063271455
-0.5707797	ONE TWENTY TWO	-0.063271455
-1.3538016	EYE SEE TWO	-0.063271455
-0.60160244	CUE GEE EIGHTY	-0.063271455
-0.90355265	GEE TWO EIGHTY	-0.063271455
-1.1718415	ENTER NINE EIGHTY	-0.063271455
-1.4626197	OH YOU EIGHTY	-0.063271455
-0.6085725	EFF SIX EIGHTY	-0.063271455
-1.8602375	<s> ENTER EIGHTY	-0.063271455
-1.4738356	ESS TEE EIGHTY	-0.063271455
-0.89663506	ENTER THREE EIGHTY	-0.063271455
-0.88530445	GEE KAY EIGHTY	-0.063271455
-0.54272336	YOU FOURTEEN EIGHTY	-0.063271455
-0.8637488	EIGHT HUNDRED EIGHTY	-0.063271455
-0.51741344	FIVE HUNDRED EIGHTY	-0.063271455
-0.53414047	HUNDRED AND EIGHTY	-0.116899766
-0.98805207	BEE EX NINE	-0.063271455
-0.7022155	EIGHT SIXTY NINE	-0.063271455
-0.7022155	SIX SIXTY NINE	-0.063271455
-0.37579265	ZEE SIXTY NINE	-0.14642078
-0.49617577	TEN SIXTY NINE	-0.063271455
-0.57258034	NINETEEN SIXTY NINE	-0.52278554
-0.7022155	SIXTEEN SIXTY NINE	-0.063271455
-1.7144604	<s> ONE NINE	-0.063271455
-1.1698965	TWO ONE NINE	-0.063271455
-0.7444725	WHY ONE NINE	-0.063271455
-0.8003572	EIGHT ONE NINE	-0.14642078
-1.1155472	FIVE ONE NINE	-0.063271455
-1.069246	SIX ONE NINE	-0.063271455
-0.8540753	ENTER ONE NINE	-0.063271455
-0.9820051	THREE ONE NINE	-0.063271455
-0.9820051	OH ONE NINE	-0.063271455
-1.17507	AR GEE NINE	-0.063271455
-1.0045377	TEE GEE NINE	-0.063271455
-1.45843	<s> TWO NINE	-0.063271455
-1.1720881	TWO TWO NINE	-0.063271455
-1.2027481	FOUR TWO NINE	-0.063271455
-1.1576986	OH TWO NINE	-0.063271455
-1.0711321	SEVEN TWO NINE	-0.063271455
-0.8035463	DEE TWO NINE	-0.063271455
-0.45695826	TWO EIGHTY NINE	-0.063271455
-0.45695826	NINE EIGHTY NINE	-0.063271455
-0.45695826	ENTER EIGHTY NINE	-0.063271455
-0.8024565	GEE NINE NINE	-0.063271455
-1.0923308	EIGHT NINE NINE	-0.063271455
-1.0117152	FOUR NINE NINE	-0.063271455
-1.0242739	THREE NINE NINE	-0.063271455
-0.82448363	NINE EIGHT NINE	-0.063271455
-0.82448363	EE EIGHT NINE	-0.063271455
-0.8399316	EIGHT EIGHT NINE	-0.063271455
-1.2655269	OH EIGHT NINE	-0.063271455
-1.1071043	NINE FIVE NINE	-0.063271455
-1.22328	EIGHT FIVE NINE	-0.063271455
-1.0762105	SIX FIVE NINE	-0.063271455
-0.8000078	EFF FIVE NINE	-0.063271455
-1.1286566	OH FIVE NINE	-0.063271455
-1.2238005	ONE SIX NINE	-0.063271455
-1.1786046	EIGHT SIX NINE	-0.063271455
-1.2165321	FOUR SIX NINE	-0.063271455
-0.94617754	OH SIX NINE	-0.063271455
-0.8757351	EFF AYCH NINE	-0.063271455
-0.9182351	ONE FOUR NINE	-0.063271455
-1.5195447	TWO FOUR NINE	-0.063271455
-1.4028698	SIX FOUR NINE	-0.063271455
-1.3770937	<s> ENTER NINE	-0.063271455
-1.1988143	EE VEE NINE	-0.063271455
-0.85237175	NINE FIFTY NINE	-0.063271455
-1.1921225	TWO THREE NINE	-0.063271455
-1.2424629	SIX THREE NINE	-0.063271455
-1.2197179	THREE THREE NINE	-0.063271455
-0.56283045	EN THREE NINE	-0.063271455
-0.71041095	FOUR FORTY NINE	-0.063271455
-0.71041095	BEE FORTY NINE	-0.063271455
-0.5012571	HUNDRED FORTY NINE	-0.063271455
-0.8347593	NINE THIRTY NINE	-0.063271455
-0.5737939	EM THIRTY NINE	-0.063271455
-0.8550929	AR ZEE NINE	-0.063271455
-1.4969808	ONE OH NINE	-0.063271455
-1.0227807	EIGHT OH NINE	-0.063271455
-1.1260743	THREE OH NINE	-0.063271455
-1.2606059	<s> SEVEN NINE	-0.063271455
-1.2819538	TWO SEVEN NINE	-0.063271455
-1.1682849	SIX SEVEN NINE	-0.063271455
-0.8201943	ZERO SEVEN NINE	-0.063271455
-1.5408031	EL EL NINE	-0.063271455
-0.5918198	EM KAY NINE	-0.063271455
-0.55439126	GEE SEVENTY NINE	-0.063271455
-0.41240707	BEE SEVENTY NINE	-0.063271455
-0.5726001	ENTER TWENTY NINE	-0.063271455
-0.5845672	SEVEN TWENTY NINE	-0.063271455
-0.5238276	EIGHT THOUSAND NINE	-0.063271455
-0.9987799	<s> TWELVE NINE	-0.063271455
-0.66869605	<s> ELEVEN NINE	-0.063271455
-0.9959192	BEE EX AR	-0.063271455
-0.8774153	ZEE EYE AR	-0.063271455
-0.8774153	RUBOUT EYE AR	-0.063271455
-1.5452234	<s> GEE AR	-0.063271455
-1.2392764	YOU AR AR	-0.063271455
-1.1467006	AY AR AR	-0.22175556
-0.96287954	RUBOUT AR AR	-0.063271455
-0.96287954	EL AR AR	-0.063271455
-0.8436552	<s> EE AR	-0.22175556
-1.0047615	EYE EE AR	-0.14642078
-1.0058929	EE EE AR	-0.063271455
-0.5011782	WHY EE AR	-0.063271455
-0.95543444	AYCH EE AR	-0.063271455
-0.6406534	TEE EE AR	-0.063271455
-0.86429465	VEE EE AR	-0.10285921
-0.7055656	BEE EE AR	-0.10285921
-0.71028316	PEE EE AR	-0.063271455
-0.9634662	EFF EE AR	-0.063271455
-1.1179035	EL EE AR	-0.063271455
-0.99271804	KAY EE AR	-0.063271455
-0.72391516	EM EE AR	-0.116899766
-0.7325286	DEE EE AR	-0.063271455
-0.5407641	EYE YOU AR	-0.063271455
-1.3654326	DOUBLE YOU AR	-0.063271455
-0.77628994	AYCH YOU AR	-0.063271455
-0.25877878	BEE YOU AR	-0.91675586
-1.1421185	OH YOU AR	-0.063271455
-0.8710643	SEE WHY AR	-0.063271455
-1.4628181	<s> ERASE AR	-0.063271455
-0.8663856	EM AYCH AR	-0.063271455
-1.4411054	SEE AYCH AR	-0.14642078
-1.0864654	<s> TEE AR	-0.063271455
-1.1879481	EN TEE AR	-0.14642078
-1.2994342	ESS TEE AR	-0.063271455
-1.0179789	ERASE VEE AR	-0.063271455
-1.0814767	<s> AY AR	-0.063271455
-0.72155267	GEE AY AR	-0.17639312
-1.0304213	EE AY AR	-0.063271455
-0.7606561	YOU AY AR	-0.10285921
-0.8164071	AYCH AY AR	-0.13532396
-1.0003797	VEE AY AR	-0.063271455
-0.67212284	BEE AY AR	-0.063271455
-0.8674693	PEE AY AR	-0.063271455
-0.49968782	EFF AY AR	-0.063271455
-1.0485556	EL AY AR	-0.063271455
-0.70787364	KAY AY AR	-0.116899766
-0.7812603	EM AY AR	-0.17712203
-0.9662779	SEE AY AR	-0.063271455
-0.4904428	<s> BEE AR	-0.2349817
-0.8581199	WHY BEE AR	-0.063271455
-1.0168337	ESS PEE AR	-0.063271455
-1.2774547	<s> EFF AR	-0.063271455
-0.94046307	EE EFF AR	-0.063271455
-0.94046307	EFF EFF AR	-0.063271455
-0.83690715	AR ZEE AR	-0.063271455
-0.83690715	EL ZEE AR	-0.063271455
-1.1590456	<s> OH AR	-0.063271455
-0.95313877	YOU OH AR	-0.063271455
-0.5343727	WHY OH AR	-0.063271455
-1.1363881	AYCH OH AR	-0.063271455
-0.656029	BEE OH AR	-0.063271455
-0.95313877	PEE OH AR	-0.063271455
-0.56149995	EFF OH AR	-0.116899766
-1.002865	EL OH AR	-0.063271455
-0.723977	EM OH AR	-0.27330315
-0.96831805	SEE OH AR	-0.063271455
-1.4189006	<s> RUBOUT AR	-0.063271485
-1.0510879	CUE EN AR	-0.063271455
-1.1576445	<s> EL AR	-0.063271455
-1.2923199	YOU EL AR	-0.063271455
-1.3255064	AR KAY AR	-0.063271455
-1.1263269	<s> DEE AR	-0.063271455
-0.7114526	GEE DEE AR	-0.063271455
-0.6752201	EE DEE AR	-0.14642078
-0.81202227	WHY DEE AR	-0.063271455
-0.83058846	AY DEE AR	-0.063271455
-1.0068953	EN DEE AR	-0.063271455
-0.9784138	EL DEE AR	-0.063271455
-1.5955507	<s> SEE AR	-0.063271455
-1.0389559	GEE EYE EE	-0.063271455
-0.6483664	TEE EYE EE	-0.14642078
-1.051273	VEE EYE EE	-0.063271455
-0.952701	EFF EYE EE	-0.063271455
-1.1089334	EN EYE EE	-0.063271455
-0.8974246	EL EYE EE	-0.063271485
-1.475452	<s> GEE EE	-0.063271455
-0.5865423	EM GEE EE	-0.063271455
-1.0947963	<s> AR EE	-0.063271455
-0.505343	GEE AR EE	-0.063271455
-0.8807751	AR AR EE	-0.116899766
-0.9855092	EE AR EE	-0.116899766
-0.45879975	TEE AR EE	-0.10285921
-1.0530286	AY AR EE	-0.17639312
-0.96679026	BEE AR EE	-0.063271455
-1.070849	OH AR EE	-0.17639312
-0.81908256	RUBOUT AR EE	-0.063271455
-0.7895949	GEE EE EE	-0.063271455
-1.0848237	AR EE EE	-0.063271455
-1.2644736	TEE EE EE	-0.063271455
-1.1803524	BEE EE EE	-0.063271455
-0.7895949	CUE EE EE	-0.063271455
-1.3196808	EL EE EE	-0.063271455
-0.88973117	KAY EE EE	-0.14642078
-1.0974317	EM EE EE	-0.063271455
-1.3309112	DOUBLE YOU EE	-0.063271485
-0.5718889	CUE YOU EE	-0.063271455
-0.83129126	EN YOU EE	-0.3466943
-1.2058531	AY WHY EE	-0.063271455
-1.2662637	<s> ERASE EE	-0.063271455
-0.72925735	YOU AYCH EE	-0.063271455
-1.1717739	TEE AYCH EE	-0.063271455
-0.89869785	PEE AYCH EE	-0.063271455
-0.51280355	DEE AYCH EE	-0.063271455
-0.72925735	ESS AYCH EE	-0.063271455
-1.0820107	SEE AYCH EE	-0.063271455
-1.0334533	<s> TEE EE	-0.063271455
-0.6924836	AYCH TEE EE	-0.063271455
-0.7825848	TEE TEE EE	-0.14642078
-0.8181163	AY TEE EE	-0.063271455
-0.78824353	PEE TEE EE	-0.063271455
-0.8837201	OH TEE EE	-0.063271455
-0.78824353	KAY TEE EE	-0.063271455
-0.8151202	ESS TEE EE	-0.29110953
-0.54659253	<s> VEE EE	-0.17639312
-0.77337074	EYE VEE EE	-0.3466943
-0.5123148	EE VEE EE	-0.20227075
-0.6180128	AY VEE EE	-0.28870237
-0.68051374	RUBOUT VEE EE	-0.063271455
-1.5953891	AYCH AY EE	-0.14642078
-1.1614075	ZEE AY EE	-0.063271455
-0.7099516	<s> BEE EE	-0.08925836
-0.732691	WHY BEE EE	-0.063271455
-0.83896977	OH BEE EE	-0.14642078
-0.732691	EM BEE EE	-0.063271455
-0.51488626	SEE BEE EE	-0.063271455
-0.82345927	<s> CUE EE	-0.063271455
-0.82345927	ERASE CUE EE	-0.063271455
-0.5779049	VEE PEE EE	-0.063271455
-0.9845821	EM PEE EE	-0.063271455
-0.7890731	<s> EFF EE	-0.063271485
-0.5142435	EX EFF EE	-0.063271455
-0.73163027	EYE EFF EE	-0.063271455
-0.73163027	AYCH EFF EE	-0.063271455
-0.5142435	EN EFF EE	-0.063271455
-0.8856548	<s> ZEE EE	-0.063271455
-0.53639776	OH ZEE EE	-0.063271455
-0.7688068	EL ZEE EE	-0.063271455
-1.5432346	AYCH OH EE	-0.063271455
-1.5063915	<s> RUBOUT EE	-0.063271455
-0.45441204	<s> EN EE	-0.09464768
-1.1001828	EYE EN EE	-0.063271455
-0.6539898	AR EN EE	-0.063271455
-0.6869976	WHY EN EE	-0.063271455
-0.48664406	TEE EN EE	-0.063271455
-0.95970625	AY EN EE	-0.116899766
-0.6869976	PEE EN EE	-0.063271455
-1.0332208	OH EN EE	-0.063271455
-0.9360233	EN EN EE	-0.063271455
-0.48664406	DEE EN EE	-0.063271455
-0.78756756	<s> EL EE	-0.063271455
-0.5639051	GEE EL EE	-0.10285921
-0.71192163	AR EL EE	-0.063271455
-0.92511165	EE EL EE	-0.063271455
-0.7772509	WHY EL EE	-0.063271455
-0.62101966	AYCH EL EE	-0.063271455
-0.34138724	TEE EL EE	-0.063271455
-0.7720667	AY EL EE	-0.116899766
-0.4847805	PEE EL EE	-0.22175556
-0.7772509	OH EL EE	-0.063271455
-0.7786486	EL EL EE	-0.116899766
-0.4438973	DEE EL EE	-0.063271455
-0.62101966	ESS EL EE	-0.063271455
-0.80487883	<s> KAY EE	-0.063271455
-0.96903145	AR KAY EE	-0.063271455
-0.4986056	YOU KAY EE	-0.063271455
-0.4986056	EN KAY EE	-0.063271455
-0.92132324	ESS KAY EE	-0.063271455
-0.98241377	SEE KAY EE	-0.063271455
-1.2349452	<s> EM EE	-0.063271455
-1.0953959	AY EM EE	-0.14642078
-0.8475002	BEE EM EE	-0.063271455
-0.98909557	OH EM EE	-0.14642078
-0.8475002	EM EM EE	-0.063271455
-0.7002082	<s> JAY EE	-0.09464768
-1.1762588	<s> DEE EE	-0.063271455
-0.9096937	EYE DEE EE	-0.063271455
-0.7366705	GEE DEE EE	-0.063271455
-1.0682514	AY DEE EE	-0.063271455
-1.0541267	EN DEE EE	-0.063271455
-1.0241003	EL DEE EE	-0.063271455
-1.2915949	<s> ESS EE	-0.063271455
-1.0548196	YOU ESS EE	-0.063271455
-0.5825214	OH ESS EE	-0.116899766
-1.0067594	<s> SEE EE	-0.116899766
-1.2113532	AY SEE EE	-0.14642078
-1.0171101	EN SEE EE	-0.063271455
-0.5847715	AYCH EX DOUBLE	-0.063271455
-1.4985747	<s> GEE DOUBLE	-0.063271455
-0.86438704	ERASE GEE DOUBLE	-0.063271455
-1.5494655	OH AR DOUBLE	-0.063271455
-1.4000974	DEE AR DOUBLE	-0.063271455
-1.3338163	<s> EE DOUBLE	-0.063271455
-1.2026837	EYE EE DOUBLE	-0.063271455
-1.1150185	AR EE DOUBLE	-0.3466943
-1.1329565	AYCH EE DOUBLE	-0.063271455
-1.257666	VEE EE DOUBLE	-0.063271455
-1.3199487	EN EE DOUBLE	-0.14642078
-1.1908473	EL EE DOUBLE	-0.14642078
-1.867593	DOUBLE YOU DOUBLE	-0.063271455
-1.0056521	<s> WHY DOUBLE	-0.063271455
-0.8573658	VEE WHY DOUBLE	-0.063271455
-1.4797988	<s> ERASE DOUBLE	-0.063271455
-1.0425291	RUBOUT AYCH DOUBLE	-0.063271455
-0.886325	CUE TEE DOUBLE	-0.063271455
-1.2377435	AYCH AY DOUBLE	-0.14642078
-1.2529035	OH AY DOUBLE	-0.063271455
-1.0059333	EYE CUE DOUBLE	-0.063271455
-0.589741	DEE ZEE DOUBLE	-0.063271455
-1.1150149	AR OH DOUBLE	-0.14642078
-1.2923487	AYCH OH DOUBLE	-0.063271455
-1.1686567	TEE OH DOUBLE	-0.063271455
-1.0488821	EN OH DOUBLE	-0.063271455
-1.1118013	EL OH DOUBLE	-0.063271455
-0.9330785	DEE OH DOUBLE	-0.22175556
-1.5342461	<s> RUBOUT DOUBLE	-0.14642078
-1.2319682	<s> KAY DOUBLE	-0.063271455
-0.56395227	ZEE KAY DOUBLE	-0.063271455
-0.8844312	SEE KAY DOUBLE	-0.14642078
-0.86163557	GEE JAY DOUBLE	-0.063271455
-0.9595085	EYE DEE DOUBLE	-0.063271455
-1.0233897	AR DEE DOUBLE	-0.063271455
-1.0233897	EE DEE DOUBLE	-0.063271455
-0.7694775	YOU DEE DOUBLE	-0.063271455
-0.5367903	EFF DEE DOUBLE	-0.063271455
-1.6857989	<s> ESS DOUBLE	-0.063271455
-1.026758	EL ESS DOUBLE	-0.063271455
-0.59699243	KAY SEE DOUBLE	-0.063271455
-1.3112105	GEE EYE YOU	-0.063271455
-0.8768611	RUBOUT GEE YOU	-0.063271455
-1.532078	<s> AR YOU	-0.063271455
-1.2957878	BEE AR YOU	-0.063271455
-0.87224233	RUBOUT EE YOU	-0.063271455
-1.6308106	EL EE YOU	-0.063271455
-1.2798935	DEE EE YOU	-0.063271455
-0.0051012146	<s> DOUBLE YOU	-0.18922421
-0.019089164	EX DOUBLE YOU	-0.063271455
-0.016178686	GEE DOUBLE YOU	-0.063271455
-0.016178686	AR DOUBLE YOU	-0.063271455
-0.0065697553	EE DOUBLE YOU	-0.15047354
-0.019089164	YOU DOUBLE YOU	-0.063271455
-0.016178686	WHY DOUBLE YOU	-0.063271455
-0.019089164	ERASE DOUBLE YOU	-0.063271455
-0.019089164	AYCH DOUBLE YOU	-0.063271455
-0.019089164	TEE DOUBLE YOU	-0.063271455
-0.016178686	AY DOUBLE YOU	-0.063271485
-0.019089164	CUE DOUBLE YOU	-0.063271455
-0.019089164	ZEE DOUBLE YOU	-0.063271455
-0.007674442	OH DOUBLE YOU	-0.16226748
-0.019089164	RUBOUT DOUBLE YOU	-0.063271455
-0.015486996	KAY DOUBLE YOU	-0.063271455
-0.019089164	JAY DOUBLE YOU	-0.063271455
-0.009225782	DEE DOUBLE YOU	-0.1284685
-0.016178686	ESS DOUBLE YOU	-0.063271455
-0.019089164	SEE DOUBLE YOU	-0.063271455
-0.8545995	EX WHY YOU	-0.063271455
-1.1075249	EL WHY YOU	-0.063271455
-0.59127927	EE AYCH YOU	-0.063271455
-0.59127927	AYCH AYCH YOU	-0.063271455
-0.8907017	KAY AY YOU	-0.063271455
-1.5589129	EM AY YOU	-0.063271455
-1.1023166	<s> BEE YOU	-0.116899766
-0.90765625	AR BEE YOU	-0.063271455
-0.842307	YOU BEE YOU	-0.063271455
-0.90765625	EN BEE YOU	-0.063271455
-0.53237915	ESS BEE YOU	-1.3356988
-0.8543134	YOU CUE YOU	-0.063271455
-1.986448	<s> PEE YOU	-0.063271455
-0.98997337	EN PEE YOU	-0.063271455
-0.8612075	EE ZEE YOU	-0.063271455
-1.2237786	<s> OH YOU	-0.063271455
-0.9976646	YOU OH YOU	-0.063271455
-1.2062519	AYCH OH YOU	-0.063271455
-0.67457587	BEE OH YOU	-0.063271455
-0.9976646	PEE OH YOU	-0.063271455
-1.0531164	EL OH YOU	-0.063271455
-1.1617568	DEE OH YOU	-0.063271455
-1.2797996	ESS OH YOU	-0.063271455
-1.1333994	<s> RUBOUT YOU	-0.09464768
-1.6036942	EE EN YOU	-0.3466943
-1.6322386	AY EN YOU	-0.063271455
-1.1586821	<s> EL YOU	-0.063271455
-1.5091258	AY EL YOU	-0.063271455
-1.3363632	<s> KAY YOU	-0.063271455
-1.1870097	ESS KAY YOU	-0.063271455
-0.8154032	VEE EM YOU	-0.063271455
-0.8154032	EL EM YOU	-0.063271455
-0.56307393	SEE EM YOU	-0.063271455
-1.4768859	<s> JAY YOU	-0.063271455
-0.9737338	RUBOUT JAY YOU	-0.063271455
-1.1503233	OH DEE YOU	-0.063271455
-1.4256029	<s> ESS YOU	-0.063271455
-1.4086221	AY SEE YOU	-0.063271455
-0.9579427	EFF EX WHY	-0.063271455
-0.8229264	KAY EX WHY	-0.063271455
-1.160351	EFF EYE WHY	-0.063271455
-1.3051982	YOU AR WHY	-0.116899766
-1.3353415	AY AR WHY	-0.063271485
-1.4283286	OH AR WHY	-0.063271455
-1.2635851	EN EE WHY	-0.14642078
-1.2111653	EL EE WHY	-0.116899766
-1.0206285	EE YOU WHY	-0.063271455
-1.7600857	DOUBLE YOU WHY	-0.063271485
-0.593324	RUBOUT WHY WHY	-0.063271455
-1.4628181	<s> ERASE WHY	-0.063271455
-1.3925071	TEE AYCH WHY	-0.063271455
-1.0516614	PEE AYCH WHY	-0.063271455
-1.3167616	SEE AYCH WHY	-0.063271455
-0.98666036	EYE VEE WHY	-0.063271455
-0.98666036	ERASE VEE WHY	-0.063271455
-1.3994682	<s> AY WHY	-0.063271455
-1.2208517	YOU AY WHY	-0.063271455
-1.3723358	AYCH AY WHY	-0.063271455
-0.83159906	TEE AY WHY	-0.063271455
-0.83159906	ESS AY WHY	-0.063271455
-1.7833366	<s> BEE WHY	-0.063271455
-0.5838269	GEE CUE WHY	-0.063271455
-1.1185442	EE PEE WHY	-0.063271455
-1.413824	<s> EFF WHY	-0.063271455
-1.0049477	RUBOUT EFF WHY	-0.063271455
-0.5875493	ERASE ZEE WHY	-0.063271455
-1.5508047	AYCH OH WHY	-0.063271455
-1.658153	<s> RUBOUT WHY	-0.063271455
-0.602778	VEE EN WHY	-0.063271455
-0.96525717	AR EL WHY	-0.063271455
-1.3966546	EL EL WHY	-0.14642078
-0.57972556	JAY EL WHY	-0.063271455
-1.1850834	ESS KAY WHY	-0.063271455
-1.2919102	SEE KAY WHY	-0.063271455
-0.58699435	ERASE EM WHY	-0.063271455
-1.4118354	AY EM WHY	-0.063271455
-1.5090489	<s> DEE WHY	-0.063271455
-0.9903476	EN DEE WHY	-0.14642078
-1.3518785	AY SEE WHY	-0.063271455
-1.0059211	RUBOUT SEE WHY	-0.063271455
-0.539369	NINE SIXTY EIGHT	-0.063271455
-0.7738931	FOUR SIXTY EIGHT	-0.063271455
-0.980984	THREE SIXTY EIGHT	-0.063271455
-0.8923235	SEVEN SIXTY EIGHT	-0.063271455
-1.0669396	ONE ONE EIGHT	-0.063271455
-1.083202	TWO ONE EIGHT	-0.063271485
-1.1955976	FIVE ONE EIGHT	-0.063271455
-1.1833744	FOUR ONE EIGHT	-0.063271455
-0.5427665	BEE ONE EIGHT	-0.063271455
-1.028029	SEVEN ONE EIGHT	-0.063271455
-0.77973974	DEE ONE EIGHT	-0.063271455
-1.0258253	ONE TWO EIGHT	-0.063271455
-0.52501494	EE TWO EIGHT	-0.063271455
-1.0889425	EIGHT TWO EIGHT	-0.063271455
-1.2196829	FIVE TWO EIGHT	-0.063271455
-1.0482998	SIX TWO EIGHT	-0.063271455
-0.8127653	THREE TWO EIGHT	-0.14642078
-0.52501494	CUE TWO EIGHT	-0.063271455
-1.0482998	OH TWO EIGHT	-0.063271455
-0.74954504	KAY TWO EIGHT	-0.063271455
-0.5632647	SIX EIGHTY EIGHT	-0.063271455
-1.4023173	ONE NINE EIGHT	-0.063271455
-1.1278709	ENTER NINE EIGHT	-0.063271455
-0.8878694	PEE EE EIGHT	-0.063271455
-1.3627374	EFF EE EIGHT	-0.063271455
-1.5830193	DOUBLE YOU EIGHT	-0.14642078
-1.088419	YOU WHY EIGHT	-0.063271455
-0.58111894	CUE WHY EIGHT	-0.063271455
-0.88775927	<s> EIGHT EIGHT	-0.063271455
-1.2644236	ONE EIGHT EIGHT	-0.063271455
-0.8240574	NINE EIGHT EIGHT	-0.063271455
-0.939535	SEVEN EIGHT EIGHT	-0.063271455
-1.2050881	TWO FIVE EIGHT	-0.063271455
-1.2223104	EIGHT FIVE EIGHT	-0.063271455
-1.0755192	SIX FIVE EIGHT	-0.063271455
-1.116992	FOUR FIVE EIGHT	-0.063271455
-1.0755192	SEVEN FIVE EIGHT	-0.063271455
-0.82825994	<s> SIX EIGHT	-0.10285921
-0.5414851	TWO SIX EIGHT	-0.21742034
-1.0856967	EIGHT SIX EIGHT	-0.063271455
-1.1771704	SIX SIX EIGHT	-0.063271455
-1.0472727	THREE SIX EIGHT	-0.063271455
-0.5449275	ZEE SIX EIGHT	-0.063271455
-1.1814327	ONE ZERO EIGHT	-0.063271455
-1.2982525	<s> FOUR EIGHT	-0.063271455
-1.1036489	ONE FOUR EIGHT	-0.063271455
-0.77212596	ZERO FOUR EIGHT	-0.063271455
-1.1740139	FOUR FOUR EIGHT	-0.063271455
-1.0278671	THREE FOUR EIGHT	-0.063271455
-0.9783527	SEVEN FOUR EIGHT	-0.063271455
-1.0881828	<s> ENTER EIGHT	-0.063271455
-0.8740268	<s> FIFTY EIGHT	-0.063271455
-0.70717055	ONE FIFTY EIGHT	-0.063271455
-0.6262971	NINE FIFTY EIGHT	-0.063271455
-0.6262971	CUE FIFTY EIGHT	-0.063271455
-0.4474001	TWELVE FIFTY EIGHT	-0.063271455
-1.0862294	TWO THREE EIGHT	-0.063271455
-1.0958838	EIGHT THREE EIGHT	-0.063271455
-1.1230413	SIX THREE EIGHT	-0.063271455
-1.0127854	FOUR THREE EIGHT	-0.063271455
-1.1065509	THREE THREE EIGHT	-0.063271455
-0.8782798	OH THREE EIGHT	-0.063271455
-0.8406296	BEE FORTY EIGHT	-0.063271455
-1.0219781	OH BEE EIGHT	-0.063271455
-0.5734131	EFF THIRTY EIGHT	-0.063271455
-0.83406496	SEVEN THIRTY EIGHT	-0.063271455
-1.0082623	EN PEE EIGHT	-0.063271455
-1.0196822	EFF EFF EIGHT	-0.063271455
-1.1879567	TWO OH EIGHT	-0.063271455
-0.9339196	EIGHT OH EIGHT	-0.063271455
-0.81675273	SIX OH EIGHT	-0.063271455
-1.085462	FOUR OH EIGHT	-0.063271455
-1.0161549	THREE OH EIGHT	-0.063271455
-0.81675273	SEVEN OH EIGHT	-0.14642078
-0.5573336	KAY OH EIGHT	-0.063271455
-1.1139942	TWO SEVEN EIGHT	-0.063271455
-1.0220864	EIGHT SEVEN EIGHT	-0.063271455
-0.7151674	FIVE SEVEN EIGHT	-0.063271455
-1.0354532	SIX SEVEN EIGHT	-0.063271455
-0.5246508	AYCH SEVEN EIGHT	-0.063271455
-0.9892774	THREE SEVEN EIGHT	-0.063271455
-0.7489346	BEE SEVEN EIGHT	-0.063271455
-0.8672329	JAY KAY EIGHT	-0.063271455
-0.86878747	VEE EM EIGHT	-0.063271455
-0.9789676	ENTER SEVENTY EIGHT	-0.063271455
-0.7071806	FOUR TWENTY EIGHT	-0.063271455
-0.80664396	THREE TWENTY EIGHT	-0.063271455
-0.49925858	TEN TWENTY EIGHT	-0.063271455
-0.49925858	NINETEEN TWENTY EIGHT	-0.063271455
-0.5317408	ZEE NINETY EIGHT	-0.063271455
-0.47287062	SIX THOUSAND EIGHT	-0.063271455
-0.7546677	FOUR THOUSAND EIGHT	-0.063271455
-0.8470319	YOU EX FIVE	-0.063271455
-1.0466614	PEE EYE FIVE	-0.063271455
-0.5900153	THIRTY SIXTY FIVE	-0.063271455
-1.1524029	NINETEEN SIXTY FIVE	-0.22175556
-0.14456418	<s> ONE FIVE	-0.9250609
-1.0022401	ONE ONE FIVE	-0.063271455
-1.0226645	TWO ONE FIVE	-0.063271455
-1.116995	FIVE ONE FIVE	-0.063271455
-0.8430669	SIX ONE FIVE	-0.063271455
-0.53790414	ZERO ONE FIVE	-0.063271455
-0.98309445	OH ONE FIVE	-0.063271455
-0.7451427	JAY ONE FIVE	-0.063271455
-0.5223844	ESS ONE FIVE	-0.063271455
-1.4064797	<s> TWO FIVE	-0.063271455
-0.7485883	ONE TWO FIVE	-0.23046996
-1.3039804	TWO TWO FIVE	-0.063271455
-1.3134685	FIVE TWO FIVE	-0.063271455
-1.1195525	SIX TWO FIVE	-0.063271455
-0.9845813	ENTER TWO FIVE	-0.063271455
-0.9230892	EFF TWO FIVE	-0.063271455
-0.5646306	FOURTEEN EIGHTY FIVE	-0.063271455
-0.9140207	ONE NINE FIVE	-0.063271455
-1.0305452	FIVE NINE FIVE	-0.063271455
-1.0421531	SIX NINE FIVE	-0.063271455
-0.96607417	FOUR NINE FIVE	-0.063271455
-0.9807035	THREE NINE FIVE	-0.063271455
-1.5682926	DOUBLE YOU FIVE	-0.063271455
-0.83129126	PEE YOU FIVE	-0.063271455
-0.96939826	EM YOU FIVE	-0.063271455
-0.98119044	<s> EIGHT FIVE	-0.063271455
-1.0609676	TWO EIGHT FIVE	-0.063271455
-0.71301913	WHY EIGHT FIVE	-0.063271455
-0.94617796	FIVE EIGHT FIVE	-0.063271455
-1.0977881	SIX EIGHT FIVE	-0.063271455
-1.0097611	FOUR EIGHT FIVE	-0.063271455
-1.0205284	OH EIGHT FIVE	-0.063271455
-1.0203125	SEVEN EIGHT FIVE	-0.063271455
-0.5028666	KAY EIGHT FIVE	-0.063271455
-1.4288821	ONE FIVE FIVE	-0.063271455
-1.2698286	TWO FIVE FIVE	-0.063271455
-1.2904055	EIGHT FIVE FIVE	-0.063271455
-1.0606782	FIVE FIVE FIVE	-0.063271455
-1.4605008	<s> SIX FIVE	-0.063271455
-0.9859576	SIX SIX FIVE	-0.063271455
-1.188092	ZERO SIX FIVE	-0.063271455
-1.2184688	FOUR SIX FIVE	-0.063271455
-1.1849749	ONE ZERO FIVE	-0.063271455
-1.5421919	<s> FOUR FIVE	-0.063271455
-0.9233282	YOU FOUR FIVE	-0.063271455
-1.0714033	FIVE FOUR FIVE	-0.063271455
-1.0138246	SIX FOUR FIVE	-0.063271455
-0.9233282	OH FOUR FIVE	-0.063271455
-1.3809049	<s> ENTER FIVE	-0.063271455
-0.48408026	SIXTY FIFTY FIVE	-0.063271455
-0.831903	ENTER FIFTY FIVE	-0.063271455
-0.48408026	VEE FIFTY FIVE	-0.063271455
-0.48408026	SEVEN FIFTY FIVE	-0.063271455
-1.1384839	TWO THREE FIVE	-0.063271455
-0.6655207	NINE THREE FIVE	-0.063271455
-0.7895314	EE THREE FIVE	-0.063271455
-1.1523936	EIGHT THREE FIVE	-0.063271455
-1.1621584	THREE THREE FIVE	-0.063271455
-0.45479214	FIVE FORTY FIVE	-0.063271455
-0.45479214	SIX FORTY FIVE	-0.063271455
-0.637506	THREE FORTY FIVE	-0.063271455
-0.45479214	PEE FORTY FIVE	-0.063271455
-1.1299013	EN BEE FIVE	-0.063271455
-0.8500145	JAY CUE FIVE	-0.063271455
-0.4668049	EE THIRTY FIVE	-0.063271455
-0.6559369	FIVE THIRTY FIVE	-0.063271455
-0.6559369	ENTER THIRTY FIVE	-0.063271455
-0.4668049	ESS THIRTY FIVE	-0.063271455
-0.4668049	SEE THIRTY FIVE	-0.063271455
-1.0010854	YOU EFF FIVE	-0.063271455
-0.8541152	KAY EFF FIVE	-0.063271455
-1.3838702	ONE OH FIVE	-0.063271455
-0.9483614	TWO OH FIVE	-0.14642078
-1.2345188	FIVE OH FIVE	-0.063271455
-1.1949335	SIX OH FIVE	-0.063271455
-1.1527805	EFF OH FIVE	-0.063271455
-1.1608256	EIGHT SEVEN FIVE	-0.063271455
-1.2346982	FOUR SEVEN FIVE	-0.063271455
-0.7684845	THREE SEVEN FIVE	-0.063271455
-0.9677572	SEVEN SEVEN FIVE	-0.063271455
-1.0157231	SEVEN TWENTY FIVE	-0.063271455
-0.53341055	OH NINETY FIVE	-0.063271455
-1.3978314	AY SEE FIVE	-0.063271455
-1.0941627	ENTER SIXTY SIX	-0.063271455
-0.5633134	AND SIXTY SIX	-0.063271455
-1.4796166	NINETEEN SIXTY SIX	-0.063271455
-1.872686	<s> ONE SIX	-0.063271455
-1.1059898	ONE ONE SIX	-0.063271455
-1.1194458	TWO ONE SIX	-0.063271455
-1.1489011	EIGHT ONE SIX	-0.063271455
-1.2302619	FOUR ONE SIX	-0.063271455
-1.0635916	SEVEN ONE SIX	-0.063271455
-0.45764434	<s> TWO SIX	-0.6988768
-1.2018476	ONE TWO SIX	-0.14642078
-1.069866	TWO TWO SIX	-0.063271455
-0.71155494	EIGHT TWO SIX	-0.063271485
-1.0493664	SIX TWO SIX	-0.063271455
-1.0916646	FOUR TWO SIX	-0.063271455
-0.9298579	ENTER TWO SIX	-0.063271455
-1.0493664	OH TWO SIX	-0.063271455
-0.7501048	DEE TWO SIX	-0.063271455
-0.39458713	GEE EIGHTY SIX	-0.063271455
-0.39458713	YOU EIGHTY SIX	-0.063271455
-0.39458713	THREE EIGHTY SIX	-0.063271455
-0.54884875	AND EIGHTY SIX	-0.14642078
-0.8790649	ONE NINE SIX	-0.116899766
-0.7453779	GEE NINE SIX	-0.063271455
-1.052636	TWO NINE SIX	-0.063271455
-0.71226853	EIGHT NINE SIX	-0.14642078
-0.98347694	FIVE NINE SIX	-0.063271455
-0.85524094	OH NINE SIX	-0.063271455
-1.2048074	ONE EIGHT SIX	-0.063271455
-0.8000263	WHY EIGHT SIX	-0.063271455
-1.0800192	SIX EIGHT SIX	-0.063271455
-1.1853942	FOUR EIGHT SIX	-0.063271455
-1.2048074	OH EIGHT SIX	-0.063271455
-1.0381697	<s> FIVE SIX	-0.063271485
-1.2377084	ONE FIVE SIX	-0.063271455
-1.0462762	EIGHT FIVE SIX	-0.063271455
-0.8289266	<s> SIX SIX	-0.10285921
-1.3443891	TWO SIX SIX	-0.063271455
-0.84953254	NINE SIX SIX	-0.063271455
-1.1277066	FIVE SIX SIX	-0.063271455
-1.0971919	ZERO SIX SIX	-0.063271455
-0.9059406	SEVEN SIX SIX	-0.063271455
-0.7228847	ONE ZERO SIX	-0.063271455
-0.7634742	TWO ZERO SIX	-0.063271455
-0.71946657	EIGHT ZERO SIX	-0.063271455
-0.71946657	FIVE ZERO SIX	-0.063271455
-0.4178156	ZERO ZERO SIX	-0.063271455
-0.6547801	THREE ZERO SIX	-0.063271455
-1.153583	ONE FOUR SIX	-0.063271455
-1.015673	NINE FOUR SIX	-0.063271455
-1.060656	EIGHT FOUR SIX	-0.116899766
-0.74805796	FIVE FOUR SIX	-0.063271455
-1.264095	SIX FOUR SIX	-0.063271455
-1.0249586	<s> ENTER SIX	-0.116159506
-1.3135258	GEE AY SIX	-0.063271455
-1.5188144	EE AY SIX	-0.063271455
-0.6554464	<s> FIFTY SIX	-0.063271485
-0.7756842	ONE FIFTY SIX	-0.063271455
-0.48372775	FOUR FIFTY SIX	-0.063271455
-0.68238086	CUE FIFTY SIX	-0.063271455
-1.1160064	<s> THREE SIX	-0.063271455
-1.1041046	FOUR THREE SIX	-0.063271455
-1.2209564	THREE THREE SIX	-0.063271455
-0.9478326	SEVEN THREE SIX	-0.063271455
-0.5778819	OH FORTY SIX	-0.063271455
-0.5931268	PEE BEE SIX	-0.063271455
-0.84894645	YOU CUE SIX	-0.063271455
-0.5741751	THREE THIRTY SIX	-0.063271455
-0.5741751	SEVENTEEN THIRTY SIX	-0.063271455
-0.86917865	KAY EFF SIX	-0.063271455
-0.58536863	BEE ZEE SIX	-0.063271455
-0.98905104	<s> OH SIX	-0.063271455
-1.2903643	ONE OH SIX	-0.063271455
-1.1900871	TWO OH SIX	-0.22175556
-1.1632621	FIVE OH SIX	-0.063271455
-1.1298928	SIX OH SIX	-0.063271455
-1.0176438	THREE OH SIX	-0.063271455
-1.1298928	SEVEN OH SIX	-0.063271455
-0.60142106	EX EN SIX	-0.063271455
-1.3574665	TWO SEVEN SIX	-0.063271455
-0.8471911	NINE SEVEN SIX	-0.063271455
-1.1709948	OH SEVEN SIX	-0.063271455
-1.275597	AR KAY SIX	-0.063271455
-0.8540994	CUE KAY SIX	-0.063271455
-0.5764736	EE SEVENTY SIX	-0.063271455
-0.7084258	TWO TWENTY SIX	-0.063271455
-0.5000297	YOU TWENTY SIX	-0.063271455
-0.5000297	FIVE TWENTY SIX	-0.063271455
-0.5000297	SIX TWENTY SIX	-0.063271455
-0.48748407	ONE NINETY SIX	-0.063271455
-0.48748407	KAY NINETY SIX	-0.063271455
-1.0902969	<s> EX AYCH	-0.063271455
-0.6333588	EYE GEE AYCH	-0.063271455
-0.96659684	AR GEE AYCH	-1.312836
-0.74399686	ERASE GEE AYCH	-0.063271455
-0.521698	PEE GEE AYCH	-0.22175556
-1.0258483	EN GEE AYCH	-0.063271455
-1.5642126	<s> AR AYCH	-0.063271455
-1.6626811	EN EE AYCH	-0.063271455
-1.6032534	DOUBLE YOU AYCH	-0.063271455
-0.59282064	PEE WHY AYCH	-0.063271455
-0.59752333	AR AYCH AYCH	-0.063271455
-0.7512166	<s> TEE AYCH	-0.116899766
-0.6944359	EYE TEE AYCH	-0.063271455
-0.8523332	AR TEE AYCH	-0.063271455
-0.6392967	YOU TEE AYCH	-0.063271455
-0.47596365	FIVE TEE AYCH	-0.063271455
-0.9342297	TEE TEE AYCH	-0.063271455
-0.992635	AY TEE AYCH	-0.14642078
-0.7606051	EFF TEE AYCH	-0.063271455
-0.8495471	OH TEE AYCH	-0.063271455
-1.4333392	AYCH AY AYCH	-0.063271455
-1.3054488	VEE AY AYCH	-0.063271455
-1.0905061	PEE AY AYCH	-0.063271455
-1.403126	EM AY AYCH	-0.063271455
-0.59454465	AY BEE AYCH	-0.063271455
-1.6073322	<s> PEE AYCH	-0.063271455
-0.9868805	EE PEE AYCH	-0.14642078
-0.78695047	OH PEE AYCH	-0.063271455
-0.58528316	ERASE EFF AYCH	-0.063271455
-1.0036564	OH EFF AYCH	-0.063271455
-0.5870031	CUE ZEE AYCH	-0.063271455
-1.1299205	RUBOUT OH AYCH	-0.063271455
-1.3712912	EM OH AYCH	-0.063271455
-1.2069558	JAY OH AYCH	-0.063271455
-1.415761	<s> RUBOUT AYCH	-0.063271485
-1.5087441	<s> EN AYCH	-0.063271455
-1.0354002	CUE EN AYCH	-0.063271455
-1.548347	AY EL AYCH	-0.063271455
-0.856971	OH KAY AYCH	-0.063271455
-1.0050967	EL KAY AYCH	-0.063271455
-0.5865065	WHY EM AYCH	-0.063271455
-0.8582308	DEE EM AYCH	-0.063271455
-1.4701272	<s> JAY AYCH	-0.063271455
-0.8323511	GEE JAY AYCH	-0.063271455
-1.4316496	AY DEE AYCH	-0.063271455
-1.6676799	<s> ESS AYCH	-0.063271455
-1.1245005	EN ESS AYCH	-0.063271455
-0.8157916	<s> SEE AYCH	-0.116899766
-0.6291083	EYE SEE AYCH	-0.23046996
-0.3580659	AR SEE AYCH	-0.063271455
-0.659291	EE SEE AYCH	-0.063271455
-0.7472383	RUBOUT SEE AYCH	-0.063271455
-0.659291	JAY SEE AYCH	-0.063271455
-0.46897185	SEE SEE AYCH	-0.063271455
-0.2331331	OH APOSTROPHE AYCH	-0.063271455
-0.97274023	EFF EX ZERO	-0.063271455
-0.83372027	KAY EX ZERO	-0.063271455
-1.8353719	<s> ONE ZERO	-0.063271455
-1.296517	SIX ONE ZERO	-0.063271455
-1.3549047	FOUR ONE ZERO	-0.063271455
-1.1533622	SEVEN ONE ZERO	-0.063271455
-1.3202372	TWO TWO ZERO	-0.063271455
-1.610826	FIVE TWO ZERO	-0.063271455
-1.2043048	SEVEN TWO ZERO	-0.063271455
-1.1694293	FOUR NINE ZERO	-0.063271455
-1.2581909	FOUR EIGHT ZERO	-0.063271455
-1.2110274	ENTER EIGHT ZERO	-0.063271455
-1.220193	THREE EIGHT ZERO	-0.063271455
-1.2650862	SEVEN EIGHT ZERO	-0.063271455
-1.4464569	ONE FIVE ZERO	-0.063271455
-0.96916765	YOU FIVE ZERO	-0.063271455
-1.0591257	ENTER FIVE ZERO	-0.063271455
-1.1727195	THREE FIVE ZERO	-0.063271455
-1.7657038	<s> SIX ZERO	-0.063271455
-1.2006671	ONE ZERO ZERO	-0.063271455
-1.568476	SIX FOUR ZERO	-0.063271455
-1.8488456	<s> ENTER ZERO	-0.063271455
-0.6002813	EX THREE ZERO	-0.063271455
-1.4006299	EIGHT THREE ZERO	-0.063271455
-0.8553511	NINE SEVEN ZERO	-0.063271455
-0.5849638	AR SEVEN ZERO	-0.063271455
-1.2348287	EIGHT SEVEN ZERO	-0.063271455
-1.4384172	EYE EL ZERO	-0.063271455
-0.8900963	EX ESS ZERO	-0.063271455
-0.9864956	EFF EX FOUR	-0.063271455
-1.157554	KAY EYE FOUR	-0.063271455
-1.0177261	ENTER SIXTY FOUR	-0.063271455
-0.65458703	THREE SIXTY FOUR	-0.063271455
-0.8923235	SEVEN SIXTY FOUR	-0.063271455
-0.8923235	FOURTEEN SIXTY FOUR	-0.063271455
-1.7184316	<s> ONE FOUR	-0.14642078
-1.312793	TWO ONE FOUR	-0.063271455
-0.9252065	NINE ONE FOUR	-0.063271455
-1.2424191	FIVE ONE FOUR	-0.116899766
-1.1824167	SIX ONE FOUR	-0.063271455
-1.0738883	OH ONE FOUR	-0.063271455
-1.1335576	<s> TWO FOUR	-0.063271455
-0.5150915	EX TWO FOUR	-0.063271455
-1.0006076	ONE TWO FOUR	-0.17639312
-1.1680323	TWO TWO FOUR	-0.063271455
-0.73303	YOU TWO FOUR	-0.063271455
-0.8351556	EIGHT TWO FOUR	-0.063271455
-0.9446329	FIVE TWO FOUR	-0.116899766
-1.0173695	SIX TWO FOUR	-0.063271455
-1.0299973	THREE TWO FOUR	-0.063271455
-0.94843894	SEVEN TWO FOUR	-0.063271455
-0.5632647	KAY EIGHTY FOUR	-0.063271455
-1.1110322	<s> NINE FOUR	-0.063271455
-1.0345863	NINE NINE FOUR	-0.063271455
-0.55549216	AYCH NINE FOUR	-0.063271455
-0.55549216	EL NINE FOUR	-0.063271455
-0.86867917	GEE EE FOUR	-0.063271455
-1.6132973	EL EE FOUR	-0.063271455
-1.2717365	DEE EE FOUR	-0.063271455
-1.2700579	OH YOU FOUR	-0.063271455
-0.82869864	KAY YOU FOUR	-0.063271455
-0.9658391	EM YOU FOUR	-0.063271455
-1.0159197	<s> EIGHT FOUR	-0.063271455
-1.0579066	ONE EIGHT FOUR	-0.063271455
-0.7533081	EIGHT EIGHT FOUR	-0.063271455
-1.1387156	SIX EIGHT FOUR	-0.1284685
-0.82814807	FOUR EIGHT FOUR	-0.063271455
-1.0036261	ENTER EIGHT FOUR	-0.063271455
-1.0557986	SEVEN EIGHT FOUR	-0.063271455
-0.51461446	EM EIGHT FOUR	-0.063271455
-1.3502322	ONE FIVE FOUR	-0.063271455
-1.2050881	TWO FIVE FOUR	-0.063271455
-1.1063149	NINE FIVE FOUR	-0.063271455
-1.2223104	EIGHT FIVE FOUR	-0.063271455
-1.1063149	THREE FIVE FOUR	-0.063271455
-1.1254171	<s> SIX FOUR	-0.063271455
-0.97898126	NINE SIX FOUR	-0.063271455
-0.76487285	FIVE SIX FOUR	-0.063271455
-1.0167887	SIX SIX FOUR	-0.063271455
-0.9580359	ZERO SIX FOUR	-0.063271455
-0.9655477	FOUR SIX FOUR	-0.063271455
-0.9307311	ENTER SIX FOUR	-0.063271455
-0.8028205	AY SIX FOUR	-0.063271455
-0.91825616	THREE SIX FOUR	-0.063271455
-0.7041371	KAY SIX FOUR	-0.063271455
-0.59534746	ZEE AYCH FOUR	-0.063271455
-0.7130342	FIVE ZERO FOUR	-0.063271455
-0.99309176	<s> FOUR FOUR	-0.10285921
-1.2627057	EIGHT FOUR FOUR	-0.063271455
-1.2060999	SIX FOUR FOUR	-0.063271455
-1.1740139	FOUR FOUR FOUR	-0.063271455
-0.7271836	THREE FOUR FOUR	-0.14642078
-0.89000374	OH FOUR FOUR	-0.14642078
-1.2572114	<s> ENTER FOUR	-0.09464768
-1.2898769	EN TEE FOUR	-0.063271455
-1.0942366	ENTER FIFTY FOUR	-0.14642078
-1.2292118	<s> THREE FOUR	-0.063271455
-0.75703263	FIVE THREE FOUR	-0.063271485
-0.42613292	NINETEEN FORTY FOUR	-0.14642078
-0.58703506	TEE PEE FOUR	-0.063271455
-1.4949292	ONE OH FOUR	-0.063271455
-1.3141181	FIVE OH FOUR	-0.14642078
-1.353692	DEE OH FOUR	-0.063271455
-1.2591126	<s> SEVEN FOUR	-0.063271455
-1.2805194	TWO SEVEN FOUR	-0.063271455
-1.2308042	FOUR SEVEN FOUR	-0.063271455
-0.9534806	JAY SEVEN FOUR	-0.063271455
-0.59212136	KAY EM FOUR	-0.063271455
-1.4536769	<s> JAY FOUR	-0.063271455
-0.5696155	EN JAY FOUR	-0.063271455
-0.763119	TWO TWENTY FOUR	-0.063271455
-0.53305805	EFF TWENTY FOUR	-0.063271455
-0.53305805	TWELVE TWENTY FOUR	-0.063271455
-0.4864818	ENTER NINETY FOUR	-0.063271455
-0.4864818	AY NINETY FOUR	-0.063271455
-0.99722457	<s> TWELVE FOUR	-0.063271455
-0.23179878	AREA CODE FOUR	-0.063271455
-0.99473816	<s> EYE TEE	-0.063271455
-1.049793	AYCH EYE TEE	-0.063271455
-0.9161229	PEE EYE TEE	-1.3244178
-0.7918926	RUBOUT EYE TEE	-0.063271455
-0.7438814	EM EYE TEE	-0.063271455
-1.3306764	EN GEE TEE	-0.063271455
-1.5914851	EE AR TEE	-0.14642078
-1.5762227	AY AR TEE	-0.063271455
-1.1359167	OH AR TEE	-0.063271455
-1.2361448	EYE EE TEE	-0.063271455
-1.3838676	AR EE TEE	-0.22175556
-1.2520889	EE EE TEE	-0.063271455
-1.1057239	YOU EE TEE	-0.063271455
-1.3632131	EN EE TEE	-0.063271455
-1.0436195	JAY EE TEE	-0.063271455
-1.5838569	DOUBLE YOU TEE	-0.063271455
-0.9841213	OH YOU TEE	-0.063271455
-1.0653118	RUBOUT YOU TEE	-0.063271455
-1.669225	<s> FIVE TEE	-0.063271455
-1.2622792	GEE AYCH TEE	-0.063271455
-1.1048926	SEE AYCH TEE	-0.14642078
-0.8197478	EYE TEE TEE	-1.1653978
-0.65573454	EE TEE TEE	-0.116899766
-0.52797127	AY TEE TEE	-0.10285921
-1.0699031	OH TEE TEE	-0.063271455
-1.2528621	<s> AY TEE	-0.063271455
-1.0817089	GEE AY TEE	-0.063271455
-1.1912059	EE AY TEE	-0.063271455
-1.1110847	YOU AY TEE	-0.063271455
-0.97808355	PEE AY TEE	-0.063271455
-0.9463424	EN AY TEE	-0.14642078
-1.2089908	EM AY TEE	-0.063271455
-0.7813784	ESS AY TEE	-0.063271455
-0.8275019	JAY CUE TEE	-0.063271455
-0.8275019	DEE CUE TEE	-0.063271455
-1.7139847	<s> PEE TEE	-0.063271455
-1.0848643	EE PEE TEE	-0.063271455
-0.8108753	EYE EFF TEE	-0.063271455
-0.8108753	AY EFF TEE	-0.063271455
-0.8108753	DEE EFF TEE	-0.063271455
-0.8612075	SEE ZEE TEE	-0.063271455
-0.57630354	GEE OH TEE	-0.063271455
-0.8393472	ERASE OH TEE	-0.063271455
-1.3357406	AYCH OH TEE	-0.063271455
-0.98050904	ZEE OH TEE	-0.063271455
-1.2858075	EM OH TEE	-0.063271455
-1.4220631	<s> RUBOUT TEE	-0.063271485
-1.1106863	EE EN TEE	-0.116899766
-1.0588666	YOU EN TEE	-0.063271455
-1.3424984	AY EN TEE	-0.14642078
-1.2947186	OH EN TEE	-0.063271455
-0.79687965	EM EN TEE	-0.063271455
-1.5537668	AY EL TEE	-0.063271455
-0.56248736	AYCH KAY TEE	-0.063271455
-0.814355	OH KAY TEE	-0.063271455
-0.9462876	DEE KAY TEE	-0.063271455
-0.8753749	DEE EM TEE	-0.063271455
-0.58654463	OH JAY TEE	-0.063271455
-0.58051133	<s> ESS TEE	-0.41943118
-1.0135581	EYE ESS TEE	-0.063271455
-0.8643764	AR ESS TEE	-0.063271455
-0.79992074	AY ESS TEE	-0.10285921
-0.8643764	OH ESS TEE	-0.063271455
-0.51772743	FIFTH ESS TEE	-0.063271455
-1.0314654	RUBOUT SEE TEE	-0.063271455
-0.85845	EN EX VEE	-0.063271455
-1.0912765	<s> EYE VEE	-0.063271455
-1.3863399	AR EYE VEE	-0.3466943
-0.84985375	ZEE EYE VEE	-0.063271455
-0.8670231	AYCH GEE VEE	-0.063271455
-1.3032688	EN GEE VEE	-0.063271455
-0.4430923	ZEE AR VEE	-0.063271455
-1.410136	TEE EE VEE	-0.4436043
-1.3093258	BEE EE VEE	-0.063271455
-0.99261916	ZEE EE VEE	-0.063271455
-1.492778	EL EE VEE	-0.063271455
-1.2758864	KAY EE VEE	-0.063271455
-0.59686387	BEE WHY VEE	-0.063271455
-1.165571	<s> ERASE VEE	-0.063271485
-1.5568378	<s> TEE VEE	-0.063271455
-1.3534989	<s> AY VEE	-0.063271455
-1.265944	AR AY VEE	-0.063271455
-1.283547	EE AY VEE	-0.14642078
-1.3265592	AYCH AY VEE	-0.14642078
-0.76546186	DEE AY VEE	-0.19003716
-1.1619825	SEE AY VEE	-0.063271455
-1.8125069	<s> BEE VEE	-0.063271455
-1.0374311	EE EFF VEE	-0.063271455
