\data\
ngram 1=102
ngram 2=1205
ngram 3=2890
ngram 4=3125
ngram 5=2673

\1-grams:
-2.9015083	<unk>	0
0	<s>	-1.0635333
-1.3783259	</s>	0
-1.83977	ɛks	-0.2376377
-1.6931208	aɪ	-0.49574035
-1.6589428	sɪksti	-0.6139584
-1.5977311	wʌn	-0.6659762
-1.7302201	dʒiː	-0.37160036
-1.5568925	tuː	-0.74975085
-2.0230632	eɪɾi	-0.3515602
-1.6272594	naɪn	-0.5333513
-2.8196123	jɛs	-0.25076428
-1.6931208	ɑːɹ	-0.5156649
-1.6428123	iː	-0.6012712
-1.7925863	dʌbəljuː	-0.34094405
-1.6931208	waɪ	-0.33326107
-1.6122444	eɪt	-0.6408101
-1.6428123	faɪv	-0.6561379
-1.6428123	sɪks	-0.65848017
-2.8196123	noʊ	-0.25076428
-2.8196123	ᵻɹeɪs	-0.25076428
-1.6931208	eɪtʃ	-0.40114227
-1.9530152	ziəɹoʊ	-0.556154
-1.6122444	foːɹ	-0.60396606
-2.8196123	stɑːɹt	-0.25076428
-2.8196123	ɛntɚɹ	-0.25076428
-2.8196123	ɛntɚ	-0.25076428
-1.7112745	tiː	-0.44923365
-1.8654346	viː	-0.3597603
-1.6428123	ɐ	-0.6210595
-1.9218178	fɪfti	-0.3798039
-1.6428123	θɹiː	-0.5378377
-1.8927119	fɔːɹɾi	-0.37902242
-1.7302201	biː	-0.36311692
-1.8155377	kjuː	-0.26330978
-1.7500302	θɜːɾi	-0.43517596
-1.8155377	piː	-0.30010614
-1.7500302	juː	-0.29885003
-1.6931208	ɛf	-0.33659276
-1.7302201	ziː	-0.2937663
-1.5568925	oʊ	-0.59149706
-2.8196123	ɹuːbaʊt	-0.25076428
-1.7707872	ɛn	-0.5014323
-1.5700833	sɛvən	-0.5312297
-1.7112745	ɛl	-0.5173776
-1.7112745	keɪ	-0.31665283
-1.7500302	ɛm	-0.34164092
-1.8155377	dʒeɪ	-0.25600907
-2.8196123	hɛlp	-0.25076428
-2.4348993	fɪftiːn	-0.34226677
-2.8196123	ɹᵻpiːt	-0.25076428
-1.7112745	diː	-0.42567888
-1.8927119	sɛvənti	-0.4298386
-2.8196123	ɡoʊ	-0.25076428
-2.8196123	stɑːp	-0.25076428
-1.7500302	ɛs	-0.44975784
-1.6931208	twɛnti	-0.35693854
-2.4348993	sɛvəntiːn	-0.21496561
-2.2101867	naɪnti	-0.22804672
-2.2101867	tɛn	-0.38635477
-1.7925863	siː	-0.3833352
-2.2729938	foːɹtiːn	-0.29262334
-2.4348993	θaʊzənd	-0.2376377
-2.546101	twɛlv	-0.25076428
-2.2101867	hʌndɹɪd	-0.3223824
-2.695957	ænd	-0.23249617
-2.1553254	eɪ	-0.8932282
-2.8196123	hæf	-0.25076428
-2.695957	ᵻlɛvən	-0.25076428
-2.7223282	fɪfθ	-0.25076428
-2.8196123	ɐpɔstɹəfi	-0.25076428
-2.8196123	ɛɹiə	-0.25076428
-2.8196123	koʊd	-0.25076428
-2.8196123	mɑːɹtʃ	-0.25076428
-2.7223282	θɜːd	-0.2064587
-1.83977	naɪntiːn	-0.5429909
-2.8196123	dʒuːn	-0.25076428
-2.8196123	ᵻlɛvənθ	-0.25076428
-2.8196123	sɛptɛmbɚ	-0.25076428
-2.7223282	fɪftiːnθ	-0.2064587
-2.7223282	meɪ	-0.25076428
-2.7223282	fɜːst	-0.2064587
-2.8196123	ɑːktoʊbɚ	-0.25076428
-2.8196123	dʒænjuːɛɹi	-0.25076428
-2.7223282	sɪkstiːn	-0.2064587
-2.8196123	dᵻsɛmbɚɹ	-0.25076428
-2.8196123	eɪtiːnθ	-0.25076428
-2.8196123	dʒuːlaɪ	-0.25076428
-2.695957	θɜːɾiəθ	-0.41610697
-2.7223282	twɛlfθ	-0.2064587
-2.8196123	sɛvənθ	-0.25076428
-2.8196123	ʌv	-0.25076428
-2.8196123	ɔːɡəst	-0.25076428
-2.8196123	sɪkstiːnθ	-0.25076428
-2.8196123	sɛkənd	-0.25076428
-2.7223282	fɛbɹuːɛɹi	-0.25076428
-2.8196123	eɪtθ	-0.25076428
-2.8196123	naɪnθ	-0.25076428
-2.8196123	sɪksθ	-0.25076428
-2.8196123	eɪtiːn	-0.25076428
-2.8196123	eɪpɹəl	-0.25076428
-2.8196123	foːɹθ	-0.25076428

\2-grams:
-1.4379637	aɪ </s>	0
-1.0596704	sɪksti </s>	0
-0.6906207	wʌn </s>	0
-1.5044758	dʒiː </s>	0
-0.667227	tuː </s>	0
-0.5384282	naɪn </s>	0
-0.33522755	jɛs </s>	0
-1.6779916	ɑːɹ </s>	0
-1.086972	iː </s>	0
-1.2270491	dʌbəljuː </s>	0
-0.7294824	waɪ </s>	0
-0.6633055	eɪt </s>	0
-0.66396976	faɪv </s>	0
-0.669445	sɪks </s>	0
-0.33522755	noʊ </s>	0
-1.2036309	eɪtʃ </s>	0
-0.42433628	ziəɹoʊ </s>	0
-0.6757146	foːɹ </s>	0
-0.33522755	stɑːɹt </s>	0
-1.0698044	tiː </s>	0
-1.342185	fɪfti </s>	0
-0.64702713	θɹiː </s>	0
-0.85533154	θɜːɾi </s>	0
-1.520457	juː </s>	0
-1.5547105	ɛf </s>	0
-1.46625	ziː </s>	0
-1.0964768	oʊ </s>	0
-1.0861672	ɛn </s>	0
-0.63065404	sɛvən </s>	0
-1.3197619	ɛl </s>	0
-1.038743	keɪ </s>	0
-1.4805753	ɛm </s>	0
-0.33522755	hɛlp </s>	0
-0.41020566	fɪftiːn </s>	0
-0.33522755	ɹᵻpiːt </s>	0
-1.049754	diː </s>	0
-0.94739044	sɛvənti </s>	0
-0.33522755	ɡoʊ </s>	0
-0.33522755	stɑːp </s>	0
-0.8149549	ɛs </s>	0
-1.4934375	twɛnti </s>	0
-0.75238866	sɛvəntiːn </s>	0
-0.4351973	tɛn </s>	0
-1.5806448	siː </s>	0
-0.93583375	foːɹtiːn </s>	0
-1.061099	θaʊzənd </s>	0
-1.1061141	twɛlv </s>	0
-1.019581	hʌndɹɪd </s>	0
-0.05676267	eɪ </s>	0
-0.33522755	hæf </s>	0
-0.875648	ᵻlɛvən </s>	0
-2.3382297	<s> ɛks	-0.1162864
-1.4510837	ɛks ɛks	-0.1162864
-2.1674469	iː ɛks	-0.1162864
-1.7923146	dʌbəljuː ɛks	-0.1162864
-1.4882822	ᵻɹeɪs ɛks	-0.1162864
-1.892204	eɪtʃ ɛks	-0.1162864
-1.7328036	viː ɛks	-0.1162864
-2.1420722	ɐ ɛks	-0.1162864
-1.3713471	biː ɛks	-0.1162864
-1.7849998	juː ɛks	-0.1162864
-1.3673345	ɛf ɛks	-0.1162864
-1.693481	ziː ɛks	-0.1162864
-1.5655918	ɹuːbaʊt ɛks	-0.1162864
-1.8709306	ɛn ɛks	-0.1162864
-1.6780137	keɪ ɛks	-0.1162864
-1.8324285	ɛm ɛks	-0.1162864
-1.6713512	dʒeɪ ɛks	-0.1162864
-1.9212512	ɛs ɛks	-0.1162864
-2.293162	<s> aɪ	-0.1162864
-1.5623374	ɛks aɪ	-0.1162864
-1.0213282	dʒiː aɪ	-0.1162864
-1.038578	ɑːɹ aɪ	-0.15350328
-1.5896765	iː aɪ	-0.18418093
-1.1476183	dʌbəljuː aɪ	-0.14542669
-1.4467411	ᵻɹeɪs aɪ	-0.1162864
-1.2675811	eɪtʃ aɪ	-0.1162864
-1.3142816	tiː aɪ	-0.15302788
-0.9363862	viː aɪ	-0.14043213
-1.6849607	ɐ aɪ	-0.1162864
-1.7597917	biː aɪ	-0.1162864
-1.582013	kjuː aɪ	-0.1162864
-1.5364802	piː aɪ	-0.1162864
-1.7138786	juː aɪ	-0.1162864
-1.6166117	ɛf aɪ	-0.1162864
-1.4872781	ziː aɪ	-0.1162864
-1.5163997	ɹuːbaʊt aɪ	-0.1162864
-1.1976494	ɛn aɪ	-0.14890824
-1.1802912	ɛl aɪ	-0.14878859
-1.356338	keɪ aɪ	-0.15302788
-1.2076571	ɛm aɪ	-0.14542669
-1.8460954	diː aɪ	-0.1162864
-1.8523124	ɛs aɪ	-0.1162864
-1.7610066	siː aɪ	-0.1162864
-2.5556822	<s> sɪksti	-0.1162864
-1.9035552	aɪ sɪksti	-0.1162864
-1.6572955	wʌn sɪksti	-0.1162864
-2.1029298	tuː sɪksti	-0.1162864
-1.8903127	naɪn sɪksti	-0.1162864
-1.9409145	ɑːɹ sɪksti	-0.1162864
-1.9950223	eɪt sɪksti	-0.1162864
-1.8847247	sɪks sɪksti	-0.1162864
-1.8396151	foːɹ sɪksti	-0.1162864
-1.4355673	ɛntɚ sɪksti	-0.1162864
-1.8491718	tiː sɪksti	-0.1162864
-1.5952917	fɪfti sɪksti	-0.1162864
-1.3724103	θɹiː sɪksti	-0.15302788
-1.6536177	θɜːɾi sɪksti	-0.1162864
-1.4761667	ziː sɪksti	-0.19316739
-2.060142	oʊ sɪksti	-0.1162864
-1.549615	sɛvən sɪksti	-0.1162864
-1.0100981	fɪftiːn sɪksti	-0.1162864
-1.3108104	tɛn sɪksti	-0.1162864
-0.6156018	foːɹtiːn sɪksti	-0.1162864
-1.1730063	twɛlv sɪksti	-0.1162864
-0.99753433	ænd sɪksti	-0.1162864
-0.9137369	ᵻlɛvən sɪksti	-0.1162864
-0.23860593	naɪntiːn sɪksti	-0.3180789
-0.40672517	sɪkstiːn sɪksti	-0.1162864
-0.34586355	ʌv sɪksti	-0.1162864
-0.34586355	naɪnθ sɪksti	-0.1162864
-1.0081723	<s> wʌn	-0.6804712
-0.986635	sɪksti wʌn	-0.5104253
-1.3827671	wʌn wʌn	-0.1162864
-1.3135774	tuː wʌn	-0.1670925
-1.3708916	eɪɾi wʌn	-0.1162864
-1.461072	naɪn wʌn	-0.1162864
-1.9041365	ɑːɹ wʌn	-0.1162864
-1.5556047	waɪ wʌn	-0.1162864
-1.2964382	eɪt wʌn	-0.13689949
-1.1331986	faɪv wʌn	-0.15652747
-1.2346903	sɪks wʌn	-0.15302788
-1.7669802	eɪtʃ wʌn	-0.1162864
-1.1220307	ziəɹoʊ wʌn	-0.16599983
-1.0563936	foːɹ wʌn	-0.16076449
-1.4140465	ɛntɚ wʌn	-0.1162864
-1.102272	fɪfti wʌn	-0.15302788
-1.3626705	θɹiː wʌn	-0.14542669
-1.3317649	fɔːɹɾi wʌn	-0.19316739
-1.7089794	biː wʌn	-0.1162864
-1.5391537	kjuː wʌn	-0.1162864
-0.780691	θɜːɾi wʌn	-0.15377517
-1.6610012	juː wʌn	-0.1162864
-1.4739866	oʊ wʌn	-0.14542669
-1.3877418	sɛvən wʌn	-0.1162864
-1.4325624	dʒeɪ wʌn	-0.1162864
-1.6790111	diː wʌn	-0.1162864
-0.57740366	sɛvənti wʌn	-0.5104253
-1.8008469	ɛs wʌn	-0.1162864
-1.6054096	twɛnti wʌn	-0.1162864
-1.156353	naɪnti wʌn	-0.1162864
-1.1119707	θaʊzənd wʌn	-0.1162864
-1.7780292	<s> dʒiː	-0.16488944
-1.5778346	ɛks dʒiː	-0.1162864
-1.3813455	aɪ dʒiː	-0.15302788
-1.4359722	ɑːɹ dʒiː	-0.1162864
-1.7432573	iː dʒiː	-0.1162864
-1.744139	dʌbəljuː dʒiː	-0.1162864
-1.7453789	waɪ dʒiː	-0.1162864
-1.4582102	ᵻɹeɪs dʒiː	-0.1162864
-1.7078562	eɪtʃ dʒiː	-0.1162864
-1.4760625	tiː dʒiː	-0.1162864
-1.6933928	ɐ dʒiː	-0.1162864
-1.7781422	biː dʒiː	-0.1162864
-1.597294	kjuː dʒiː	-0.1162864
-1.6926812	piː dʒiː	-0.1162864
-1.3198754	juː dʒiː	-0.1162864
-1.7651032	ɛf dʒiː	-0.1162864
-1.6504493	ziː dʒiː	-0.1162864
-2.104772	oʊ dʒiː	-0.1162864
-1.5298953	ɹuːbaʊt dʒiː	-0.1162864
-1.4046624	ɛn dʒiː	-0.1162864
-1.824003	ɛl dʒiː	-0.1162864
-1.779942	ɛm dʒiː	-0.1162864
-1.626821	dʒeɪ dʒiː	-0.1162864
-1.5526718	<s> tuː	-0.29837143
-1.4987246	ɛks tuː	-0.1162864
-1.0771146	sɪksti tuː	-0.28109097
-1.2171621	wʌn tuː	-0.20876151
-1.5968356	dʒiː tuː	-0.1162864
-1.1175221	tuː tuː	-0.18305933
-1.3008287	naɪn tuː	-0.15302788
-1.9945524	iː tuː	-0.1162864
-1.6538831	dʌbəljuː tuː	-0.1162864
-1.1286808	eɪt tuː	-0.16832511
-0.9624926	faɪv tuː	-0.20151672
-1.2306343	sɪks tuː	-0.13689949
-1.7425742	eɪtʃ tuː	-0.1162864
-1.4469109	ziəɹoʊ tuː	-0.1162864
-1.3890926	foːɹ tuː	-0.17263408
-1.3985783	ɛntɚ tuː	-0.1162864
-1.9834979	ɐ tuː	-0.1162864
-1.4023528	fɪfti tuː	-0.1162864
-1.1585026	θɹiː tuː	-0.1585399
-1.3221741	fɔːɹɾi tuː	-0.19316739
-1.5192124	kjuː tuː	-0.1162864
-0.9910051	θɜːɾi tuː	-0.18418093
-1.6367959	juː tuː	-0.1162864
-1.3094708	ɛf tuː	-0.16599983
-1.5685501	ziː tuː	-0.1162864
-1.3845258	oʊ tuː	-0.13689949
-1.3800403	sɛvən tuː	-0.1162864
-1.858754	ɛl tuː	-0.1162864
-1.5623578	keɪ tuː	-0.1162864
-1.6828786	ɛm tuː	-0.1162864
-1.6600554	diː tuː	-0.1162864
-0.79515827	sɛvənti tuː	-0.33433408
-1.4456086	twɛnti tuː	-0.1162864
-1.6897846	siː tuː	-0.1162864
-1.9257952	dʒiː eɪɾi	-0.1162864
-2.2460358	tuː eɪɾi	-0.1162864
-2.0349038	naɪn eɪɾi	-0.1162864
-2.1643226	sɪks eɪɾi	-0.1162864
-0.6484996	ɛntɚɹ eɪɾi	-0.1162864
-2.0119865	tiː eɪɾi	-0.1162864
-2.0808685	θɹiː eɪɾi	-0.1162864
-1.8568681	juː eɪɾi	-0.1162864
-1.8962998	keɪ eɪɾi	-0.1162864
-1.2242804	foːɹtiːn eɪɾi	-0.1162864
-1.0959055	hʌndɹɪd eɪɾi	-0.1162864
-1.0302051	ænd eɪɾi	-0.1162864
-2.1122227	<s> naɪn	-0.1162864
-1.5329095	ɛks naɪn	-0.1162864
-0.9883386	sɪksti naɪn	-0.5104253
-1.1054225	wʌn naɪn	-0.16599983
-1.6282115	dʒiː naɪn	-0.1162864
-1.3162258	tuː naɪn	-0.1585399
-0.84593296	eɪɾi naɪn	-0.16599983
-1.3115088	naɪn naɪn	-0.18418093
-1.4142683	eɪt naɪn	-0.17666382
-1.3013352	faɪv naɪn	-0.14542669
-1.4419119	sɪks naɪn	-0.1697263
-1.7840477	eɪtʃ naɪn	-0.1162864
-1.5546188	foːɹ naɪn	-0.1162864
-1.4246737	ɛntɚ naɪn	-0.1162864
-1.6480484	viː naɪn	-0.1162864
-1.5836112	fɪfti naɪn	-0.1162864
-1.3675131	θɹiː naɪn	-0.15302788
-1.0091653	fɔːɹɾi naɪn	-0.16599983
-1.4805522	θɜːɾi naɪn	-0.19316739
-1.6038761	ziː naɪn	-0.1162864
-1.7197601	oʊ naɪn	-0.1162864
-1.392953	sɛvən naɪn	-0.15302788
-1.900222	ɛl naɪn	-0.1162864
-1.7099282	keɪ naɪn	-0.1162864
-1.313408	sɛvənti naɪn	-0.16599983
-1.4682932	twɛnti naɪn	-0.16599983
-1.1174016	θaʊzənd naɪn	-0.1162864
-1.1670212	twɛlv naɪn	-0.1162864
-0.9104321	ᵻlɛvən naɪn	-0.1162864
-1.6766233	<s> jɛs	-1.0110277
-1.8395293	<s> ɑːɹ	-0.19129185
-1.5623374	ɛks ɑːɹ	-0.1162864
-1.7977185	aɪ ɑːɹ	-0.1162864
-1.7838749	dʒiː ɑːɹ	-0.1162864
-1.4300135	ɑːɹ ɑːɹ	-0.1162864
-1.0079465	iː ɑːɹ	-0.22665024
-1.7262717	dʌbəljuː ɑːɹ	-0.1162864
-1.7271484	waɪ ɑːɹ	-0.1162864
-1.4467411	ᵻɹeɪs ɑːɹ	-0.1162864
-1.69349	eɪtʃ ɑːɹ	-0.1162864
-1.4684619	tiː ɑːɹ	-0.18418093
-1.6769909	viː ɑːɹ	-0.1162864
-0.94053966	ɐ ɑːɹ	-0.19622043
-1.6266662	biː ɑːɹ	-0.14043213
-1.6752369	piː ɑːɹ	-0.1162864
-1.1577395	juː ɑːɹ	-0.1162864
-1.3410659	ɛf ɑːɹ	-0.1162864
-1.4872781	ziː ɑːɹ	-0.19316739
-1.170628	oʊ ɑːɹ	-0.15008858
-1.5163997	ɹuːbaʊt ɑːɹ	-0.1162864
-1.9374269	ɛn ɑːɹ	-0.1162864
-1.8096398	ɛl ɑːɹ	-0.1162864
-1.7471333	keɪ ɑːɹ	-0.1162864
-1.0166876	diː ɑːɹ	-0.14890824
-1.7610066	siː ɑːɹ	-0.1162864
-1.76879	<s> iː	-0.20104817
-1.1682386	aɪ iː	-0.15302788
-1.6347681	dʒiː iː	-0.1162864
-1.0349885	ɑːɹ iː	-0.19729024
-1.2570224	iː iː	-0.13223352
-1.2960188	dʌbəljuː iː	-0.1162864
-1.7011619	waɪ iː	-0.1162864
-1.4300864	ᵻɹeɪs iː	-0.1162864
-1.0592359	eɪtʃ iː	-0.14043213
-0.9691845	tiː iː	-0.18503918
-0.9323263	viː iː	-0.17318119
-1.9239326	ɐ iː	-0.1162864
-1.0688567	biː iː	-0.14516021
-1.4144648	kjuː iː	-0.1162864
-1.5182353	piː iː	-0.1162864
-1.5653906	juː iː	-0.1162864
-1.0657066	ɛf iː	-0.1162864
-1.180723	ziː iː	-0.16599983
-2.0496662	oʊ iː	-0.1162864
-1.4969115	ɹuːbaʊt iː	-0.1162864
-0.95357627	ɛn iː	-0.16373125
-0.81473774	ɛl iː	-0.17859586
-0.99663603	keɪ iː	-0.1342687
-1.0880692	ɛm iː	-0.14043213
-1.5864352	dʒeɪ iː	-0.1162864
-1.0861166	diː iː	-0.16599983
-1.4321095	ɛs iː	-0.14542669
-1.3264843	siː iː	-0.1162864
-1.9749153	<s> dʌbəljuː	-0.21947762
-1.6021693	ɛks dʌbəljuː	-0.1162864
-1.6911225	dʒiː dʌbəljuː	-0.1162864
-1.8813156	ɑːɹ dʌbəljuː	-0.1162864
-1.3332667	iː dʌbəljuː	-0.15740654
-1.7723987	dʌbəljuː dʌbəljuː	-0.1162864
-1.6273713	waɪ dʌbəljuː	-0.1162864
-1.4760025	ᵻɹeɪs dʌbəljuː	-0.1162864
-1.8704292	eɪtʃ dʌbəljuː	-0.1162864
-1.9176619	tiː dʌbəljuː	-0.1162864
-1.9860862	ɐ dʌbəljuː	-0.1162864
-1.6212733	kjuː dʌbəljuː	-0.1162864
-1.6757535	ziː dʌbəljuː	-0.1162864
-1.4170427	oʊ dʌbəljuː	-0.17609124
-1.5509592	ɹuːbaʊt dʌbəljuː	-0.1162864
-1.3765458	keɪ dʌbəljuː	-0.1162864
-1.6529877	dʒeɪ dʌbəljuː	-0.1162864
-1.1913142	diː dʌbəljuː	-0.17666382
-1.7557955	ɛs dʌbəljuː	-0.1162864
-1.806284	siː dʌbəljuː	-0.1162864
-2.4068165	<s> waɪ	-0.1162864
-1.411684	ɛks waɪ	-0.1162864
-1.9223927	aɪ waɪ	-0.1162864
-1.5803283	ɑːɹ waɪ	-0.14043213
-1.976318	iː waɪ	-0.16599983
-1.7262717	dʌbəljuː waɪ	-0.1162864
-1.7271484	waɪ waɪ	-0.1162864
-1.4467411	ᵻɹeɪs waɪ	-0.1162864
-1.4216578	eɪtʃ waɪ	-0.1162864
-1.5247154	viː waɪ	-0.1162864
-1.4230866	ɐ waɪ	-0.14542669
-1.7597917	biː waɪ	-0.1162864
-1.582013	kjuː waɪ	-0.1162864
-1.6752369	piː waɪ	-0.1162864
-1.7138786	juː waɪ	-0.1162864
-1.6166117	ɛf waɪ	-0.1162864
-1.6343635	ziː waɪ	-0.1162864
-2.081884	oʊ waɪ	-0.1162864
-1.5163997	ɹuːbaʊt waɪ	-0.1162864
-1.9374269	ɛn waɪ	-0.1162864
-1.5377812	ɛl waɪ	-0.15302788
-1.6235932	keɪ waɪ	-0.19316739
-1.6336894	ɛm waɪ	-0.1162864
-1.7196009	diː waɪ	-0.1162864
-1.6228957	siː waɪ	-0.1162864
-2.047359	<s> eɪt	-0.13689949
-1.201188	sɪksti eɪt	-0.33433408
-1.2223217	wʌn eɪt	-0.14516021
-1.1208974	tuː eɪt	-0.18596339
-1.3746762	eɪɾi eɪt	-0.1162864
-1.7380296	naɪn eɪt	-0.1162864
-1.9355544	iː eɪt	-0.1162864
-1.5592735	dʌbəljuː eɪt	-0.19316739
-1.5616604	waɪ eɪt	-0.1162864
-1.4121344	eɪt eɪt	-0.16599983
-1.2997459	faɪv eɪt	-0.1697263
-1.2360508	sɪks eɪt	-0.18800955
-1.6376681	ziəɹoʊ eɪt	-0.1162864
-1.195135	foːɹ eɪt	-0.15302788
-0.632584	ɛntɚɹ eɪt	-0.1162864
-0.81602925	fɪfti eɪt	-0.1697263
-1.1645637	θɹiː eɪt	-0.24890755
-1.5073639	fɔːɹɾi eɪt	-0.1162864
-1.7170459	biː eɪt	-0.1162864
-1.4765694	θɜːɾi eɪt	-0.19316739
-1.6344658	piː eɪt	-0.1162864
-1.7022133	ɛf eɪt	-0.1162864
-1.3237936	oʊ eɪt	-0.14516021
-1.1191846	sɛvən eɪt	-0.16832511
-1.7011044	keɪ eɪt	-0.1162864
-1.7157192	ɛm eɪt	-0.1162864
-1.4926411	sɛvənti eɪt	-0.1162864
-1.0009928	twɛnti eɪt	-0.15302788
-1.1594195	naɪnti eɪt	-0.1162864
-0.91281825	θaʊzənd eɪt	-0.19316739
-1.7398773	<s> faɪv	-0.24071226
-1.5400816	ɛks faɪv	-0.1162864
-1.8944341	aɪ faɪv	-0.1162864
-1.684645	sɪksti faɪv	-0.19316739
-1.1064152	wʌn faɪv	-0.21583208
-1.2424216	tuː faɪv	-0.14878859
-1.3823458	eɪɾi faɪv	-0.1162864
-1.1987962	naɪn faɪv	-0.1162864
-1.7007778	dʌbəljuː faɪv	-0.1162864
-1.0155905	eɪt faɪv	-0.14542669
-1.4184623	faɪv faɪv	-0.15302788
-1.4441063	sɪks faɪv	-0.14542669
-1.6464529	ziəɹoʊ faɪv	-0.1162864
-1.2882886	foːɹ faɪv	-0.14043213
-1.4300864	ɛntɚ faɪv	-0.1162864
-0.9392377	fɪfti faɪv	-0.18418093
-1.257113	θɹiː faɪv	-0.1162864
-0.8380812	fɔːɹɾi faɪv	-0.33433408
-1.7336428	biː faɪv	-0.1162864
-1.5600549	kjuː faɪv	-0.1162864
-0.8777095	θɜːɾi faɪv	-0.28109097
-1.5653906	juː faɪv	-0.1162864
-1.5964822	ɛf faɪv	-0.1162864
-1.4823151	oʊ faɪv	-0.28109097
-1.3955823	sɛvən faɪv	-0.14542669
-1.6250049	twɛnti faɪv	-0.1162864
-1.1656182	naɪnti faɪv	-0.1162864
-1.7359456	siː faɪv	-0.1162864
-1.640326	<s> sɪks	-0.21139173
-1.3714103	sɪksti sɪks	-0.20939532
-1.2990304	wʌn sɪks	-0.15377517
-1.122595	tuː sɪks	-0.36027217
-0.6703134	eɪɾi sɪks	-0.33433408
-1.1080348	naɪn sɪks	-0.1585399
-1.3013586	eɪt sɪks	-0.14043213
-1.5763302	faɪv sɪks	-0.1585399
-1.2387846	sɪks sɪks	-0.16599983
-0.73066646	ziəɹoʊ sɪks	-0.16035043
-1.2882886	foːɹ sɪks	-0.13689949
-1.4300864	ɛntɚ sɪks	-0.1162864
-1.9239326	ɐ sɪks	-0.1162864
-0.9392377	fɪfti sɪks	-0.16035043
-1.3699548	θɹiː sɪks	-0.14542669
-1.5171602	fɔːɹɾi sɪks	-0.1162864
-1.7336428	biː sɪks	-0.1162864
-1.5600549	kjuː sɪks	-0.1162864
-1.4845717	θɜːɾi sɪks	-0.19316739
-1.7192721	ɛf sɪks	-0.1162864
-1.6112996	ziː sɪks	-0.1162864
-1.3277028	oʊ sɪks	-0.16832511
-1.9088799	ɛn sɪks	-0.1162864
-1.5458713	sɛvən sɪks	-0.1162864
-1.6022075	keɪ sɪks	-0.1162864
-1.5010517	sɛvənti sɪks	-0.1162864
-1.0041804	twɛnti sɪks	-0.15302788
-0.96636665	naɪnti sɪks	-0.19316739
-1.7559943	<s> noʊ	-0.93639404
-1.5514477	<s> ᵻɹeɪs	-0.15631658
-1.7743099	<s> eɪtʃ	-0.20104817
-1.5623374	ɛks eɪtʃ	-0.1162864
-1.111537	dʒiː eɪtʃ	-0.14043213
-1.9605415	ɑːɹ eɪtʃ	-0.1162864
-2.0832505	iː eɪtʃ	-0.1162864
-1.5901364	dʌbəljuː eɪtʃ	-0.1162864
-1.7271484	waɪ eɪtʃ	-0.1162864
-1.8203372	eɪtʃ eɪtʃ	-0.1162864
-0.86820847	tiː eɪtʃ	-0.26514465
-1.5345773	ɐ eɪtʃ	-0.15302788
-1.7597917	biː eɪtʃ	-0.1162864
-1.248827	piː eɪtʃ	-0.1162864
-1.6166117	ɛf eɪtʃ	-0.1162864
-1.6343635	ziː eɪtʃ	-0.1162864
-1.7395748	oʊ eɪtʃ	-0.16599983
-1.5163997	ɹuːbaʊt eɪtʃ	-0.1162864
-1.8155439	ɛn eɪtʃ	-0.1162864
-1.9365062	ɛl eɪtʃ	-0.1162864
-1.6235932	keɪ eɪtʃ	-0.1162864
-1.6336894	ɛm eɪtʃ	-0.1162864
-1.4663119	dʒeɪ eɪtʃ	-0.1162864
-1.8460954	diː eɪtʃ	-0.1162864
-1.7207862	ɛs eɪtʃ	-0.1162864
-0.8936173	siː eɪtʃ	-0.15350328
-0.34676176	ɐpɔstɹəfi eɪtʃ	-0.1162864
-1.4753141	ɛks ziəɹoʊ	-0.19316739
-1.5371218	wʌn ziəɹoʊ	-0.1162864
-1.7260003	tuː ziəɹoʊ	-0.17666382
-2.01261	naɪn ziəɹoʊ	-0.1162864
-1.4476038	eɪt ziəɹoʊ	-0.15302788
-1.4486808	faɪv ziəɹoʊ	-0.15302788
-2.1418133	sɪks ziəɹoʊ	-0.1162864
-1.7134894	ziəɹoʊ ziəɹoʊ	-0.1162864
-2.097158	foːɹ ziəɹoʊ	-0.1162864
-1.5139352	ɛntɚ ziəɹoʊ	-0.1162864
-1.8925107	θɹiː ziəɹoʊ	-0.1162864
-1.6014707	sɛvən ziəɹoʊ	-0.16599983
-2.055479	ɛl ziəɹoʊ	-0.1162864
-1.9661905	ɛs ziəɹoʊ	-0.1162864
-1.4738436	<s> foːɹ	-0.40841687
-1.5258538	ɛks foːɹ	-0.1162864
-1.8767474	aɪ foːɹ	-0.1162864
-1.201188	sɪksti foːɹ	-0.28109097
-1.2959449	wʌn foːɹ	-0.1585399
-1.0716448	tuː foːɹ	-0.33209142
-1.3746762	eɪɾi foːɹ	-0.1162864
-1.3093517	naɪn foːɹ	-0.15302788
-1.7096101	iː foːɹ	-0.1162864
-1.0694308	eɪt foːɹ	-0.2687317
-1.2997459	faɪv foːɹ	-0.14542669
-0.993329	sɪks foːɹ	-0.19879925
-1.7754301	eɪtʃ foːɹ	-0.1162864
-1.6376681	ziəɹoʊ foːɹ	-0.1162864
-1.195135	foːɹ foːɹ	-0.17318119
-1.4193276	ɛntɚ foːɹ	-0.1162864
-1.8228314	tiː foːɹ	-0.1162864
-1.5778867	fɪfti foːɹ	-0.1162864
-1.7784092	θɹiː foːɹ	-0.14542669
-1.5073639	fɔːɹɾi foːɹ	-0.1162864
-1.6344658	piː foːɹ	-0.1162864
-1.2941711	juː foːɹ	-0.1162864
-1.7149444	oʊ foːɹ	-0.1162864
-1.3903396	sɛvən foːɹ	-0.15302788
-1.7157192	ɛm foːɹ	-0.1162864
-1.4380083	dʒeɪ foːɹ	-0.1162864
-1.164172	twɛnti foːɹ	-0.1162864
-0.9624386	naɪnti foːɹ	-0.19316739
-1.1640593	twɛlv foːɹ	-0.1162864
-0.34451973	koʊd foːɹ	-0.1162864
-1.9786024	<s> stɑːɹt	-0.73227406
-2.08829	<s> ɛntɚɹ	-0.48521093
-1.1051284	<s> ɛntɚ	-0.4049369
-1.8416865	<s> tiː	-0.17644902
-1.2650163	aɪ tiː	-0.16599983
-1.7932888	dʒiː tiː	-0.1162864
-1.5845314	ɑːɹ tiː	-0.18418093
-1.397853	iː tiː	-0.20939532
-1.7351135	dʌbəljuː tiː	-0.1162864
-2.0272493	faɪv tiː	-0.1162864
-1.7006137	eɪtʃ tiː	-0.1162864
-1.3169311	tiː tiː	-0.15302788
-1.199337	ɐ tiː	-0.23428759
-1.4353784	kjuː tiː	-0.1162864
-1.5427362	piː tiː	-0.1162864
-1.5928738	juː tiː	-0.1162864
-1.3447227	ɛf tiː	-0.1162864
-1.642332	ziː tiː	-0.1162864
-1.4936742	oʊ tiː	-0.1162864
-1.5230951	ɹuːbaʊt tiː	-0.1162864
-1.2889364	ɛn tiː	-0.14043213
-1.9460714	ɛl tiː	-0.1162864
-1.3603051	keɪ tiː	-0.1162864
-1.7701652	ɛm tiː	-0.1162864
-1.6184379	dʒeɪ tiː	-0.1162864
-1.0826519	ɛs tiː	-0.16599983
-1.7696923	siː tiː	-0.1162864
-1.9373482	<s> viː	-0.22184873
-1.6279489	ɛks viː	-0.1162864
-1.5611748	aɪ viː	-0.1162864
-1.7142951	dʒiː viː	-0.1162864
-2.0493402	ɑːɹ viː	-0.1162864
-1.5043625	iː viː	-0.1697263
-1.8051674	waɪ viː	-0.1162864
-1.4945548	ᵻɹeɪs viː	-0.1162864
-1.95068	tiː viː	-0.1162864
-1.3496149	ɐ viː	-0.17629561
-1.8383614	biː viː	-0.1162864
-1.8273646	ɛf viː	-0.1162864
-1.5730971	ɹuːbaʊt viː	-0.1162864
-1.8327314	keɪ viː	-0.1162864
-1.6942012	ɛm viː	-0.1162864
-1.6808326	dʒeɪ viː	-0.1162864
-1.4719485	ɛs viː	-0.1162864
-1.7398773	<s> ɐ	-0.1720265
-1.7765701	aɪ ɐ	-0.1162864
-1.1056362	dʒiː ɐ	-0.14043213
-1.0349885	ɑːɹ ɐ	-0.14516021
-1.2570224	iː ɐ	-0.14542669
-1.1407452	dʌbəljuː ɐ	-0.14043213
-1.7011619	waɪ ɐ	-0.1162864
-1.4300864	ᵻɹeɪs ɐ	-0.1162864
-0.9855687	eɪtʃ ɐ	-0.14525534
-1.840213	tiː ɐ	-0.1162864
-0.9323263	viː ɐ	-0.1585399
-1.5258064	ɐ ɐ	-0.1162864
-1.0688567	biː ɐ	-0.14542669
-1.2393236	piː ɐ	-0.1162864
-1.5653906	juː ɐ	-0.1162864
-1.7192721	ɛf ɐ	-0.1162864
-1.0205827	ziː ɐ	-0.1162864
-1.7246296	oʊ ɐ	-0.1162864
-1.4969115	ɹuːbaʊt ɐ	-0.1162864
-1.1923103	ɛn ɐ	-0.1342687
-1.0387079	ɛl ɐ	-0.16222538
-1.6022075	keɪ ɐ	-0.1162864
-1.0880692	ɛm ɐ	-0.15027708
-1.4491094	dʒeɪ ɐ	-0.1162864
-1.174823	diː ɐ	-0.17629561
-1.8258177	ɛs ɐ	-0.1162864
-1.3264843	siː ɐ	-0.15302788
-0.7833897	ænd ɐ	-0.19316739
-2.0426896	<s> fɪfti	-0.16832511
-1.9323652	sɪksti fɪfti	-0.1162864
-1.7019033	wʌn fɪfti	-0.1162864
-2.2133934	tuː fɪfti	-0.1162864
-1.8346283	naɪn fɪfti	-0.1162864
-1.9270612	eɪtʃ fɪfti	-0.1162864
-2.0860806	foːɹ fɪfti	-0.1162864
-1.5073785	ɛntɚ fɪfti	-0.1162864
-1.9741745	tiː fɪfti	-0.1162864
-1.7591091	viː fɪfti	-0.1162864
-1.4864768	kjuː fɪfti	-0.1162864
-2.061286	sɛvən fɪfti	-0.1162864
-0.7995849	sɛvəntiːn fɪfti	-0.1162864
-1.2107601	twɛlv fɪfti	-0.1162864
-1.3639516	naɪntiːn fɪfti	-0.19316739
-1.7398773	<s> θɹiː	-0.16373125
-1.5400816	ɛks θɹiː	-0.1162864
-0.91179425	sɪksti θɹiː	-0.42721897
-1.653777	wʌn θɹiː	-0.19316739
-1.4084656	tuː θɹiː	-0.1585399
-1.3823458	eɪɾi θɹiː	-0.1162864
-1.3136767	naɪn θɹiː	-0.15302788
-1.9514037	iː θɹiː	-0.1162864
-1.7011619	waɪ θɹiː	-0.1162864
-1.4164128	eɪt θɹiː	-0.1342687
-1.3029304	faɪv θɹiː	-0.17629561
-1.2387846	sɪks θɹiː	-0.14878859
-1.7928399	eɪtʃ θɹiː	-0.1162864
-1.4024817	foːɹ θɹiː	-0.14542669
-1.4300864	ɛntɚ θɹiː	-0.1162864
-1.4257488	fɪfti θɹiː	-0.1162864
-1.257113	θɹiː θɹiː	-0.15302788
-0.8380812	fɔːɹɾi θɹiː	-0.1162864
-1.4845717	θɜːɾi θɹiː	-0.19316739
-1.6503179	piː θɹiː	-0.1162864
-1.6866356	juː θɹiː	-0.1162864
-1.7246296	oʊ θɹiː	-0.1162864
-1.9088799	ɛn θɹiː	-0.1162864
-1.5458713	sɛvən θɹiː	-0.1162864
-1.9090128	ɛl θɹiː	-0.1162864
-1.7189349	keɪ θɹiː	-0.1162864
-0.8850821	twɛnti θɹiː	-0.28109097
-1.1201427	θaʊzənd θɹiː	-0.1162864
-2.7904205	<s> fɔːɹɾi	-0.1162864
-1.9914049	naɪn fɔːɹɾi	-0.1162864
-2.0953968	eɪt fɔːɹɾi	-0.1162864
-2.1009235	faɪv fɔːɹɾi	-0.1162864
-2.120413	sɪks fɔːɹɾi	-0.1162864
-1.9138163	foːɹ fɔːɹɾi	-0.1162864
-1.5009193	ɛntɚ fɔːɹɾi	-0.1162864
-1.8764977	θɹiː fɔːɹɾi	-0.1162864
-1.6906688	biː fɔːɹɾi	-0.1162864
-1.7599261	piː fɔːɹɾi	-0.1162864
-2.1959667	oʊ fɔːɹɾi	-0.1162864
-1.8972216	sɛvən fɔːɹɾi	-0.19316739
-1.8553382	ɛm fɔːɹɾi	-0.1162864
-1.9411854	diː fɔːɹɾi	-0.1162864
-1.3013881	hʌndɹɪd fɔːɹɾi	-0.1162864
-1.3615717	naɪntiːn fɔːɹɾi	-0.19316739
-1.5123054	<s> biː	-0.37703994
-1.5778346	ɛks biː	-0.1162864
-1.9420848	aɪ biː	-0.1162864
-1.8029113	dʒiː biː	-0.1162864
-1.4359722	ɑːɹ biː	-0.1162864
-1.9937588	iː biː	-0.1162864
-1.6031231	dʌbəljuː biː	-0.1162864
-1.6065936	waɪ biː	-0.1162864
-1.4582102	ᵻɹeɪs biː	-0.1162864
-1.2729136	eɪtʃ biː	-0.1162864
-1.8869778	tiː biː	-0.1162864
-2.086037	ɐ biː	-0.1162864
-1.7781422	biː biː	-0.1162864
-1.6926812	piː biː	-0.1162864
-1.7330388	juː biː	-0.1162864
-1.6305691	ɛf biː	-0.1162864
-1.7498319	oʊ biː	-0.1162864
-1.4046624	ɛn biː	-0.1162864
-1.779942	ɛm biː	-0.1162864
-1.626821	dʒeɪ biː	-0.1162864
-1.7340201	diː biː	-0.1162864
-1.4497665	ɛs biː	-0.16599983
-1.7785553	siː biː	-0.1162864
-2.6559618	<s> kjuː	-0.1162864
-1.5528742	aɪ kjuː	-0.1162864
-1.8436866	dʒiː kjuː	-0.1162864
-2.0253813	ɑːɹ kjuː	-0.1162864
-2.1543727	iː kjuː	-0.1162864
-1.7822425	dʌbəljuː kjuː	-0.1162864
-1.7843099	waɪ kjuː	-0.1162864
-1.4820989	ᵻɹeɪs kjuː	-0.1162864
-1.88118	eɪtʃ kjuː	-0.1162864
-1.7850972	tiː kjuː	-0.1162864
-1.5575411	viː kjuː	-0.19316739
-1.142041	kjuː kjuː	-0.1162864
-1.7740984	juː kjuː	-0.1162864
-1.8056037	ɛf kjuː	-0.1162864
-2.154519	oʊ kjuː	-0.1162864
-1.558214	ɹuːbaʊt kjuː	-0.1162864
-1.8214115	ɛm kjuː	-0.1162864
-1.6620724	dʒeɪ kjuː	-0.1162864
-1.7643793	diː kjuː	-0.1162864
-2.3119073	<s> θɜːɾi	-0.1162864
-1.952276	aɪ θɜːɾi	-0.1162864
-1.962211	wʌn θɜːɾi	-0.19316739
-1.6995256	tuː θɜːɾi	-0.16599983
-1.7868674	naɪn θɜːɾi	-0.1162864
-1.9917524	ɑːɹ θɜːɾi	-0.1162864
-2.1173573	iː θɜːɾi	-0.1162864
-2.0377975	eɪt θɜːɾi	-0.1162864
-1.8953791	faɪv θɜːɾi	-0.1162864
-1.9161763	sɪks θɜːɾi	-0.1162864
-2.0155666	foːɹ θɜːɾi	-0.1162864
-1.4640603	ɛntɚ θɜːɾi	-0.1162864
-1.7000382	viː θɜːɾi	-0.1162864
-1.9703585	θɹiː θɜːɾi	-0.1162864
-1.7748799	ɛf θɜːɾi	-0.1162864
-1.8496925	sɛvən θɜːɾi	-0.1162864
-1.9658583	ɛl θɜːɾi	-0.1162864
-1.789944	ɛm θɜːɾi	-0.1162864
-1.880529	ɛs θɜːɾi	-0.1162864
-1.0062603	sɛvəntiːn θɜːɾi	-0.1162864
-1.3262241	tɛn θɜːɾi	-0.1162864
-1.7876028	siː θɜːɾi	-0.1162864
-1.2151458	<s> piː	-0.7087698
-1.6105936	ɛks piː	-0.1162864
-1.5528742	aɪ piː	-0.1162864
-1.8436866	dʒiː piː	-0.1162864
-2.0308936	iː piː	-0.1162864
-1.7822425	dʌbəljuː piː	-0.1162864
-1.7843099	waɪ piː	-0.1162864
-1.88118	eɪtʃ piː	-0.1162864
-1.9283913	tiː piː	-0.1162864
-1.7243776	viː piː	-0.1162864
-1.7107648	ɐ piː	-0.1162864
-1.8173468	biː piː	-0.1162864
-1.6295699	kjuː piː	-0.1162864
-2.0340426	oʊ piː	-0.1162864
-1.558214	ɹuːbaʊt piː	-0.1162864
-1.5755323	ɛn piː	-0.1162864
-1.6782646	ɛm piː	-0.1162864
-1.9071224	diː piː	-0.1162864
-1.464428	ɛs piː	-0.1162864
-2.6881611	<s> juː	-0.1162864
-1.952276	aɪ juː	-0.1162864
-1.8127519	dʒiː juː	-0.1162864
-1.8649005	ɑːɹ juː	-0.1162864
-1.7482841	iː juː	-0.1162864
-1.6134096	waɪ juː	-0.1162864
-1.7152214	eɪtʃ juː	-0.1162864
-1.9696943	ɐ juː	-0.1162864
-1.0799801	biː juː	-0.36027217
-1.6051409	kjuː juː	-0.1162864
-1.5555251	piː juː	-0.1162864
-1.6587213	ziː juː	-0.1162864
-1.2774618	oʊ juː	-0.13223352
-1.5368038	ɹuːbaʊt juː	-0.1162864
-1.8384218	ɛn juː	-0.1162864
-1.8313668	ɛl juː	-0.1162864
-1.6460867	keɪ juː	-0.1162864
-1.3732407	ɛm juː	-0.1162864
-1.4842241	dʒeɪ juː	-0.1162864
-1.8755379	diː juː	-0.1162864
-1.880529	ɛs juː	-0.1162864
-1.7876028	siː juː	-0.1162864
-1.8762223	<s> ɛf	-0.16458713
-1.5623374	ɛks ɛf	-0.1162864
-1.7977185	aɪ ɛf	-0.1162864
-1.8413855	ɑːɹ ɛf	-0.1162864
-1.7333748	iː ɛf	-0.1162864
-1.7262717	dʌbəljuː ɛf	-0.1162864
-1.5932742	waɪ ɛf	-0.1162864
-1.4467411	ᵻɹeɪs ɛf	-0.1162864
-1.69349	eɪtʃ ɛf	-0.1162864
-1.740596	tiː ɛf	-0.1162864
-1.6769909	viː ɛf	-0.1162864
-1.946211	ɐ ɛf	-0.1162864
-1.582013	kjuː ɛf	-0.1162864
-1.6752369	piː ɛf	-0.1162864
-1.5858383	juː ɛf	-0.1162864
-1.3410659	ɛf ɛf	-0.1162864
-1.7395748	oʊ ɛf	-0.1162864
-1.5163997	ɹuːbaʊt ɛf	-0.1162864
-1.9374269	ɛn ɛf	-0.1162864
-1.5377812	ɛl ɛf	-0.1162864
-1.6235932	keɪ ɛf	-0.1162864
-1.7606034	ɛm ɛf	-0.1162864
-1.7196009	diː ɛf	-0.1162864
-1.7207862	ɛs ɛf	-0.1162864
-1.7610066	siː ɛf	-0.1162864
-2.423004	<s> ziː	-0.1162864
-1.5778346	ɛks ziː	-0.1162864
-1.8569199	ɑːɹ ziː	-0.1162864
-1.9937588	iː ziː	-0.1162864
-1.6031231	dʌbəljuː ziː	-0.1162864
-1.6065936	waɪ ziː	-0.1162864
-1.4582102	ᵻɹeɪs ziː	-0.1162864
-1.8396863	eɪtʃ ziː	-0.1162864
-1.8869778	tiː ziː	-0.1162864
-1.692219	viː ziː	-0.1162864
-1.7781422	biː ziː	-0.1162864
-1.597294	kjuː ziː	-0.1162864
-1.7651032	ɛf ziː	-0.1162864
-1.6504493	ziː ziː	-0.1162864
-2.104772	oʊ ziː	-0.1162864
-1.5298953	ɹuːbaʊt ziː	-0.1162864
-1.8306612	ɛn ziː	-0.1162864
-1.824003	ɛl ziː	-0.1162864
-1.6384587	keɪ ziː	-0.1162864
-1.626821	dʒeɪ ziː	-0.1162864
-1.8655003	diː ziː	-0.1162864
-1.8709183	ɛs ziː	-0.1162864
-1.6355933	siː ziː	-0.1162864
-1.8937871	<s> oʊ	-0.17318119
-1.8433983	aɪ oʊ	-0.1162864
-1.2171621	wʌn oʊ	-0.15679756
-1.7072389	dʒiː oʊ	-0.1162864
-1.5109242	tuː oʊ	-0.1342687
-1.0813993	ɑːɹ oʊ	-0.16732705
-1.9945524	iː oʊ	-0.1162864
-1.0162405	dʌbəljuː oʊ	-0.1697263
-1.6534345	waɪ oʊ	-0.1162864
-1.5552541	eɪt oʊ	-0.1162864
-1.2040597	faɪv oʊ	-0.13689949
-1.2306343	sɪks oʊ	-0.14043213
-1.3985783	ᵻɹeɪs oʊ	-0.1162864
-1.0495048	eɪtʃ oʊ	-0.1162864
-1.3890926	foːɹ oʊ	-0.14542669
-1.1827991	tiː oʊ	-0.14043213
-1.6143881	viː oʊ	-0.1162864
-1.7540212	θɹiː oʊ	-0.1162864
-1.1682051	biː oʊ	-0.19316739
-1.2209188	piː oʊ	-0.1162864
-1.6367959	juː oʊ	-0.1162864
-1.0542691	ɛf oʊ	-0.1697263
-1.164366	ziː oʊ	-0.1162864
-1.3160795	oʊ oʊ	-0.1162864
-1.4603772	ɹuːbaʊt oʊ	-0.1162864
-1.3740413	ɛn oʊ	-0.1162864
-1.2720703	sɛvən oʊ	-0.14043213
-1.3604842	ɛl oʊ	-0.1162864
-1.6674999	keɪ oʊ	-0.1162864
-1.1844616	ɛm oʊ	-0.16832511
-1.1461787	dʒeɪ oʊ	-0.1162864
-1.162853	diː oʊ	-0.1342687
-0.9323111	ɛs oʊ	-0.3738463
-1.1572555	siː oʊ	-0.15302788
-1.190896	<s> ɹuːbaʊt	-0.23491074
-1.8856906	<s> ɛn	-0.2323104
-1.5939052	ɛks ɛn	-0.1162864
-0.7798188	aɪ ɛn	-0.23484096
-1.2359544	dʒiː ɛn	-0.1162864
-1.4420139	ɑːɹ ɛn	-0.14542669
-1.1213841	iː ɛn	-0.2310114
-1.61651	dʌbəljuː ɛn	-0.1162864
-1.6203344	waɪ ɛn	-0.1162864
-1.7227137	eɪtʃ ɛn	-0.1162864
-1.9071912	tiː ɛn	-0.1162864
-1.7080008	viː ɛn	-0.1162864
-1.0141946	ɐ ɛn	-0.21583208
-1.1366229	kjuː ɛn	-0.1162864
-1.5620636	piː ɛn	-0.1162864
-1.6146914	juː ɛn	-0.1162864
-1.1325175	oʊ ɛn	-0.15096317
-1.5438238	ɹuːbaʊt ɛn	-0.1162864
-1.2956161	ɛn ɛn	-0.13689949
-1.6628923	ɛm ɛn	-0.1162864
-1.8858129	diː ɛn	-0.1162864
-1.8903573	ɛs ɛn	-0.1162864
-1.8962321	<s> sɛvən	-0.1162864
-0.9082312	sɪksti sɛvən	-0.42721897
-1.4889925	wʌn sɛvən	-0.1162864
-1.2368542	tuː sɛvən	-0.15740654
-1.3634199	eɪɾi sɛvən	-0.1162864
-1.7210442	naɪn sɛvən	-0.1162864
-1.8868531	ɑːɹ sɛvən	-0.1162864
-1.6610337	waɪ sɛvən	-0.1162864
-1.4057946	eɪt sɛvən	-0.14043213
-1.4081601	faɪv sɛvən	-0.17666382
-1.3210571	sɪks sɛvən	-0.16599983
-1.7505581	eɪtʃ sɛvən	-0.1162864
-1.6248156	ziəɹoʊ sɛvən	-0.1162864
-1.1909375	foːɹ sɛvən	-0.15302788
-1.4036734	ɛntɚ sɛvən	-0.1162864
-1.6209147	viː sɛvən	-0.1162864
-1.4061657	fɪfti sɛvən	-0.1162864
-1.3578813	θɹiː sɛvən	-0.14542669
-1.0030568	fɔːɹɾi sɛvən	-0.16599983
-1.5767503	biː sɛvən	-0.1162864
-1.4648359	θɜːɾi sɛvən	-0.19316739
-1.6447153	juː sɛvən	-0.1162864
-1.5753891	ziː sɛvən	-0.1162864
-1.5693171	oʊ sɛvən	-0.1697263
-1.5276217	sɛvən sɛvən	-0.16599983
-1.6908588	ɛm sɛvən	-0.1162864
-1.1489866	dʒeɪ sɛvən	-0.1162864
-1.3025194	sɛvənti sɛvən	-0.19316739
-1.7849633	ɛs sɛvən	-0.1162864
-1.4500518	twɛnti sɛvən	-0.1162864
-1.1502843	naɪnti sɛvən	-0.1162864
-1.6971455	siː sɛvən	-0.1162864
-1.1066068	θaʊzənd sɛvən	-0.1162864
-1.8416865	<s> ɛl	-0.17937122
-1.5700169	ɛks ɛl	-0.1162864
-1.2650163	aɪ ɛl	-0.14890824
-1.02294	dʒiː ɛl	-0.15377517
-1.5845314	ɑːɹ ɛl	-0.16599983
-1.0422363	iː ɛl	-0.29459783
-1.309217	dʌbəljuː ɛl	-0.1162864
-1.157105	waɪ ɛl	-0.1162864
-1.7006137	eɪtʃ ɛl	-0.1162864
-1.7477034	tiː ɛl	-0.19316739
-1.199337	ɐ ɛl	-0.15302788
-1.7688701	biː ɛl	-0.1162864
-0.9748154	piː ɛl	-0.20283121
-1.3161088	juː ɛl	-0.16599983
-1.642332	ziː ɛl	-0.1162864
-1.6012875	oʊ ɛl	-0.1162864
-1.5230951	ɹuːbaʊt ɛl	-0.1162864
-1.9473754	ɛn ɛl	-0.1162864
-1.1072456	ɛl ɛl	-0.16316594
-1.7569548	keɪ ɛl	-0.1162864
-1.6184379	dʒeɪ ɛl	-0.1162864
-1.8556895	diː ɛl	-0.1162864
-1.7275659	ɛs ɛl	-0.1162864
-1.6291981	siː ɛl	-0.1162864
-2.0128236	<s> keɪ	-0.16832511
-1.5700169	ɛks keɪ	-0.1162864
-1.8050033	aɪ keɪ	-0.1162864
-1.6620319	dʒiː keɪ	-0.1162864
-1.2318182	ɑːɹ keɪ	-0.13689949
-2.0943246	iː keɪ	-0.1162864
-1.829904	eɪtʃ keɪ	-0.1162864
-1.7477034	tiː keɪ	-0.1162864
-1.530017	viː keɪ	-0.1162864
-1.6891563	ɐ keɪ	-0.1162864
-1.7688701	biː keɪ	-0.1162864
-1.4353784	kjuː keɪ	-0.1162864
-1.7233531	juː keɪ	-0.1162864
-1.6235343	ɛf keɪ	-0.1162864
-1.642332	ziː keɪ	-0.1162864
-1.9867853	oʊ keɪ	-0.1162864
-1.9473754	ɛn keɪ	-0.1162864
-1.5415752	ɛl keɪ	-0.1162864
-1.7569548	keɪ keɪ	-0.1162864
-1.7701652	ɛm keɪ	-0.1162864
-1.4722009	dʒeɪ keɪ	-0.1162864
-1.4520658	diː keɪ	-0.1162864
-1.1736333	ɛs keɪ	-0.14542669
-0.89478576	siː keɪ	-0.1585399
-1.5133195	<s> ɛm	-0.41936535
-1.5407135	aɪ ɛm	-0.15302788
-1.6003337	iː ɛm	-0.15302788
-1.7547894	waɪ ɛm	-0.1162864
-2.0445297	faɪv ɛm	-0.1162864
-1.4640603	ᵻɹeɪs ɛm	-0.1162864
-1.8969668	tiː ɛm	-0.1162864
-1.5408182	viː ɛm	-0.1162864
-1.146655	ɐ ɛm	-0.14269528
-1.3568978	biː ɛm	-0.1162864
-1.6072963	juː ɛm	-0.1162864
-1.7748799	ɛf ɛm	-0.1162864
-1.499467	oʊ ɛm	-0.17666382
-1.5368038	ɹuːbaʊt ɛm	-0.1162864
-1.9679832	ɛn ɛm	-0.1162864
-1.8313668	ɛl ɛm	-0.1162864
-1.7772903	keɪ ɛm	-0.1162864
-1.3732407	ɛm ɛm	-0.1162864
-1.6353693	dʒeɪ ɛm	-0.1162864
-1.7414132	diː ɛm	-0.1162864
-1.7414513	ɛs ɛm	-0.1162864
-1.7876028	siː ɛm	-0.1162864
-1.7011126	<s> dʒeɪ	-0.24921033
-2.1308095	wʌn dʒeɪ	-0.1162864
-1.6987102	dʒiː dʒeɪ	-0.1162864
-2.0308936	iː dʒeɪ	-0.19316739
-1.7843099	waɪ dʒeɪ	-0.1162864
-1.4820989	ᵻɹeɪs dʒeɪ	-0.1162864
-1.9283913	tiː dʒeɪ	-0.1162864
-2.130272	ɐ dʒeɪ	-0.1162864
-1.8173468	biː dʒeɪ	-0.1162864
-1.62987	juː dʒeɪ	-0.1162864
-1.6599064	ɛf dʒeɪ	-0.1162864
-2.154519	oʊ dʒeɪ	-0.1162864
-1.558214	ɹuːbaʊt dʒeɪ	-0.1162864
-2.0008533	ɛn dʒeɪ	-0.1162864
-1.6782646	ɛm dʒeɪ	-0.1162864
-1.6620724	dʒeɪ dʒeɪ	-0.1162864
-1.9071224	diː dʒeɪ	-0.1162864
-1.9107071	ɛs dʒeɪ	-0.1162864
-1.8159347	siː dʒeɪ	-0.1162864
-1.9326549	<s> hɛlp	-0.77366674
-2.1767697	aɪ fɪftiːn	-0.1162864
-2.3104925	wʌn fɪftiːn	-0.1162864
-2.3333547	tuː fɪftiːn	-0.1162864
-1.5778778	ɛntɚ fɪftiːn	-0.1162864
-2.2046993	sɛvən fɪftiːn	-0.1162864
-1.7559943	<s> ɹᵻpiːt	-0.93639404
-1.8416865	<s> diː	-0.24890755
-1.3785849	aɪ diː	-0.1162864
-1.6620319	dʒiː diː	-0.1162864
-1.5845314	ɑːɹ diː	-0.14542669
-1.5932	iː diː	-0.14542669
-1.7351135	dʌbəljuː diː	-0.1162864
-1.3154309	waɪ diː	-0.1162864
-1.7477034	tiː diː	-0.1162864
-1.336317	ɐ diː	-0.14878859
-1.7688701	biː diː	-0.1162864
-1.4353784	kjuː diː	-0.1162864
-1.5427362	piː diː	-0.1162864
-1.7233531	juː diː	-0.1162864
-1.7555419	ɛf diː	-0.1162864
-1.642332	ziː diː	-0.1162864
-1.744673	oʊ diː	-0.1162864
-1.5230951	ɹuːbaʊt diː	-0.1162864
-1.4017876	ɛn diː	-0.1342687
-1.1072456	ɛl diː	-0.13689949
-1.7569548	keɪ diː	-0.1162864
-1.7701652	ɛm diː	-0.1162864
-1.6184379	dʒeɪ diː	-0.1162864
-1.4520658	diː diː	-0.16599983
-1.7696923	siː diː	-0.1162864
-1.6368937	ɛks sɛvənti	-0.1162864
-2.163545	wʌn sɛvənti	-0.1162864
-1.8769948	dʒiː sɛvənti	-0.1162864
-1.9914049	naɪn sɛvənti	-0.1162864
-2.1948392	iː sɛvənti	-0.1162864
-1.9308366	eɪt sɛvənti	-0.19316739
-2.0752788	foːɹ sɛvənti	-0.1162864
-1.5009193	ɛntɚ sɛvənti	-0.1162864
-1.9622684	tiː sɛvənti	-0.1162864
-1.8764977	θɹiː sɛvənti	-0.1162864
-1.6906688	biː sɛvənti	-0.19316739
-2.0364165	ɛn sɛvənti	-0.1162864
-2.0492408	sɛvən sɛvənti	-0.1162864
-2.0312812	ɛl sɛvənti	-0.1162864
-1.345473	tɛn sɛvənti	-0.1162864
-1.3615717	naɪntiːn sɛvənti	-0.19316739
-2.1556447	<s> ɡoʊ	-0.57737213
-1.7860388	<s> stɑːp	-0.9083653
-1.547861	<s> ɛs	-0.23055656
-1.428134	ɛks ɛs	-0.1162864
-1.3841239	aɪ ɛs	-0.16035043
-1.8127519	dʒiː ɛs	-0.1162864
-1.5930614	ɑːɹ ɛs	-0.16599983
-1.402389	iː ɛs	-0.21176712
-1.4640603	ᵻɹeɪs ɛs	-0.1162864
-1.7622769	tiː ɛs	-0.1162864
-1.7000382	viː ɛs	-0.1162864
-1.4299953	ɐ ɛs	-0.1585399
-1.6469702	biː ɛs	-0.1162864
-1.5555251	piː ɛs	-0.1162864
-1.1656234	juː ɛs	-0.1162864
-2.005076	oʊ ɛs	-0.16599983
-1.5628942	ɛn ɛs	-0.1162864
-1.5492641	ɛl ɛs	-0.1162864
-1.6460867	keɪ ɛs	-0.1162864
-1.789944	ɛm ɛs	-0.1162864
-1.7414132	diː ɛs	-0.1162864
-1.880529	ɛs ɛs	-0.1162864
-1.7876028	siː ɛs	-0.1162864
-0.6395857	fɪfθ ɛs	-0.1162864
-2.6448395	<s> twɛnti	-0.1162864
-2.0719242	wʌn twɛnti	-0.1162864
-1.9793875	tuː twɛnti	-0.1162864
-1.7679039	naɪn twɛnti	-0.1162864
-1.7262717	dʌbəljuː twɛnti	-0.1162864
-2.0116303	eɪt twɛnti	-0.1162864
-2.0188603	faɪv twɛnti	-0.1162864
-2.035349	sɪks twɛnti	-0.1162864
-1.8521972	foːɹ twɛnti	-0.1162864
-1.4467411	ɛntɚ twɛnti	-0.1162864
-1.8109562	θɹiː twɛnti	-0.1162864
-1.7461866	ɛf twɛnti	-0.1162864
-1.5572008	sɛvən twɛnti	-0.16599983
-1.7471333	keɪ twɛnti	-0.1162864
-1.3169104	tɛn twɛnti	-0.1162864
-1.179075	twɛlv twɛnti	-0.1162864
-1.271532	hʌndɹɪd twɛnti	-0.1162864
-1.0017511	ænd twɛnti	-0.1162864
-0.6369468	mɑːɹtʃ twɛnti	-0.1162864
-1.5392096	naɪntiːn twɛnti	-0.1162864
-0.6369468	dʒuːn twɛnti	-0.1162864
-0.80245733	sɛptɛmbɚ twɛnti	-0.1162864
-0.80245733	meɪ twɛnti	-0.1162864
-0.80245733	ɑːktoʊbɚ twɛnti	-0.1162864
-0.6369468	ɔːɡəst twɛnti	-0.1162864
-2.253799	sɪks sɛvəntiːn	-0.1162864
-2.17932	θɹiː sɛvəntiːn	-0.1162864
-1.8925549	piː sɛvəntiːn	-0.1162864
-2.2046993	sɛvən sɛvəntiːn	-0.1162864
-0.9518533	ᵻlɛvən sɛvəntiːn	-0.1162864
-2.265243	wʌn naɪnti	-0.1162864
-2.170306	foːɹ naɪnti	-0.1162864
-1.5555011	ɛntɚ naɪnti	-0.1162864
-2.2819974	ɐ naɪnti	-0.1162864
-1.8521878	piː naɪnti	-0.1162864
-1.7949306	ziː naɪnti	-0.1162864
-2.3308852	oʊ naɪnti	-0.1162864
-1.9548389	keɪ naɪnti	-0.1162864
-2.4119954	<s> tɛn	-0.1162864
-2.265243	wʌn tɛn	-0.1162864
-2.2937655	tuː tɛn	-0.1162864
-1.9138485	waɪ tɛn	-0.1162864
-2.1897018	faɪv tɛn	-0.1162864
-1.9699558	sɛvən tɛn	-0.19316739
-1.3725419	tɛn tɛn	-0.1162864
-1.2344006	twɛlv tɛn	-0.1162864
-1.6995509	<s> siː	-0.18195643
-1.6021693	ɛks siː	-0.1162864
-1.273575	aɪ siː	-0.14890824
-1.6911225	dʒiː siː	-0.1162864
-1.8813156	ɑːɹ siː	-0.19316739
-2.021308	iː siː	-0.1162864
-1.4760025	ᵻɹeɪs siː	-0.1162864
-1.2048309	ɐ siː	-0.1162864
-1.6212733	kjuː siː	-0.1162864
-1.7202361	piː siː	-0.1162864
-1.763464	juː siː	-0.1162864
-1.6757535	ziː siː	-0.1162864
-2.1415381	oʊ siː	-0.1162864
-1.5509592	ɹuːbaʊt siː	-0.1162864
-1.4134023	ɛn siː	-0.1162864
-1.7986252	keɪ siː	-0.1162864
-1.810667	ɛm siː	-0.1162864
-1.4965894	dʒeɪ siː	-0.1162864
-1.9004129	ɛs siː	-0.1162864
-1.806284	siː siː	-0.1162864
-3.0109959	<s> foːɹtiːn	-0.1162864
-1.9219651	dʌbəljuː foːɹtiːn	-0.1162864
-2.1992767	eɪt foːɹtiːn	-0.1162864
-1.5628326	ɛntɚ foːɹtiːn	-0.1162864
-2.1488423	θɹiː foːɹtiːn	-0.1162864
-1.9799677	sɛvən foːɹtiːn	-0.1162864
-1.2399565	foːɹtiːn foːɹtiːn	-0.1162864
-2.3104925	wʌn θaʊzənd	-0.1162864
-2.2261717	eɪt θaʊzənd	-0.1162864
-2.253799	sɪks θaʊzənd	-0.1162864
-1.6396296	foːɹ θaʊzənd	-0.1162864
-2.2046993	sɛvən θaʊzənd	-0.1162864
-2.3225594	<s> twɛlv	-0.1162864
-2.2682304	sɪks twɛlv	-0.1162864
-2.1954005	θɹiː twɛlv	-0.1162864
-1.3867365	tɛn twɛlv	-0.1162864
-2.0756152	wʌn hʌndɹɪd	-0.1162864
-2.2937655	tuː hʌndɹɪd	-0.1162864
-2.0832496	naɪn hʌndɹɪd	-0.1162864
-1.9910469	eɪt hʌndɹɪd	-0.16599983
-2.1897018	faɪv hʌndɹɪd	-0.1162864
-2.2131765	sɪks hʌndɹɪd	-0.1162864
-2.1343699	θɹiː hʌndɹɪd	-0.1162864
-2.1564972	sɛvən hʌndɹɪd	-0.1162864
-2.1523979	naɪn ænd	-0.1162864
-2.2423558	foːɹ ænd	-0.1162864
-0.5438241	hʌndɹɪd ænd	-0.1697263
-2.1125894	aɪ eɪ	-0.1162864
-2.161088	ɑːɹ eɪ	-0.1162864
-2.3071463	iː eɪ	-0.1162864
-1.8170445	viː eɪ	-0.1162864
-1.9544164	ɛn eɪ	-0.19316739
-1.9405564	ɛl eɪ	-0.19316739
-2.0329032	diː eɪ	-0.1162864
-1.7366939	siː eɪ	-0.19316739
-1.233618	foːɹtiːn eɪ	-0.1162864
-2.385985	ɐ hæf	-0.1162864
-2.974242	<s> ᵻlɛvən	-0.1162864
-2.3435104	wʌn ᵻlɛvən	-0.1162864
-2.212099	θɹiː ᵻlɛvən	-0.1162864
-1.4924746	eɪɾi fɪfθ	-0.1162864
-1.8374087	twɛnti fɪfθ	-0.1162864
-2.4587805	oʊ ɐpɔstɹəfi	-0.1162864
-3.1903627	<s> ɛɹiə	-0.1162864
-0.3570433	ɛɹiə koʊd	-0.1162864
-2.9922547	<s> mɑːɹtʃ	-0.1162864
-1.6111804	twɛnti θɜːd	-0.19316739
-0.65681285	mɑːɹtʃ θɜːd	-0.1162864
-1.025463	fɪftiːn naɪntiːn	-0.1162864
-1.2010095	twɛlv naɪntiːn	-0.1162864
-0.6431293	fɪfθ naɪntiːn	-0.1162864
-0.41189995	θɜːd naɪntiːn	-0.1162864
-0.34992018	ᵻlɛvənθ naɪntiːn	-0.1162864
-0.41189995	fɪftiːnθ naɪntiːn	-0.19316739
-0.8115381	meɪ naɪntiːn	-0.1162864
-0.41189995	fɜːst naɪntiːn	-0.19316739
-0.34992018	eɪtiːnθ naɪntiːn	-0.1162864
-0.20625496	θɜːɾiəθ naɪntiːn	-0.20939532
-0.41189995	twɛlfθ naɪntiːn	-0.19316739
-0.34992018	sɛvənθ naɪntiːn	-0.1162864
-0.34992018	sɪkstiːnθ naɪntiːn	-0.1162864
-0.34992018	sɛkənd naɪntiːn	-0.1162864
-0.6431293	fɛbɹuːɛɹi naɪntiːn	-0.1162864
-0.34992018	eɪtθ naɪntiːn	-0.1162864
-0.34992018	sɪksθ naɪntiːn	-0.1162864
-0.34992018	foːɹθ naɪntiːn	-0.1162864
-2.9922547	<s> dʒuːn	-0.1162864
-0.6572338	dʒuːn ᵻlɛvənθ	-0.1162864
-2.6385162	<s> sɛptɛmbɚ	-0.1162864
-0.8318571	sɛptɛmbɚ fɪftiːnθ	-0.1162864
-0.65681285	dʒænjuːɛɹi fɪftiːnθ	-0.1162864
-2.9784577	<s> meɪ	-0.1162864
-2.2427323	sɛvən meɪ	-0.1162864
-1.8374087	twɛnti fɜːst	-0.1162864
-0.8318571	ɑːktoʊbɚ fɜːst	-0.1162864
-2.6385162	<s> ɑːktoʊbɚ	-0.1162864
-2.9922547	<s> dʒænjuːɛɹi	-0.1162864
-2.2581477	faɪv sɪkstiːn	-0.1162864
-2.285335	sɪks sɪkstiːn	-0.1162864
-3.1903627	<s> dᵻsɛmbɚɹ	-0.1162864
-0.3570433	dᵻsɛmbɚɹ eɪtiːnθ	-0.1162864
-2.9922547	<s> dʒuːlaɪ	-0.1162864
-0.83166075	ɑːktoʊbɚ θɜːɾiəθ	-0.1162864
-0.6566816	dʒuːlaɪ θɜːɾiəθ	-0.1162864
-0.35676658	eɪpɹəl θɜːɾiəθ	-0.1162864
-0.65681285	dʒænjuːɛɹi twɛlfθ	-0.1162864
-0.65681285	dʒuːlaɪ twɛlfθ	-0.1162864
-1.8424317	twɛnti sɛvənθ	-0.1162864
-2.1615071	naɪn ʌv	-0.1162864
-2.4595404	<s> ɔːɡəst	-0.18418093
-0.6572338	ɔːɡəst sɪkstiːnθ	-0.1162864
-1.8424317	twɛnti sɛkənd	-0.1162864
-3.1687865	<s> fɛbɹuːɛɹi	-0.1162864
-0.35683239	eɪtiːn fɛbɹuːɛɹi	-0.1162864
-0.6572338	fɛbɹuːɛɹi eɪtθ	-0.1162864
-0.83248717	meɪ naɪnθ	-0.1162864
-0.83248717	sɛptɛmbɚ sɪksθ	-0.1162864
-3.1903627	<s> eɪtiːn	-0.1162864
-3.1903627	<s> eɪpɹəl	-0.1162864
-1.8424317	twɛnti foːɹθ	-0.1162864

\3-grams:
-1.3281558	ɑːɹ aɪ </s>	0
-1.1255705	eɪtʃ aɪ </s>	0
-1.0737998	keɪ aɪ </s>	0
-0.5205753	tuː sɪksti </s>	0
-0.9443582	ɛntɚ sɪksti </s>	0
-1.2654632	naɪntiːn sɪksti </s>	0
-0.7348486	sɪkstiːn sɪksti </s>	0
-0.5205753	ʌv sɪksti </s>	0
-0.12250374	sɪksti wʌn </s>	0
-0.7096538	wʌn wʌn </s>	0
-0.81648725	tuː wʌn </s>	0
-0.407938	eɪɾi wʌn </s>	0
-0.63024384	naɪn wʌn </s>	0
-0.5631337	waɪ wʌn </s>	0
-0.73917496	eɪt wʌn </s>	0
-0.6830574	faɪv wʌn </s>	0
-0.6324687	sɪks wʌn </s>	0
-0.407938	eɪtʃ wʌn </s>	0
-0.67241335	foːɹ wʌn </s>	0
-0.49099454	fɪfti wʌn </s>	0
-0.7147868	θɹiː wʌn </s>	0
-0.31005362	fɔːɹɾi wʌn </s>	0
-0.407938	kjuː wʌn </s>	0
-0.51280993	θɜːɾi wʌn </s>	0
-0.5383807	oʊ wʌn </s>	0
-0.69256765	sɛvən wʌn </s>	0
-0.5631337	dʒeɪ wʌn </s>	0
-0.12250374	sɛvənti wʌn </s>	0
-0.407938	twɛnti wʌn </s>	0
-0.407938	naɪnti wʌn </s>	0
-1.149183	ɑːɹ dʒiː </s>	0
-1.2402977	ɛn dʒiː </s>	0
-0.26586866	sɪksti tuː </s>	0
-0.742512	wʌn tuː </s>	0
-0.7518688	tuː tuː </s>	0
-0.48045284	naɪn tuː </s>	0
-0.7559817	eɪt tuː </s>	0
-0.6049872	faɪv tuː </s>	0
-0.58574104	sɪks tuː </s>	0
-0.39845103	eɪtʃ tuː </s>	0
-0.5496346	ziəɹoʊ tuː </s>	0
-0.63013583	foːɹ tuː </s>	0
-0.6510169	ɛntɚ tuː </s>	0
-0.39845103	ɐ tuː </s>	0
-0.5496346	fɪfti tuː </s>	0
-0.5986999	θɹiː tuː </s>	0
-0.30368677	fɔːɹɾi tuː </s>	0
-0.36885464	θɜːɾi tuː </s>	0
-0.41321668	ɛf tuː </s>	0
-0.39845103	ziː tuː </s>	0
-0.58574104	oʊ tuː </s>	0
-0.39845103	ɛl tuː </s>	0
-0.39845103	ɛm tuː </s>	0
-0.19616704	sɛvənti tuː </s>	0
-0.5496346	twɛnti tuː </s>	0
-0.39845103	siː tuː </s>	0
-0.34068954	ɛks naɪn </s>	0
-0.107552715	sɪksti naɪn </s>	0
-0.55706847	wʌn naɪn </s>	0
-0.51783246	tuː naɪn </s>	0
-0.35965717	eɪɾi naɪn </s>	0
-0.32210648	naɪn naɪn </s>	0
-0.4732387	eɪt naɪn </s>	0
-0.45506632	faɪv naɪn </s>	0
-0.37126142	sɪks naɪn </s>	0
-0.55255985	foːɹ naɪn </s>	0
-0.55255985	ɛntɚ naɪn </s>	0
-0.34068954	viː naɪn </s>	0
-0.34068954	fɪfti naɪn </s>	0
-0.41679087	θɹiː naɪn </s>	0
-0.35965717	fɔːɹɾi naɪn </s>	0
-0.2639516	θɜːɾi naɪn </s>	0
-0.5232297	oʊ naɪn </s>	0
-0.34068954	keɪ naɪn </s>	0
-0.35965717	sɛvənti naɪn </s>	0
-0.35965717	twɛnti naɪn </s>	0
-0.023392128	<s> jɛs </s>	0
-0.7321863	iː ɑːɹ </s>	0
-1.1543244	oʊ ɑːɹ </s>	0
-0.8317873	aɪ iː </s>	0
-1.000696	ɑːɹ iː </s>	0
-1.1455426	tiː iː </s>	0
-0.7703221	viː iː </s>	0
-0.74453896	juː iː </s>	0
-0.526466	oʊ iː </s>	0
-0.8772851	ɛn iː </s>	0
-0.8054232	ɛl iː </s>	0
-0.7556491	diː iː </s>	0
-0.97657615	ɛs iː </s>	0
-0.91595614	siː iː </s>	0
-0.94665664	iː dʌbəljuː </s>	0
-0.9077644	ɐ dʌbəljuː </s>	0
-0.7771816	oʊ dʌbəljuː </s>	0
-0.59413815	ɑːɹ waɪ </s>	0
-0.43584627	iː waɪ </s>	0
-0.6557269	eɪtʃ waɪ </s>	0
-0.42303157	oʊ waɪ </s>	0
-0.50782	ɛl waɪ </s>	0
-0.32008845	keɪ waɪ </s>	0
-0.58487517	ɛm waɪ </s>	0
-0.58487517	diː waɪ </s>	0
-0.58487517	siː waɪ </s>	0
-0.19555084	sɪksti eɪt </s>	0
-0.5482978	wʌn eɪt </s>	0
-0.59132683	tuː eɪt </s>	0
-0.39683095	eɪɾi eɪt </s>	0
-0.3025949	dʌbəljuː eɪt </s>	0
-0.42433953	faɪv eɪt </s>	0
-0.6520832	sɪks eɪt </s>	0
-0.7399217	foːɹ eɪt </s>	0
-0.42433953	fɪfti eɪt </s>	0
-0.31845015	θɹiː eɪt </s>	0
-0.39683095	fɔːɹɾi eɪt </s>	0
-0.39683095	biː eɪt </s>	0
-0.3025949	θɜːɾi eɪt </s>	0
-0.39683095	ɛf eɪt </s>	0
-0.5482978	oʊ eɪt </s>	0
-0.5363888	sɛvən eɪt </s>	0
-0.39683095	sɛvənti eɪt </s>	0
-0.674964	twɛnti eɪt </s>	0
-0.39683095	naɪnti eɪt </s>	0
-0.39710593	aɪ faɪv </s>	0
-0.30278036	sɪksti faɪv </s>	0
-0.5880144	wʌn faɪv </s>	0
-0.63136506	tuː faɪv </s>	0
-0.39710593	eɪɾi faɪv </s>	0
-0.6882204	naɪn faɪv </s>	0
-0.6441568	eɪt faɪv </s>	0
-0.47896022	faɪv faɪv </s>	0
-0.52474725	sɪks faɪv </s>	0
-0.64861375	ɛntɚ faɪv </s>	0
-0.3677797	fɪfti faɪv </s>	0
-0.6882204	θɹiː faɪv </s>	0
-0.19565555	fɔːɹɾi faɪv </s>	0
-0.39710593	biː faɪv </s>	0
-0.26518995	θɜːɾi faɪv </s>	0
-0.5477306	juː faɪv </s>	0
-0.26518995	oʊ faɪv </s>	0
-0.39710593	twɛnti faɪv </s>	0
-0.39710593	naɪnti faɪv </s>	0
-0.28842553	sɪksti sɪks </s>	0
-0.5028128	wʌn sɪks </s>	0
-0.4489291	tuː sɪks </s>	0
-0.19651347	eɪɾi sɪks </s>	0
-0.60001343	naɪn sɪks </s>	0
-0.5612921	eɪt sɪks </s>	0
-0.73955405	faɪv sɪks </s>	0
-0.6461719	sɪks sɪks </s>	0
-0.4694757	ziəɹoʊ sɪks </s>	0
-0.5870811	foːɹ sɪks </s>	0
-0.6926446	ɛntɚ sɪks </s>	0
-0.616031	ɐ sɪks </s>	0
-0.4694757	fɪfti sɪks </s>	0
-0.39936355	fɔːɹɾi sɪks </s>	0
-0.39936355	biː sɪks </s>	0
-0.3043011	θɜːɾi sɪks </s>	0
-0.5394889	oʊ sɪks </s>	0
-0.616031	sɛvən sɪks </s>	0
-0.48146564	twɛnti sɪks </s>	0
-0.3043011	naɪnti sɪks </s>	0
-0.027922017	<s> noʊ </s>	0
-0.7826152	dʒiː eɪtʃ </s>	0
-0.88733953	tiː eɪtʃ </s>	0
-0.9722462	piː eɪtʃ </s>	0
-1.1851144	siː eɪtʃ </s>	0
-0.22162901	ɛks ziəɹoʊ </s>	0
-0.40425488	tuː ziəɹoʊ </s>	0
-0.28158295	naɪn ziəɹoʊ </s>	0
-0.3524735	eɪt ziəɹoʊ </s>	0
-0.49032035	faɪv ziəɹoʊ </s>	0
-0.28158295	foːɹ ziəɹoʊ </s>	0
-0.28158295	ɛntɚ ziəɹoʊ </s>	0
-0.43617177	θɹiː ziəɹoʊ </s>	0
-0.30434406	sɛvən ziəɹoʊ </s>	0
-0.28158295	ɛl ziəɹoʊ </s>	0
-0.28158295	ɛs ziəɹoʊ </s>	0
-0.40192816	aɪ foːɹ </s>	0
-0.26761842	sɪksti foːɹ </s>	0
-0.40397668	tuː foːɹ </s>	0
-0.40192816	eɪɾi foːɹ </s>	0
-0.48431355	naɪn foːɹ </s>	0
-0.42487103	eɪt foːɹ </s>	0
-0.70346534	faɪv foːɹ </s>	0
-0.48314577	sɪks foːɹ </s>	0
-0.40192816	eɪtʃ foːɹ </s>	0
-0.5911208	foːɹ foːɹ </s>	0
-0.65725666	ɛntɚ foːɹ </s>	0
-0.40192816	fɪfti foːɹ </s>	0
-0.70346534	θɹiː foːɹ </s>	0
-0.40192816	fɔːɹɾi foːɹ </s>	0
-0.40192816	piː foːɹ </s>	0
-0.6202628	oʊ foːɹ </s>	0
-0.48431355	sɛvən foːɹ </s>	0
-0.30602565	naɪnti foːɹ </s>	0
-0.045579676	<s> stɑːɹt </s>	0
-0.4651748	ɑːɹ tiː </s>	0
-0.61287636	iː tiː </s>	0
-0.82499975	tiː tiː </s>	0
-1.1023057	ɐ tiː </s>	0
-0.9966374	ɛn tiː </s>	0
-0.86047125	ɛs tiː </s>	0
-0.9465426	wʌn fɪfti </s>	0
-0.56911254	tiː fɪfti </s>	0
-0.1695362	sɪksti θɹiː </s>	0
-0.48945767	wʌn θɹiː </s>	0
-0.58661175	tuː θɹiː </s>	0
-0.39001378	eɪɾi θɹiː </s>	0
-0.6631476	naɪn θɹiː </s>	0
-0.59307915	eɪt θɹiː </s>	0
-0.7357471	faɪv θɹiː </s>	0
-0.62013304	sɪks θɹiː </s>	0
-0.5158678	foːɹ θɹiː </s>	0
-0.5377319	ɛntɚ θɹiː </s>	0
-0.5377319	fɪfti θɹiː </s>	0
-0.60514814	θɹiː θɹiː </s>	0
-0.63603795	fɔːɹɾi θɹiː </s>	0
-0.29798606	θɜːɾi θɹiː </s>	0
-0.39001378	juː θɹiː </s>	0
-0.6007384	oʊ θɹiː </s>	0
-0.6007384	sɛvən θɹiː </s>	0
-0.26159403	twɛnti θɹiː </s>	0
-0.7812531	<s> θɜːɾi </s>	0
-0.64934975	faɪv θɜːɾi </s>	0
-0.64934975	sɪks θɜːɾi </s>	0
-0.46640384	viː θɜːɾi </s>	0
-0.64934975	sɛvən θɜːɾi </s>	0
-0.9940314	ɛm juː </s>	0
-1.0015955	ɛf ɛf </s>	0
-0.58326364	tiː ziː </s>	0
-0.52844936	aɪ oʊ </s>	0
-1.1314636	wʌn oʊ </s>	0
-1.1471906	ɑːɹ oʊ </s>	0
-0.85520434	eɪt oʊ </s>	0
-0.7931458	faɪv oʊ </s>	0
-1.0127522	sɪks oʊ </s>	0
-0.92083514	ɛn oʊ </s>	0
-1.0127522	sɛvən oʊ </s>	0
-0.9655718	dʒeɪ oʊ </s>	0
-1.054793	diː oʊ </s>	0
-1.1991267	ɛs oʊ </s>	0
-0.75924194	aɪ ɛn </s>	0
-0.97612935	ɑːɹ ɛn </s>	0
-0.7181697	iː ɛn </s>	0
-0.8506485	dʌbəljuː ɛn </s>	0
-0.62885135	ɐ ɛn </s>	0
-0.887218	oʊ ɛn </s>	0
-0.7893762	ɛn ɛn </s>	0
-0.16746318	sɪksti sɛvən </s>	0
-0.6457633	wʌn sɛvən </s>	0
-0.55647004	tuː sɛvən </s>	0
-0.38300675	eɪɾi sɛvən </s>	0
-0.538983	eɪt sɛvən </s>	0
-0.52366674	faɪv sɛvən </s>	0
-0.55378246	sɪks sɛvən </s>	0
-0.5279179	ziəɹoʊ sɛvən </s>	0
-0.5946245	foːɹ sɛvən </s>	0
-0.6457633	ɛntɚ sɛvən </s>	0
-0.38300675	viː sɛvən </s>	0
-0.5279179	fɪfti sɛvən </s>	0
-0.39894712	fɔːɹɾi sɛvən </s>	0
-0.2932245	θɜːɾi sɛvən </s>	0
-0.4113047	oʊ sɛvən </s>	0
-0.39894712	sɛvən sɛvən </s>	0
-0.38300675	ɛm sɛvən </s>	0
-0.2932245	sɛvənti sɛvən </s>	0
-0.5279179	twɛnti sɛvən </s>	0
-0.38300675	naɪnti sɛvən </s>	0
-1.1982408	aɪ ɛl </s>	0
-1.2307881	ɑːɹ ɛl </s>	0
-0.84279984	iː ɛl </s>	0
-1.0327787	ɛl ɛl </s>	0
-0.72715276	aɪ keɪ </s>	0
-0.7712976	ɑːɹ keɪ </s>	0
-0.5158603	iː keɪ </s>	0
-0.72715276	viː keɪ </s>	0
-0.7796987	siː keɪ </s>	0
-0.78085536	oʊ ɛm </s>	0
-0.98462456	ɛm ɛm </s>	0
-0.041232646	<s> hɛlp </s>	0
-0.27374363	aɪ fɪftiːn </s>	0
-0.27374363	wʌn fɪftiːn </s>	0
-0.27374363	ɛntɚ fɪftiːn </s>	0
-0.027922017	<s> ɹᵻpiːt </s>	0
-0.8963517	aɪ diː </s>	0
-0.68316025	ɑːɹ diː </s>	0
-0.84437877	ɐ diː </s>	0
-0.8963517	oʊ diː </s>	0
-1.0230831	ɛn diː </s>	0
-0.77560425	ɛl diː </s>	0
-0.49312955	wʌn sɛvənti </s>	0
-0.69076145	θɹiː sɛvənti </s>	0
-0.3651318	naɪntiːn sɛvənti </s>	0
-0.06668005	<s> ɡoʊ </s>	0
-0.029848913	<s> stɑːp </s>	0
-0.5270624	aɪ ɛs </s>	0
-0.45338023	dʒiː ɛs </s>	0
-0.4407073	iː ɛs </s>	0
-0.68011296	ɐ ɛs </s>	0
-0.6296563	biː ɛs </s>	0
-0.6296563	piː ɛs </s>	0
-0.75477993	ɛn ɛs </s>	0
-0.6296563	keɪ ɛs </s>	0
-0.6296563	ɛm ɛs </s>	0
-0.6296563	diː ɛs </s>	0
-0.8476604	naɪn twɛnti </s>	0
-0.43154418	θɹiː sɛvəntiːn </s>	0
-0.43154418	piː sɛvəntiːn </s>	0
-0.2875311	wʌn tɛn </s>	0
-0.2875311	tuː tɛn </s>	0
-0.2875311	faɪv tɛn </s>	0
-0.22596155	sɛvən tɛn </s>	0
-0.2875311	tɛn tɛn </s>	0
-1.3187265	aɪ siː </s>	0
-0.48999262	ɛntɚ foːɹtiːn </s>	0
-0.48999262	foːɹtiːn foːɹtiːn </s>	0
-0.5208908	wʌn θaʊzənd </s>	0
-0.5304255	sɪks twɛlv </s>	0
-0.71989924	wʌn hʌndɹɪd </s>	0
-0.51138675	naɪn hʌndɹɪd </s>	0
-0.042746667	aɪ eɪ </s>	0
-0.042746667	ɑːɹ eɪ </s>	0
-0.042746667	iː eɪ </s>	0
-0.042746667	viː eɪ </s>	0
-0.035519086	ɛn eɪ </s>	0
-0.035519086	ɛl eɪ </s>	0
-0.042746667	diː eɪ </s>	0
-0.035519086	siː eɪ </s>	0
-0.042746667	foːɹtiːn eɪ </s>	0
-0.23026328	ɐ hæf </s>	0
-0.47265032	wʌn ᵻlɛvən </s>	0
-0.58172035	iː ɛks ɛks	-0.034593176
-0.58172035	ɐ ɛks ɛks	-0.034593176
-0.9113069	ᵻɹeɪs iː ɛks	-0.034593176
-0.60686284	tiː dʌbəljuː ɛks	-0.034593176
-1.4939864	<s> ᵻɹeɪs ɛks	-0.034593176
-1.3149087	dʒiː eɪtʃ ɛks	-0.034593176
-1.0340569	ᵻɹeɪs viː ɛks	-0.034593176
-1.6587749	eɪtʃ ɐ ɛks	-0.034593176
-1.0397043	eɪtʃ biː ɛks	-0.034593176
-1.0397043	ɛn biː ɛks	-0.034593176
-0.57276666	dʒeɪ biː ɛks	-0.034593176
-0.8860364	piː juː ɛks	-0.034593176
-0.8230635	waɪ ɛf ɛks	-0.034593176
-0.5722766	kjuː ɛf ɛks	-0.034593176
-0.9541261	ɛl ɛf ɛks	-0.034593176
-0.87631	ɛn ziː ɛks	-0.034593176
-1.698419	<s> ɹuːbaʊt ɛks	-0.034593176
-1.6163619	oʊ ɛn ɛks	-0.034593176
-1.1609889	ɹuːbaʊt ɛn ɛks	-0.034593176
-0.8744785	tiː keɪ ɛks	-0.034593176
-0.8744785	kjuː keɪ ɛks	-0.034593176
-1.4955999	ɐ ɛm ɛks	-0.034593176
-0.5999551	biː dʒeɪ ɛks	-0.034593176
-0.89747703	ɛks ɛs ɛks	-0.034593176
-1.0986164	<s> ɛks aɪ	-0.034593176
-0.8323746	<s> dʒiː aɪ	0
-0.51180094	ɛks dʒiː aɪ	-0.034593176
-0.90080094	aɪ dʒiː aɪ	-0.034593176
-0.88084435	iː dʒiː aɪ	-0.034593176
-0.51180094	ɛf dʒiː aɪ	-0.034593176
-0.72056884	ɛl dʒiː aɪ	-0.034593176
-0.9253971	<s> ɑːɹ aɪ	-0.13018914
-1.0746039	iː ɑːɹ aɪ	-0.034593206
-0.5158224	dʌbəljuː ɑːɹ aɪ	-0.034593176
-0.7270912	eɪtʃ ɑːɹ aɪ	-0.034593176
-0.977277	biː ɑːɹ aɪ	-0.034593176
-0.5158224	piː ɑːɹ aɪ	-0.034593176
-0.9847897	juː ɑːɹ aɪ	-0.034593176
-0.8288332	ɛf ɑːɹ aɪ	-0.034593176
-0.6811129	diː ɑːɹ aɪ	0
-1.0088482	dʌbəljuː iː aɪ	-0.034593176
-1.2383159	eɪtʃ iː aɪ	-0.034593176
-1.2737714	ɛf iː aɪ	-0.034593176
-1.4774991	ɛn iː aɪ	-0.034593176
-0.9110483	<s> dʌbəljuː aɪ	-0.13018914
-1.1364808	iː dʌbəljuː aɪ	-0.034593176
-0.71894747	diː dʌbəljuː aɪ	-0.034593176
-0.764683	ɛs dʌbəljuː aɪ	-0.034593176
-1.2703037	<s> ᵻɹeɪs aɪ	-0.034593176
-1.0691395	<s> eɪtʃ aɪ	-0.034593176
-0.7992277	dʌbəljuː eɪtʃ aɪ	-0.034593176
-0.9998073	piː eɪtʃ aɪ	-0.034593176
-1.2270961	siː eɪtʃ aɪ	-0.034593176
-1.0355303	<s> tiː aɪ	-0.13018914
-1.1975102	tiː tiː aɪ	-0.034593176
-1.0184895	juː tiː aɪ	-0.034593176
-1.2277329	ɛs tiː aɪ	-0.034593176
-0.49014395	ɛks viː aɪ	-0.034593176
-0.68606454	dʒiː viː aɪ	-0.034593176
-0.74538183	ɐ viː aɪ	-0.034593176
-0.49014395	biː viː aɪ	-0.034593176
-0.777593	ɛs viː aɪ	-0.034593176
-1.1276659	ɐ ɐ aɪ	-0.034593176
-1.2092961	biː ɐ aɪ	-0.034593176
-0.8753082	juː ɐ aɪ	-0.034593176
-0.60518026	juː biː aɪ	-0.034593176
-0.59356374	oʊ kjuː aɪ	-0.034593176
-0.14262956	<s> piː aɪ	-0.997398
-0.58980817	ɛks piː aɪ	-0.034593176
-0.87863874	dʒeɪ juː aɪ	-0.034593176
-0.9176426	<s> ɛf aɪ	-0.034593206
-0.8666173	ɑːɹ ɛf aɪ	-0.034593176
-0.98625195	<s> ziː aɪ	-0.034593176
-0.58532465	ɛks ziː aɪ	-0.034593176
-1.5149605	<s> ɹuːbaʊt aɪ	-0.034593176
-1.2327532	<s> ɛn aɪ	-0.034593176
-1.2944851	aɪ ɛn aɪ	-0.034593176
-0.8967481	dʌbəljuː ɛn aɪ	-0.034593176
-1.2805692	ɐ ɛn aɪ	-0.034593176
-1.0472512	oʊ ɛn aɪ	-0.034593176
-1.0977552	ɛn ɛn aɪ	-0.034593176
-0.98495424	<s> ɛl aɪ	-0.13018914
-1.3320285	iː ɛl aɪ	-0.034593176
-0.89002365	dʌbəljuː ɛl aɪ	-0.034593176
-1.1805016	ɐ ɛl aɪ	-0.034593176
-0.54605544	juː ɛl aɪ	-0.13018914
-0.8508336	ɛl ɛl aɪ	-0.034593176
-1.1825845	ɑːɹ keɪ aɪ	-0.034593176
-0.950848	ɛl keɪ aɪ	-0.034593176
-0.7566902	ɛs keɪ aɪ	-0.034593176
-1.1691326	<s> ɛm aɪ	-0.09593198
-0.99008274	aɪ ɛm aɪ	-0.034593176
-0.7828204	juː ɛm aɪ	-0.034593176
-0.7828204	ɛs ɛm aɪ	-0.034593176
-1.3569658	ɛl diː aɪ	-0.034593176
-1.15816	juː ɛs aɪ	-0.034593176
-1.5982275	<s> siː aɪ	-0.034593176
-0.61178946	ɛks aɪ sɪksti	-0.034593176
-1.5405837	tuː wʌn sɪksti	-0.034593176
-1.30973	θɜːɾi wʌn sɪksti	-0.034593176
-0.5990287	juː wʌn sɪksti	-0.034593176
-0.9083663	keɪ tuː sɪksti	-0.034593176
-0.61126435	ᵻlɛvən naɪn sɪksti	-0.034593176
-0.8988718	eɪtʃ ɑːɹ sɪksti	-0.034593176
-0.7290184	twɛnti eɪt sɪksti	-0.034593176
-1.3172638	fɪfti sɪks sɪksti	-0.034593176
-1.1681657	twɛnti sɪks sɪksti	-0.034593176
-1.0488012	twɛnti foːɹ sɪksti	-0.034593176
-0.60910577	twɛlv foːɹ sɪksti	-0.034593176
-0.9794561	<s> ɛntɚ sɪksti	-0.04261524
-1.0499735	ɛf tiː sɪksti	-0.034593176
-1.1070446	ɛntɚ fɪfti sɪksti	-0.034593176
-1.3060905	sɪksti θɹiː sɪksti	-0.034593176
-0.5728959	waɪ θɹiː sɪksti	-0.034593176
-1.2501311	sɪks θɹiː sɪksti	-0.034593176
-1.1599625	twɛnti θɹiː sɪksti	-0.034593176
-0.8714707	naɪn θɜːɾi sɪksti	-0.034593176
-0.5842468	ziː ziː sɪksti	-0.034593176
-0.84462374	keɪ ziː sɪksti	-0.034593176
-1.0707641	ziː oʊ sɪksti	-0.034593176
-1.3080783	foːɹ sɛvən sɪksti	-0.034593176
-0.59092885	ɛs sɛvən sɪksti	-0.034593176
-0.8568715	twɛnti sɛvən sɪksti	-0.034593176
-0.50911653	tuː fɪftiːn sɪksti	-0.034593176
-0.5649351	twɛlv tɛn sɪksti	-0.034593176
-0.37643132	eɪt foːɹtiːn sɪksti	-0.034593176
-0.37643132	θɹiː foːɹtiːn sɪksti	-0.034593176
-0.51876533	sɛvən foːɹtiːn sɪksti	-0.034593176
-0.5432123	tɛn twɛlv sɪksti	-0.034593176
-0.93923527	hʌndɹɪd ænd sɪksti	-0.034593176
-0.48382366	θɹiː ᵻlɛvən sɪksti	-0.034593176
-0.16967568	twɛlv naɪntiːn sɪksti	-0.034593176
-0.16967568	fɪfθ naɪntiːn sɪksti	-0.034593176
-0.2524841	θɜːd naɪntiːn sɪksti	-0.034593176
-0.16967568	ᵻlɛvənθ naɪntiːn sɪksti	-0.034593176
-0.13723747	fɪftiːnθ naɪntiːn sɪksti	-0.034593176
-0.13723747	fɜːst naɪntiːn sɪksti	-0.034593176
-0.1313579	θɜːɾiəθ naɪntiːn sɪksti	-0.034593206
-0.13723747	twɛlfθ naɪntiːn sɪksti	-0.034593176
-0.16967568	sɛvənθ naɪntiːn sɪksti	-0.034593176
-0.16967568	sɪkstiːnθ naɪntiːn sɪksti	-0.034593176
-0.16967568	sɛkənd naɪntiːn sɪksti	-0.034593176
-0.16967568	sɪksθ naɪntiːn sɪksti	-0.034593176
-0.2717953	faɪv sɪkstiːn sɪksti	-0.034593176
-0.2717953	sɪks sɪkstiːn sɪksti	-0.034593176
-0.23662242	naɪn ʌv sɪksti	-0.034593176
-0.23662242	meɪ naɪnθ sɪksti	-0.034593176
-0.5033355	aɪ sɪksti wʌn	-0.034593176
-0.5033355	ɑːɹ sɪksti wʌn	-0.034593176
-0.70695955	eɪt sɪksti wʌn	-0.034593176
-0.9000367	ɛntɚ sɪksti wʌn	-0.034593176
-0.8035392	foːɹtiːn sɪksti wʌn	-0.034593176
-1.0586323	naɪntiːn sɪksti wʌn	-0.13018914
-1.1953087	eɪt wʌn wʌn	-0.034593176
-1.0261024	faɪv wʌn wʌn	-0.034593176
-0.9723786	ziəɹoʊ wʌn wʌn	-0.034593176
-1.2831827	foːɹ wʌn wʌn	-0.034593176
-1.1156765	θɹiː wʌn wʌn	-0.034593176
-1.2544737	<s> tuː wʌn	-0.034593176
-1.3401041	wʌn tuː wʌn	-0.034593176
-1.1689473	tuː tuː wʌn	-0.034593176
-1.0412232	faɪv tuː wʌn	-0.070347846
-0.9122105	foːɹ tuː wʌn	-0.034593206
-1.0749624	sɛvən tuː wʌn	-0.034593176
-0.8238382	ænd eɪɾi wʌn	-0.034593176
-1.1830001	<s> naɪn wʌn	-0.034593176
-1.2398182	tuː naɪn wʌn	-0.034593176
-0.6907208	sɛvən naɪn wʌn	-0.13018914
-1.7647867	iː ɑːɹ wʌn	-0.034593176
-1.2270414	ɑːɹ waɪ wʌn	-0.034593176
-0.8577959	viː waɪ wʌn	-0.034593176
-1.2056841	wʌn eɪt wʌn	-0.034593176
-0.97989565	tuː eɪt wʌn	-0.034593176
-1.0753756	sɪks eɪt wʌn	-0.034593176
-1.1413455	ɛntɚɹ eɪt wʌn	-0.034593176
-1.2056841	oʊ eɪt wʌn	-0.034593176
-0.9252394	<s> faɪv wʌn	-0.09593198
-1.232204	wʌn faɪv wʌn	-0.034593176
-1.1060051	tuː faɪv wʌn	-0.034593176
-1.0202141	naɪn faɪv wʌn	-0.034593176
-1.1183989	eɪt faɪv wʌn	-0.034593176
-0.76211643	foːɹ faɪv wʌn	-0.13018914
-1.0016153	sɛvən faɪv wʌn	-0.034593176
-1.1281906	wʌn sɪks wʌn	-0.034593176
-1.0898608	eɪt sɪks wʌn	-0.034593176
-0.8446084	faɪv sɪks wʌn	-0.034593176
-1.1814548	sɪks sɪks wʌn	-0.034593176
-1.0771741	ɛntɚ sɪks wʌn	-0.034593176
-1.0522854	θɹiː sɪks wʌn	-0.034593176
-0.88426363	keɪ eɪtʃ wʌn	-0.034593176
-0.97985	wʌn ziəɹoʊ wʌn	-0.034593176
-0.53361356	sɪks ziəɹoʊ wʌn	-0.034593176
-0.8866519	sɛvən ziəɹoʊ wʌn	-0.034593176
-0.48774427	<s> foːɹ wʌn	-0.5228787
-1.0354036	tuː foːɹ wʌn	-0.13018914
-0.9700441	eɪt foːɹ wʌn	-0.034593176
-0.7336591	ziəɹoʊ foːɹ wʌn	-0.034593176
-0.8835598	foːɹ foːɹ wʌn	-0.034593176
-0.5198486	tiː foːɹ wʌn	-0.034593176
-0.91912574	sɛvən foːɹ wʌn	-0.034593176
-0.5198486	koʊd foːɹ wʌn	-0.034593176
-1.4941976	<s> ɛntɚ wʌn	-0.034593206
-0.8434848	<s> fɪfti wʌn	-0.034593176
-0.9237845	ɛntɚ fɪfti wʌn	-0.034593176
-0.7497988	sɛvəntiːn fɪfti wʌn	-0.034593176
-1.3427705	<s> θɹiː wʌn	-0.034593176
-1.213178	eɪt θɹiː wʌn	-0.034593176
-0.9563021	sɪks θɹiː wʌn	-0.034593176
-0.9527429	sɛvən θɹiː wʌn	-0.034593176
-0.5677541	eɪt fɔːɹɾi wʌn	-0.034593176
-0.94331	ɛntɚ fɔːɹɾi wʌn	-0.034593176
-0.87808824	iː biː wʌn	-0.034593176
-0.85523105	diː kjuː wʌn	-0.034593176
-0.7316589	<s> θɜːɾi wʌn	-0.034593176
-0.33232138	wʌn θɜːɾi wʌn	-0.034593176
-0.45294145	tuː θɜːɾi wʌn	-0.13018914
-0.44167566	ɑːɹ θɜːɾi wʌn	-0.034593176
-0.44167566	ɛl θɜːɾi wʌn	-0.034593176
-0.44167566	tɛn θɜːɾi wʌn	-0.034593176
-0.8723967	waɪ juː wʌn	-0.034593176
-1.3822675	wʌn oʊ wʌn	-0.034593176
-1.2675306	tuː oʊ wʌn	-0.034593176
-1.2361577	faɪv oʊ wʌn	-0.034593176
-1.148727	foːɹ oʊ wʌn	-0.034593176
-1.0735812	θɹiː oʊ wʌn	-0.034593176
-0.9986646	tuː sɛvən wʌn	-0.034593176
-1.1624886	eɪt sɛvən wʌn	-0.034593176
-1.1175939	θɹiː sɛvən wʌn	-0.034593176
-0.5747285	siː sɛvən wʌn	-0.034593176
-0.8365027	ɛm dʒeɪ wʌn	-0.034593176
-0.579769	diː dʒeɪ wʌn	-0.034593176
-1.207865	iː diː wʌn	-0.034593176
-1.025377	kjuː diː wʌn	-0.034593176
-0.27684104	eɪt sɛvənti wʌn	-0.13018914
-0.35916644	foːɹ sɛvənti wʌn	-0.034593176
-0.55168176	ɛntɚ sɛvənti wʌn	-0.034593176
-0.49498522	θɹiː sɛvənti wʌn	-0.034593176
-0.35916644	ɛn sɛvənti wʌn	-0.034593176
-0.35916644	tɛn sɛvənti wʌn	-0.034593176
-0.60728484	viː ɛs wʌn	-0.034593176
-0.8650761	foːɹ twɛnti wʌn	-0.034593176
-0.54017663	foːɹ naɪnti wʌn	-0.034593176
-0.5316094	sɛvən θaʊzənd wʌn	-0.034593176
-1.1026392	<s> ɛks dʒiː	-0.034593176
-1.2963673	ɑːɹ aɪ dʒiː	-0.034593176
-0.8260864	ᵻɹeɪs aɪ dʒiː	-0.034593176
-1.103599	eɪtʃ aɪ dʒiː	-0.034593176
-1.254895	ɛl aɪ dʒiː	-0.034593176
-1.3648571	<s> ɑːɹ dʒiː	-0.034593176
-1.4800137	ɐ ɑːɹ dʒiː	-0.034593176
-1.210448	juː ɑːɹ dʒiː	-0.034593176
-1.2567077	diː ɑːɹ dʒiː	-0.034593176
-1.4085968	biː iː dʒiː	-0.034593176
-1.3244356	ɛf iː dʒiː	-0.034593176
-1.2199712	ɛn iː dʒiː	-0.034593176
-1.4188794	oʊ dʌbəljuː dʒiː	-0.034593176
-0.6043956	ziː waɪ dʒiː	-0.034593176
-1.2755966	<s> ᵻɹeɪs dʒiː	-0.034593176
-1.0377581	oʊ eɪtʃ dʒiː	-0.034593176
-0.8779613	dʒeɪ eɪtʃ dʒiː	-0.034593176
-1.2769144	tiː tiː dʒiː	-0.034593176
-0.9835182	ɹuːbaʊt tiː dʒiː	-0.034593176
-0.5842366	ɛm tiː dʒiː	-0.034593176
-1.2110943	<s> ɐ dʒiː	-0.13018914
-1.1294402	ziː ɐ dʒiː	-0.034593176
-1.3542393	ɛn ɐ dʒiː	-0.034593176
-1.1458225	eɪtʃ biː dʒiː	-0.034593176
-1.0103675	aɪ kjuː dʒiː	-0.034593176
-1.5843965	<s> piː dʒiː	0
-1.2117584	oʊ juː dʒiː	-0.034593176
-1.0206468	ɹuːbaʊt juː dʒiː	-0.034593176
-0.566169	diː juː dʒiː	-0.034593176
-0.60546327	ɛm ɛf dʒiː	-0.034593176
-0.8710692	ɹuːbaʊt ziː dʒiː	-0.034593176
-1.1888411	ɹuːbaʊt oʊ dʒiː	-0.034593176
-1.522741	<s> ɹuːbaʊt dʒiː	-0.034593176
-1.3523803	<s> ɛn dʒiː	-0.034593176
-0.8260375	aɪ ɛn dʒiː	-0.034593176
-1.4227477	ɐ ɛn dʒiː	-0.034593176
-1.3715817	oʊ ɛn dʒiː	-0.034593176
-1.355726	dʒiː ɛl dʒiː	-0.034593176
-1.6848549	iː ɛl dʒiː	-0.034593176
-1.8137623	<s> ɛm dʒiː	-0.034593176
-0.5969218	ᵻɹeɪs dʒeɪ dʒiː	-0.034593176
-0.5864092	ɛs ɛks tuː	-0.034593176
-0.8465983	wʌn sɪksti tuː	-0.034593176
-0.95450723	ɛntɚ sɪksti tuː	-0.034593176
-0.5243726	oʊ sɪksti tuː	-0.034593176
-0.5243726	fɪftiːn sɪksti tuː	-0.034593176
-0.5243726	naɪnθ sɪksti tuː	-0.034593176
-1.5769999	<s> wʌn tuː	-0.034593206
-0.96341646	tuː wʌn tuː	-0.034593206
-0.9041117	naɪn wʌn tuː	-0.034593176
-0.55081224	ɑːɹ wʌn tuː	-0.034593176
-1.1426506	sɪks wʌn tuː	-0.034593176
-0.9442627	foːɹ wʌn tuː	-0.06418054
-0.7281418	θɹiː wʌn tuː	-0.13018914
-1.4673951	<s> dʒiː tuː	-0.034593176
-1.0102767	ɐ dʒiː tuː	-0.034593176
-1.3134216	<s> tuː tuː	-0.034593176
-1.0220609	wʌn tuː tuː	-0.034593206
-1.0657268	tuː tuː tuː	-0.034593176
-0.9493796	naɪn tuː tuː	-0.034593176
-1.0667027	faɪv tuː tuː	-0.034593176
-1.0495241	sɪks tuː tuː	-0.034593176
-0.8506975	foːɹ tuː tuː	-0.034593206
-1.0495241	oʊ tuː tuː	-0.034593176
-0.9773578	sɛvən tuː tuː	-0.034593176
-1.1111262	<s> naɪn tuː	-0.034593176
-1.0821259	faɪv naɪn tuː	-0.034593176
-1.0924664	sɪks naɪn tuː	-0.034593176
-1.027359	sɛvən naɪn tuː	-0.034593176
-1.7471931	ɛl iː tuː	-0.034593176
-0.5987996	dʌbəljuː dʌbəljuː tuː	-0.034593176
-1.0564522	<s> eɪt tuː	-0.034593176
-1.1005559	wʌn eɪt tuː	-0.034593176
-1.142983	tuː eɪt tuː	-0.034593176
-1.0462997	eɪt eɪt tuː	-0.034593176
-0.5349181	ziəɹoʊ eɪt tuː	-0.034593176
-0.8476075	foːɹ eɪt tuː	-0.034593176
-1.0436015	ɛntɚɹ eɪt tuː	-0.034593176
-0.5646744	<s> faɪv tuː	-0.013508419
-1.0961354	wʌn faɪv tuː	-0.034593206
-0.80359674	tuː faɪv tuː	-0.034593206
-0.9116445	naɪn faɪv tuː	-0.034593176
-0.86847353	faɪv faɪv tuː	-0.034593176
-0.9279302	foːɹ faɪv tuː	-0.034593176
-0.84729105	ɛntɚ faɪv tuː	-0.034593176
-0.9116445	θɹiː faɪv tuː	-0.034593176
-0.6970966	juː faɪv tuː	-0.034593176
-0.90316254	sɛvən faɪv tuː	-0.034593176
-1.3142368	<s> sɪks tuː	-0.034593176
-1.1259583	wʌn sɪks tuː	-0.034593176
-1.1285796	naɪn sɪks tuː	-0.034593176
-0.921157	sɪks sɪks tuː	-0.034593176
-1.0750102	ɛntɚ sɪks tuː	-0.034593176
-0.55300593	kjuː sɪks tuː	-0.034593176
-0.60424006	biː eɪtʃ tuː	-0.034593176
-1.0764998	eɪt ziəɹoʊ tuː	-0.034593176
-0.9761594	θɹiː ziəɹoʊ tuː	-0.034593176
-0.7849708	<s> foːɹ tuː	0
-0.7634491	tuː foːɹ tuː	-0.070347846
-1.0871029	eɪt foːɹ tuː	-0.13018914
-1.1181122	faɪv foːɹ tuː	-0.034593176
-1.1151149	<s> ɛntɚ tuː	-0.09593198
-1.3927605	diː ɐ tuː	-0.034593176
-0.5764226	eɪtʃ fɪfti tuː	-0.034593176
-0.4151976	naɪntiːn fɪfti tuː	-0.13018914
-1.1987473	<s> θɹiː tuː	-0.034593176
-0.8216787	tuː θɹiː tuː	-0.034593176
-1.0951577	eɪt θɹiː tuː	-0.034593176
-1.0978997	faɪv θɹiː tuː	-0.034593176
-1.1227138	sɪks θɹiː tuː	-0.034593176
-0.54057384	piː θɹiː tuː	-0.034593176
-0.81278735	foːɹ fɔːɹɾi tuː	-0.034593176
-0.81278735	θɹiː fɔːɹɾi tuː	-0.034593176
-0.85201037	tiː kjuː tuː	-0.034593176
-0.8637953	<s> θɜːɾi tuː	-0.034593176
-0.50443006	aɪ θɜːɾi tuː	-0.034593176
-0.50443006	eɪt θɜːɾi tuː	-0.034593176
-0.70871025	sɪks θɜːɾi tuː	-0.034593176
-0.86930907	ɐ juː tuː	-0.034593176
-0.8097459	tiː ɛf tuː	-0.034593176
-0.8097459	juː ɛf tuː	-0.034593176
-0.5647509	siː ɛf tuː	-0.034593176
-0.8597572	waɪ ziː tuː	-0.034593176
-0.9316939	wʌn oʊ tuː	-0.09593198
-1.2244116	tuː oʊ tuː	-0.034593176
-1.1163559	foːɹ oʊ tuː	-0.034593176
-0.9591351	ziː oʊ tuː	-0.034593176
-1.2151887	oʊ oʊ tuː	-0.034593176
-1.1611001	sɛvən oʊ tuː	-0.034593176
-1.1030716	wʌn sɛvən tuː	-0.034593176
-1.2798309	tuː sɛvən tuː	-0.034593176
-0.92422056	foːɹ sɛvən tuː	-0.034593176
-1.1030716	ɛntɚ sɛvən tuː	-0.034593176
-1.0511262	siː ɛl tuː	-0.034593176
-0.8588252	aɪ keɪ tuː	-0.034593176
-0.8588252	dʒeɪ keɪ tuː	-0.034593176
-1.4401188	ɐ ɛm tuː	-0.034593176
-0.87227887	piː diː tuː	-0.034593176
-0.5992129	dʒeɪ diː tuː	-0.034593176
-0.44669187	ɛks sɛvənti tuː	-0.034593176
-0.44669187	naɪn sɛvənti tuː	-0.034593176
-0.69697464	ɛntɚ sɛvənti tuː	-0.034593176
-0.44669187	sɛvən sɛvənti tuː	-0.034593176
-0.58115125	<s> twɛnti tuː	-0.034593176
-0.58115125	wʌn twɛnti tuː	-0.034593176
-1.3579167	aɪ siː tuː	-0.034593176
-0.6126376	kjuː dʒiː eɪɾi	-0.034593176
-0.9143672	dʒiː tuː eɪɾi	-0.034593176
-1.1818593	ɛntɚ naɪn eɪɾi	-0.034593176
-0.61951953	ɛf sɪks eɪɾi	-0.034593176
-0.9877371	<s> ɛntɚɹ eɪɾi	-0.034593176
-1.4849408	ɛs tiː eɪɾi	-0.034593176
-0.9072615	ɛntɚ θɹiː eɪɾi	-0.034593176
-1.4394356	oʊ juː eɪɾi	-0.034593176
-0.8956208	dʒiː keɪ eɪɾi	-0.034593176
-0.55197847	dʌbəljuː foːɹtiːn eɪɾi	-0.034593176
-0.8760954	eɪt hʌndɹɪd eɪɾi	-0.034593176
-0.5283311	faɪv hʌndɹɪd eɪɾi	-0.034593176
-0.5336764	hʌndɹɪd ænd eɪɾi	-0.09593198
-0.9968351	biː ɛks naɪn	-0.034593176
-0.7076432	eɪt sɪksti naɪn	-0.034593176
-0.7076432	sɪks sɪksti naɪn	-0.034593176
-0.3717356	ziː sɪksti naɪn	-0.13018914
-0.50376314	tɛn sɪksti naɪn	-0.034593176
-0.57238364	naɪntiːn sɪksti naɪn	-0.30103
-0.7076432	sɪkstiːn sɪksti naɪn	-0.034593176
-1.7166446	<s> wʌn naɪn	-0.034593176
-1.1725583	tuː wʌn naɪn	-0.034593176
-0.75086683	waɪ wʌn naɪn	-0.034593176
-0.7963708	eɪt wʌn naɪn	-0.13018914
-1.1188256	faɪv wʌn naɪn	-0.034593176
-1.0730712	sɪks wʌn naɪn	-0.034593176
-0.8591087	ɛntɚ wʌn naɪn	-0.034593176
-0.98671645	θɹiː wʌn naɪn	-0.034593176
-0.98671645	oʊ wʌn naɪn	-0.034593176
-1.187146	ɑːɹ dʒiː naɪn	-0.034593176
-1.0163186	tiː dʒiː naɪn	-0.034593176
-1.4621556	<s> tuː naɪn	-0.034593176
-1.1701906	tuː tuː naɪn	-0.034593176
-1.2089558	foːɹ tuː naɪn	-0.034593176
-1.1625049	oʊ tuː naɪn	-0.034593176
-1.0761302	sɛvən tuː naɪn	-0.034593176
-0.81137156	diː tuː naɪn	-0.034593176
-0.4634453	tuː eɪɾi naɪn	-0.034593176
-0.4634453	naɪn eɪɾi naɪn	-0.034593176
-0.4634453	ɛntɚɹ eɪɾi naɪn	-0.034593176
-0.81023836	dʒiː naɪn naɪn	-0.034593176
-1.0997562	eɪt naɪn naɪn	-0.034593176
-1.0174139	foːɹ naɪn naɪn	-0.034593176
-1.0313284	θɹiː naɪn naɪn	-0.034593176
-0.832894	naɪn eɪt naɪn	-0.034593176
-0.832894	iː eɪt naɪn	-0.034593176
-0.83574945	eɪt eɪt naɪn	-0.034593176
-1.2701919	oʊ eɪt naɪn	-0.034593176
-1.1113764	naɪn faɪv naɪn	-0.034593176
-1.2274019	eɪt faɪv naɪn	-0.034593176
-1.0823449	sɪks faɪv naɪn	-0.034593176
-0.80776227	ɛf faɪv naɪn	-0.034593176
-1.1358583	oʊ faɪv naɪn	-0.034593176
-1.2296793	wʌn sɪks naɪn	-0.034593176
-1.185004	eɪt sɪks naɪn	-0.034593176
-1.2223334	foːɹ sɪks naɪn	-0.034593176
-0.94198006	oʊ sɪks naɪn	-0.034593176
-0.8859443	ɛf eɪtʃ naɪn	-0.034593176
-0.9138563	wʌn foːɹ naɪn	-0.034593176
-1.5263729	tuː foːɹ naɪn	-0.034593176
-1.4089502	sɪks foːɹ naɪn	-0.034593176
-1.3336012	<s> ɛntɚ naɪn	-0.034593176
-1.2062446	iː viː naɪn	-0.034593176
-0.8619773	naɪn fɪfti naɪn	-0.034593176
-1.1983231	tuː θɹiː naɪn	-0.034593176
-1.2475007	sɪks θɹiː naɪn	-0.034593176
-1.2252975	θɹiː θɹiː naɪn	-0.034593176
-0.5722984	ɛn θɹiː naɪn	-0.034593176
-0.71587276	foːɹ fɔːɹɾi naɪn	-0.034593176
-0.71587276	biː fɔːɹɾi naɪn	-0.034593176
-0.5088911	hʌndɹɪd fɔːɹɾi naɪn	-0.034593176
-0.8454043	naɪn θɜːɾi naɪn	-0.034593176
-0.5846752	ɛm θɜːɾi naɪn	-0.034593176
-0.86486244	ɑːɹ ziː naɪn	-0.034593176
-1.5036609	wʌn oʊ naɪn	-0.034593176
-1.0320344	eɪt oʊ naɪn	-0.034593176
-1.1348155	θɹiː oʊ naɪn	-0.034593176
-1.2640185	<s> sɛvən naɪn	-0.034593176
-1.2869186	tuː sɛvən naɪn	-0.034593176
-1.1754829	sɪks sɛvən naɪn	-0.034593176
-0.8285334	ziəɹoʊ sɛvən naɪn	-0.034593176
-1.5494795	ɛl ɛl naɪn	-0.034593176
-0.6023577	ɛm keɪ naɪn	-0.034593176
-0.565291	dʒiː sɛvənti naɪn	-0.034593176
-0.4087293	biː sɛvənti naɪn	-0.034593176
-0.58346784	ɛntɚ twɛnti naɪn	-0.034593176
-0.5807548	sɛvən twɛnti naɪn	-0.034593176
-0.532696	eɪt θaʊzənd naɪn	-0.034593176
-1.0040833	<s> twɛlv naɪn	-0.034593176
-0.67471564	<s> ᵻlɛvən naɪn	-0.034593176
-1.0032171	biː ɛks ɑːɹ	-0.034593176
-0.8872482	ziː aɪ ɑːɹ	-0.034593176
-0.8872482	ɹuːbaʊt aɪ ɑːɹ	-0.034593176
-1.5523567	<s> dʒiː ɑːɹ	-0.034593176
-1.1459085	ɐ ɑːɹ ɑːɹ	0
-1.2077255	juː ɑːɹ ɑːɹ	-0.034593176
-0.97172296	ɹuːbaʊt ɑːɹ ɑːɹ	-0.034593176
-0.97172296	ɛl ɑːɹ ɑːɹ	-0.034593176
-0.84231204	<s> iː ɑːɹ	0
-1.0070422	aɪ iː ɑːɹ	-0.034593176
-1.0065	iː iː ɑːɹ	-0.034593176
-0.5085962	waɪ iː ɑːɹ	-0.034593176
-0.9577762	eɪtʃ iː ɑːɹ	-0.034593176
-0.63954675	tiː iː ɑːɹ	-0.034593176
-0.8610487	viː iː ɑːɹ	-0.034593206
-0.7037622	biː iː ɑːɹ	-0.034593206
-0.7153978	piː iː ɑːɹ	-0.034593176
-0.96384925	ɛf iː ɑːɹ	-0.034593176
-1.1176599	ɛl iː ɑːɹ	-0.034593176
-0.99379706	keɪ iː ɑːɹ	-0.034593176
-0.7195615	ɛm iː ɑːɹ	-0.034593176
-0.72891176	diː iː ɑːɹ	-0.034593176
-1.4267634	<s> dʌbəljuː ɑːɹ	-0.034593176
-0.8801024	siː waɪ ɑːɹ	-0.034593176
-1.4642129	<s> ᵻɹeɪs ɑːɹ	-0.034593176
-0.87631106	ɛm eɪtʃ ɑːɹ	-0.034593176
-1.4488089	siː eɪtʃ ɑːɹ	-0.034593176
-1.083595	<s> tiː ɑːɹ	-0.034593176
-1.1954447	ɛn tiː ɑːɹ	-0.034593176
-1.3071215	ɛs tiː ɑːɹ	-0.034593176
-1.0250331	ᵻɹeɪs viː ɑːɹ	-0.034593176
-1.0323213	<s> ɐ ɑːɹ	-0.034593176
-0.6932113	dʒiː ɐ ɑːɹ	-0.034593176
-0.97661453	iː ɐ ɑːɹ	-0.034593176
-0.6932113	dʌbəljuː ɐ ɑːɹ	-0.09593198
-0.78502905	eɪtʃ ɐ ɑːɹ	-0.034593176
-0.94630843	viː ɐ ɑːɹ	-0.034593176
-0.64655215	biː ɐ ɑːɹ	-0.034593176
-0.83427435	piː ɐ ɑːɹ	-0.034593176
-0.68784535	juː ɐ ɑːɹ	-0.034593176
-0.49127734	ɛf ɐ ɑːɹ	-0.034593176
-0.9786883	ɛl ɐ ɑːɹ	-0.034593176
-0.68784535	keɪ ɐ ɑːɹ	-0.034593176
-0.75259924	ɛm ɐ ɑːɹ	-0.10931237
-0.8559083	siː ɐ ɑːɹ	-0.034593176
-0.49041352	<s> biː ɑːɹ	-0.13952525
-0.8679718	waɪ biː ɑːɹ	-0.034593176
-1.0247335	ɛs piː ɑːɹ	-0.034593176
-0.54043305	aɪ juː ɑːɹ	-0.034593176
-0.7678639	eɪtʃ juː ɑːɹ	-0.034593176
-0.25575054	biː juː ɑːɹ	-0.04377345
-1.1113139	oʊ juː ɑːɹ	-0.034593176
-1.2792695	<s> ɛf ɑːɹ	-0.034593176
-0.946198	iː ɛf ɑːɹ	-0.034593176
-0.946198	ɛf ɛf ɑːɹ	-0.034593176
-0.84658885	ɑːɹ ziː ɑːɹ	-0.034593176
-0.84658885	ɛl ziː ɑːɹ	-0.034593176
-1.1624086	<s> oʊ ɑːɹ	-0.034593176
-1.0331397	dʌbəljuː oʊ ɑːɹ	-0.034593176
-0.5427845	waɪ oʊ ɑːɹ	-0.034593176
-1.1366348	eɪtʃ oʊ ɑːɹ	-0.034593176
-0.6521033	biː oʊ ɑːɹ	-0.034593176
-0.95711416	piː oʊ ɑːɹ	-0.034593176
-0.56035304	ɛf oʊ ɑːɹ	-0.09593198
-1.0059758	ɛl oʊ ɑːɹ	-0.034593176
-0.72290933	ɛm oʊ ɑːɹ	-0.09593198
-0.9739212	siː oʊ ɑːɹ	-0.034593176
-1.4176781	<s> ɹuːbaʊt ɑːɹ	-0.034593206
-1.0597857	kjuː ɛn ɑːɹ	-0.034593176
-1.1543077	<s> ɛl ɑːɹ	-0.034593176
-1.0449746	dʌbəljuː ɛl ɑːɹ	-0.034593176
-1.3314368	ɑːɹ keɪ ɑːɹ	-0.034593176
-1.1317888	<s> diː ɑːɹ	-0.034593176
-0.71878666	dʒiː diː ɑːɹ	-0.034593176
-0.67271847	iː diː ɑːɹ	-0.13018914
-0.81836265	waɪ diː ɑːɹ	-0.034593176
-0.8294381	ɐ diː ɑːɹ	-0.034593176
-0.9999897	ɛn diː ɑːɹ	-0.034593176
-0.9839259	ɛl diː ɑːɹ	-0.034593176
-1.5982275	<s> siː ɑːɹ	-0.034593176
-1.0405382	dʒiː aɪ iː	-0.034593176
-0.64351064	tiː aɪ iː	-0.13018914
-1.0541408	viː aɪ iː	-0.034593176
-0.9559944	ɛf aɪ iː	-0.034593176
-1.110463	ɛn aɪ iː	-0.034593176
-0.8928651	ɛl aɪ iː	-0.034593206
-1.486242	<s> dʒiː iː	-0.034593176
-0.5974846	ɛm dʒiː iː	-0.034593176
-1.102557	<s> ɑːɹ iː	-0.034593176
-0.51499563	dʒiː ɑːɹ iː	-0.034593176
-0.8883542	ɑːɹ ɑːɹ iː	-0.034593176
-0.98899925	iː ɑːɹ iː	-0.09593198
-0.4593193	tiː ɑːɹ iː	-0.034593206
-1.0523679	ɐ ɑːɹ iː	-0.034593176
-0.9750177	biː ɑːɹ iː	-0.034593176
-1.0789833	oʊ ɑːɹ iː	-0.034593176
-0.82713515	ɹuːbaʊt ɑːɹ iː	-0.034593176
-0.7964552	dʒiː iː iː	-0.034593176
-1.0809093	ɑːɹ iː iː	-0.034593176
-1.265955	tiː iː iː	-0.034593176
-1.182355	biː iː iː	-0.034593176
-0.7964552	kjuː iː iː	-0.034593176
-1.3200084	ɛl iː iː	-0.034593176
-0.8848008	keɪ iː iː	-0.13018914
-1.1012963	ɛm iː iː	-0.034593176
-1.2470669	<s> dʌbəljuː iː	-0.034593176
-0.56287336	ᵻɹeɪs dʌbəljuː iː	-0.034593176
-1.2231457	oʊ dʌbəljuː iː	-0.034593176
-1.2131181	ɐ waɪ iː	-0.034593176
-1.2624835	<s> ᵻɹeɪs iː	-0.034593176
-0.73469126	dʌbəljuː eɪtʃ iː	-0.034593176
-1.1741954	tiː eɪtʃ iː	-0.034593176
-0.9014218	piː eɪtʃ iː	-0.034593176
-0.5204792	diː eɪtʃ iː	-0.034593176
-0.73469126	ɛs eɪtʃ iː	-0.034593176
-1.0828775	siː eɪtʃ iː	-0.034593176
-1.0405502	<s> tiː iː	-0.034593176
-0.69986296	eɪtʃ tiː iː	-0.034593176
-0.7819067	tiː tiː iː	-0.034593176
-0.8171499	ɐ tiː iː	-0.034593176
-0.7946932	piː tiː iː	-0.034593176
-0.88901734	oʊ tiː iː	-0.034593176
-0.7946932	keɪ tiː iː	-0.034593176
-0.81520224	ɛs tiː iː	-0.034593206
-0.5453364	<s> viː iː	-0.008393401
-0.7754334	aɪ viː iː	-0.034593176
-0.51062405	iː viː iː	-0.034593176
-0.61650836	ɐ viː iː	-0.047500562
-0.6843144	ɹuːbaʊt viː iː	-0.034593176
-1.5967685	eɪtʃ ɐ iː	-0.034593176
-1.1684979	ziː ɐ iː	-0.034593176
-0.7092028	<s> biː iː	-0.06418054
-0.7381531	waɪ biː iː	-0.034593176
-0.84286296	oʊ biː iː	-0.034593176
-0.7381531	ɛm biː iː	-0.034593176
-0.52258986	siː biː iː	-0.034593176
-0.8329334	<s> kjuː iː	-0.034593176
-0.8329334	ᵻɹeɪs kjuː iː	-0.034593176
-0.58819926	viː piː iː	-0.034593176
-0.9935246	ɛm piː iː	-0.034593176
-0.5922344	kjuː juː iː	-0.034593176
-0.8592831	ɛn juː iː	-0.034593176
-0.7873457	<s> ɛf iː	-0.034593206
-0.5219028	ɛks ɛf iː	-0.034593176
-0.737025	aɪ ɛf iː	-0.034593176
-0.737025	eɪtʃ ɛf iː	-0.034593176
-0.5219028	ɛn ɛf iː	-0.034593176
-0.89019287	<s> ziː iː	-0.034593176
-0.5445869	oʊ ziː iː	-0.034593176
-0.7748999	ɛl ziː iː	-0.034593176
-1.550068	eɪtʃ oʊ iː	-0.034593176
-1.5035454	<s> ɹuːbaʊt iː	-0.034593176
-0.45428628	<s> ɛn iː	-0.070347846
-1.104471	aɪ ɛn iː	-0.034593176
-0.65124667	ɑːɹ ɛn iː	-0.034593176
-0.6933718	waɪ ɛn iː	-0.034593176
-0.4947838	tiː ɛn iː	-0.034593176
-0.9588436	ɐ ɛn iː	-0.09593198
-0.6933718	piː ɛn iː	-0.034593176
-1.0301713	oʊ ɛn iː	-0.034593176
-0.94023836	ɛn ɛn iː	-0.034593176
-0.4947838	diː ɛn iː	-0.034593176
-0.7926207	<s> ɛl iː	-0.034593176
-0.5662818	dʒiː ɛl iː	-0.034593206
-0.73442453	ɑːɹ ɛl iː	-0.034593176
-0.9294575	iː ɛl iː	-0.034593176
-0.784641	waɪ ɛl iː	-0.034593176
-0.62954783	eɪtʃ ɛl iː	-0.034593176
-0.33986172	tiː ɛl iː	-0.034593176
-0.77587056	ɐ ɛl iː	-0.034593176
-0.48736513	piː ɛl iː	0
-0.784641	oʊ ɛl iː	-0.034593176
-0.7823605	ɛl ɛl iː	-0.034593176
-0.45330793	diː ɛl iː	-0.034593176
-0.62954783	ɛs ɛl iː	-0.034593176
-0.8009125	<s> keɪ iː	-0.034593176
-0.970258	ɑːɹ keɪ iː	-0.034593176
-0.5058284	juː keɪ iː	-0.034593176
-0.5058284	ɛn keɪ iː	-0.034593176
-0.92415404	ɛs keɪ iː	-0.034593176
-0.98500025	siː keɪ iː	-0.034593176
-1.2313299	<s> ɛm iː	-0.034593176
-1.0961719	ɐ ɛm iː	-0.034593176
-0.8514936	biː ɛm iː	-0.034593176
-0.9942188	oʊ ɛm iː	-0.034593176
-0.8514936	ɛm ɛm iː	-0.034593176
-0.6995019	<s> dʒeɪ iː	-0.070347846
-1.1817001	<s> diː iː	-0.034593176
-0.91551447	aɪ diː iː	-0.034593176
-0.74424124	dʒiː diː iː	-0.034593176
-1.0740491	ɐ diː iː	-0.034593176
-1.0478566	ɛn diː iː	-0.034593176
-1.029666	ɛl diː iː	-0.034593176
-1.286816	<s> ɛs iː	-0.034593176
-1.0604051	juː ɛs iː	-0.034593176
-0.57743186	oʊ ɛs iː	-0.034593176
-1.0064659	<s> siː iː	-0.09593198
-1.2063646	ɐ siː iː	-0.034593176
-1.0231737	ɛn siː iː	-0.034593176
-0.595114	eɪtʃ ɛks dʌbəljuː	-0.034593176
-1.5127155	<s> dʒiː dʌbəljuː	-0.034593176
-0.8760344	ᵻɹeɪs dʒiː dʌbəljuː	-0.034593176
-1.5626892	oʊ ɑːɹ dʌbəljuː	-0.034593176
-1.4123873	diː ɑːɹ dʌbəljuː	-0.034593176
-1.337247	<s> iː dʌbəljuː	-0.034593176
-1.2076073	aɪ iː dʌbəljuː	-0.034593176
-1.1115625	ɑːɹ iː dʌbəljuː	-0.034593176
-1.1381766	eɪtʃ iː dʌbəljuː	-0.034593176
-1.2624292	viː iː dʌbəljuː	-0.034593176
-1.323282	ɛn iː dʌbəljuː	-0.034593176
-1.1873223	ɛl iː dʌbəljuː	-0.034593176
-1.1447924	keɪ dʌbəljuː dʌbəljuː	-0.034593176
-1.0161614	<s> waɪ dʌbəljuː	-0.034593176
-0.8680657	viː waɪ dʌbəljuː	-0.034593176
-1.4852694	<s> ᵻɹeɪs dʌbəljuː	-0.034593176
-1.052501	ɹuːbaʊt eɪtʃ dʌbəljuː	-0.034593176
-0.8972161	kjuː tiː dʌbəljuː	-0.034593176
-1.2315001	eɪtʃ ɐ dʌbəljuː	-0.034593176
-1.260573	oʊ ɐ dʌbəljuː	-0.034593176
-1.0150127	aɪ kjuː dʌbəljuː	-0.034593176
-0.60023946	diː ziː dʌbəljuː	-0.034593176
-1.1116496	ɑːɹ oʊ dʌbəljuː	-0.034593176
-1.2954891	eɪtʃ oʊ dʌbəljuː	-0.034593176
-1.174871	tiː oʊ dʌbəljuː	-0.034593176
-1.0554495	ɛn oʊ dʌbəljuː	-0.034593176
-1.1176556	ɛl oʊ dʌbəljuː	-0.034593176
-0.92864007	diː oʊ dʌbəljuː	-0.034593206
-1.5346792	<s> ɹuːbaʊt dʌbəljuː	-0.034593176
-1.2374551	<s> keɪ dʌbəljuː	-0.034593176
-0.57339585	ziː keɪ dʌbəljuː	-0.034593176
-0.88024724	siː keɪ dʌbəljuː	-0.034593176
-0.87139106	dʒiː dʒeɪ dʌbəljuː	-0.034593176
-0.9666717	aɪ diː dʌbəljuː	-0.034593176
-1.0313548	ɑːɹ diː dʌbəljuː	-0.034593176
-1.0313548	iː diː dʌbəljuː	-0.034593176
-0.54644114	juː diː dʌbəljuː	-0.034593176
-0.54644114	ɛf diː dʌbəljuː	-0.034593176
-1.6966509	<s> ɛs dʌbəljuː	-0.034593176
-1.037499	ɛl ɛs dʌbəljuː	-0.034593176
-0.6075496	keɪ siː dʌbəljuː	-0.034593176
-0.96676517	ɛf ɛks waɪ	-0.034593176
-0.8323744	keɪ ɛks waɪ	-0.034593176
-1.1682907	ɛf aɪ waɪ	-0.034593176
-1.3311663	ɐ ɑːɹ waɪ	-0.034593206
-1.2702922	juː ɑːɹ waɪ	-0.034593176
-1.4356554	oʊ ɑːɹ waɪ	-0.034593176
-1.2587286	ɛn iː waɪ	-0.13018914
-1.2100724	ɛl iː waɪ	-0.09593198
-0.8933497	iː dʌbəljuː waɪ	-0.034593206
-0.6033672	ɹuːbaʊt waɪ waɪ	-0.034593176
-1.4642129	<s> ᵻɹeɪs waɪ	-0.034593176
-1.3963801	tiː eɪtʃ waɪ	-0.034593176
-1.0569797	piː eɪtʃ waɪ	-0.034593176
-1.3191872	siː eɪtʃ waɪ	-0.034593176
-0.99499726	aɪ viː waɪ	-0.034593176
-0.99499726	ᵻɹeɪs viː waɪ	-0.034593176
-1.3865424	<s> ɐ waɪ	-0.034593176
-1.1773653	dʌbəljuː ɐ waɪ	-0.034593176
-1.3585511	eɪtʃ ɐ waɪ	-0.034593176
-0.8346487	tiː ɐ waɪ	-0.034593176
-0.8346487	ɛs ɐ waɪ	-0.034593176
-1.7869519	<s> biː waɪ	-0.034593176
-0.59356374	dʒiː kjuː waɪ	-0.034593176
-1.1255858	iː piː waɪ	-0.034593176
-1.0311055	iː juː waɪ	-0.034593176
-1.4212989	<s> ɛf waɪ	-0.034593176
-1.0141258	ɹuːbaʊt ɛf waɪ	-0.034593176
-0.5974561	ᵻɹeɪs ziː waɪ	-0.034593176
-1.5576537	eɪtʃ oʊ waɪ	-0.034593176
-1.6590801	<s> ɹuːbaʊt waɪ	-0.034593176
-0.61306477	viː ɛn waɪ	-0.034593176
-1.00189	ɑːɹ ɛl waɪ	-0.034593176
-1.4035697	ɛl ɛl waɪ	-0.034593176
-0.5899206	dʒeɪ ɛl waɪ	-0.034593176
-1.1938035	ɛs keɪ waɪ	-0.034593176
-1.3003976	siː keɪ waɪ	-0.034593176
-0.5974087	ᵻɹeɪs ɛm waɪ	-0.034593176
-1.4191904	ɐ ɛm waɪ	-0.034593176
-1.5181601	<s> diː waɪ	-0.034593176
-0.9839723	ɛn diː waɪ	-0.13018914
-1.3532807	ɐ siː waɪ	-0.034593176
-1.0153196	ɹuːbaʊt siː waɪ	-0.034593176
-0.5481365	naɪn sɪksti eɪt	-0.034593176
-0.7809496	foːɹ sɪksti eɪt	-0.034593176
-0.9873151	θɹiː sɪksti eɪt	-0.034593176
-0.89809877	sɛvən sɪksti eɪt	-0.034593176
-1.0705459	wʌn wʌn eɪt	-0.034593176
-1.0807508	tuː wʌn eɪt	-0.034593206
-1.1996073	faɪv wʌn eɪt	-0.034593176
-1.187872	foːɹ wʌn eɪt	-0.034593176
-0.5516591	biː wʌn eɪt	-0.034593176
-1.0322782	sɛvən wʌn eɪt	-0.034593176
-0.7869883	diː wʌn eɪt	-0.034593176
-1.0237329	wʌn tuː eɪt	-0.034593176
-0.5333897	iː tuː eɪt	-0.034593176
-1.092903	eɪt tuː eɪt	-0.034593176
-1.2221292	faɪv tuː eɪt	-0.034593176
-1.0516268	sɪks tuː eɪt	-0.034593176
-0.8093016	θɹiː tuː eɪt	-0.13018914
-0.5333897	kjuː tuː eɪt	-0.034593176
-1.0516268	oʊ tuː eɪt	-0.034593176
-0.7560388	keɪ tuː eɪt	-0.034593176
-0.57317036	sɪks eɪɾi eɪt	-0.034593176
-1.4137065	wʌn naɪn eɪt	-0.034593176
-1.1383896	ɛntɚ naɪn eɪt	-0.034593176
-0.89849734	piː iː eɪt	-0.034593176
-1.3722951	ɛf iː eɪt	-0.034593176
-0.59173334	kjuː dʌbəljuː eɪt	-0.034593176
-0.59173334	ziː dʌbəljuː eɪt	-0.034593176
-1.003074	dʌbəljuː waɪ eɪt	-0.034593176
-0.59192955	kjuː waɪ eɪt	-0.034593176
-0.88329685	<s> eɪt eɪt	-0.034593176
-1.2690942	wʌn eɪt eɪt	-0.034593176
-0.8324651	naɪn eɪt eɪt	-0.034593176
-0.93541384	sɛvən eɪt eɪt	-0.034593176
-1.2096995	tuː faɪv eɪt	-0.034593176
-1.2264421	eɪt faɪv eɪt	-0.034593176
-1.0816574	sɪks faɪv eɪt	-0.034593176
-1.1223737	foːɹ faɪv eɪt	-0.034593176
-1.0816574	sɛvən faɪv eɪt	-0.034593176
-0.8276176	<s> sɪks eɪt	-0.07976617
-0.54115736	tuː sɪks eɪt	-0.056592606
-1.0905657	eɪt sɪks eɪt	-0.034593176
-1.1822755	sɪks sɪks eɪt	-0.034593176
-1.0529244	θɹiː sɪks eɪt	-0.034593176
-0.553872	ziː sɪks eɪt	-0.034593176
-1.1897459	wʌn ziəɹoʊ eɪt	-0.034593176
-1.2961946	<s> foːɹ eɪt	-0.034593176
-1.1087399	wʌn foːɹ eɪt	-0.034593176
-0.7791812	ziəɹoʊ foːɹ eɪt	-0.034593176
-1.1783917	foːɹ foːɹ eɪt	-0.034593176
-1.0332419	θɹiː foːɹ eɪt	-0.034593176
-0.9847042	sɛvən foːɹ eɪt	-0.034593176
-0.14284934	<s> ɛntɚɹ eɪt	-0.034593176
-0.87604475	<s> fɪfti eɪt	-0.034593176
-0.7095921	wʌn fɪfti eɪt	-0.034593176
-0.63019246	naɪn fɪfti eɪt	-0.034593176
-0.63019246	kjuː fɪfti eɪt	-0.034593176
-0.45373738	twɛlv fɪfti eɪt	-0.034593176
-1.0910836	tuː θɹiː eɪt	-0.034593176
-1.0989933	eɪt θɹiː eɪt	-0.034593176
-1.1266667	sɪks θɹiː eɪt	-0.034593176
-1.0179071	foːɹ θɹiː eɪt	-0.034593176
-1.1107392	θɹiː θɹiː eɪt	-0.034593176
-0.8837881	oʊ θɹiː eɪt	-0.034593176
-0.8500374	biː fɔːɹɾi eɪt	-0.034593176
-1.031607	oʊ biː eɪt	-0.034593176
-0.58428633	ɛf θɜːɾi eɪt	-0.034593176
-0.84469575	sɛvən θɜːɾi eɪt	-0.034593176
-1.0174813	ɛn piː eɪt	-0.034593176
-1.0292317	ɛf ɛf eɪt	-0.034593176
-1.1925175	tuː oʊ eɪt	-0.034593176
-0.9408009	eɪt oʊ eɪt	-0.034593176
-0.81243104	sɪks oʊ eɪt	-0.034593176
-1.091907	foːɹ oʊ eɪt	-0.034593176
-1.0221478	θɹiː oʊ eɪt	-0.034593176
-0.81243104	sɛvən oʊ eɪt	-0.13018914
-0.5666956	keɪ oʊ eɪt	-0.034593176
-1.1169913	tuː sɛvən eɪt	-0.034593176
-1.0261614	eɪt sɛvən eɪt	-0.034593176
-0.71171695	faɪv sɛvən eɪt	-0.034593176
-1.0409142	sɪks sɛvən eɪt	-0.034593176
-0.5330504	eɪtʃ sɛvən eɪt	-0.034593176
-0.99415356	θɹiː sɛvən eɪt	-0.034593176
-0.75547236	biː sɛvən eɪt	-0.034593176
-0.87719166	dʒeɪ keɪ eɪt	-0.034593176
-0.87884414	viː ɛm eɪt	-0.034593176
-0.98754036	ɛntɚ sɛvənti eɪt	-0.034593176
-0.7126719	foːɹ twɛnti eɪt	-0.034593176
-0.810686	θɹiː twɛnti eɪt	-0.034593176
-0.50690097	tɛn twɛnti eɪt	-0.034593176
-0.50690097	naɪntiːn twɛnti eɪt	-0.034593176
-0.54074275	ziː naɪnti eɪt	-0.034593176
-0.48356232	sɪks θaʊzənd eɪt	-0.034593176
-0.7649244	foːɹ θaʊzənd eɪt	-0.034593176
-0.5901185	dʌbəljuː ɛks faɪv	-0.034593176
-1.0552269	piː aɪ faɪv	-0.034593176
-0.60080564	θɜːɾi sɪksti faɪv	-0.034593176
-1.1528009	naɪntiːn sɪksti faɪv	0
-0.14453615	<s> wʌn faɪv	-0.7428467
-1.0042171	wʌn wʌn faɪv	-0.034593176
-1.019947	tuː wʌn faɪv	-0.034593176
-1.1195393	faɪv wʌn faɪv	-0.034593176
-0.8392794	sɪks wʌn faɪv	-0.034593176
-0.53348273	ziəɹoʊ wʌn faɪv	-0.034593176
-0.9872565	oʊ wʌn faɪv	-0.034593176
-0.7512022	dʒeɪ wʌn faɪv	-0.034593176
-0.53048664	ɛs wʌn faɪv	-0.034593176
-1.4089231	<s> tuː faɪv	-0.034593176
-0.7482142	wʌn tuː faɪv	-0.07976617
-1.3072628	tuː tuː faɪv	-0.034593176
-1.3156607	faɪv tuː faɪv	-0.034593176
-1.1231446	sɪks tuː faɪv	-0.034593176
-0.98923945	ɛntɚ tuː faɪv	-0.034593176
-0.930521	ɛf tuː faɪv	-0.034593176
-0.57409	foːɹtiːn eɪɾi faɪv	-0.034593176
-0.91024214	wʌn naɪn faɪv	-0.034593176
-1.0350424	faɪv naɪn faɪv	-0.034593176
-1.0467964	sɪks naɪn faɪv	-0.034593176
-0.9700684	foːɹ naɪn faɪv	-0.034593176
-0.9862859	θɹiː naɪn faɪv	-0.034593176
-0.6018058	ɛks dʌbəljuː faɪv	-0.034593176
-0.9831833	<s> eɪt faɪv	-0.034593176
-1.0636815	tuː eɪt faɪv	-0.034593176
-0.71836364	waɪ eɪt faɪv	-0.034593176
-0.9498251	faɪv eɪt faɪv	-0.034593176
-1.1004312	sɪks eɪt faɪv	-0.034593176
-1.0123909	foːɹ eɪt faɪv	-0.034593176
-1.021525	oʊ eɪt faɪv	-0.034593176
-1.0230092	sɛvən eɪt faɪv	-0.034593176
-0.51043606	keɪ eɪt faɪv	-0.034593176
-1.4314492	wʌn faɪv faɪv	-0.034593176
-1.2741932	tuː faɪv faɪv	-0.034593176
-1.2942426	eɪt faɪv faɪv	-0.034593176
-1.0677791	faɪv faɪv faɪv	-0.034593176
-1.4625692	<s> sɪks faɪv	-0.034593176
-0.98160243	sɪks sɪks faɪv	-0.034593176
-1.1937267	ziəɹoʊ sɪks faɪv	-0.034593176
-1.2232978	foːɹ sɪks faɪv	-0.034593176
-1.1921244	wʌn ziəɹoʊ faɪv	-0.034593176
-1.5452446	<s> foːɹ faɪv	-0.034593176
-1.0766593	faɪv foːɹ faɪv	-0.034593176
-1.0094098	sɪks foːɹ faɪv	-0.034593176
-0.9292374	juː foːɹ faɪv	-0.034593176
-0.9292374	oʊ foːɹ faɪv	-0.034593176
-1.3353214	<s> ɛntɚ faɪv	-0.034593176
-0.4909229	sɪksti fɪfti faɪv	-0.034593176
-0.83349395	ɛntɚ fɪfti faɪv	-0.034593176
-0.4909229	viː fɪfti faɪv	-0.034593176
-0.4909229	sɛvən fɪfti faɪv	-0.034593176
-1.1429106	tuː θɹiː faɪv	-0.034593176
-0.6607262	naɪn θɹiː faɪv	-0.034593176
-0.7964792	iː θɹiː faɪv	-0.034593176
-1.1550748	eɪt θɹiː faɪv	-0.034593176
-1.1658629	θɹiː θɹiː faɪv	-0.034593176
-0.46093994	faɪv fɔːɹɾi faɪv	-0.034593176
-0.46093994	sɪks fɔːɹɾi faɪv	-0.034593176
-0.64105076	θɹiː fɔːɹɾi faɪv	-0.034593176
-0.46093994	piː fɔːɹɾi faɪv	-0.034593176
-1.1375424	ɛn biː faɪv	-0.034593176
-0.8584757	dʒeɪ kjuː faɪv	-0.034593176
-0.4732729	iː θɜːɾi faɪv	-0.034593176
-0.6598611	faɪv θɜːɾi faɪv	-0.034593176
-0.6598611	ɛntɚ θɜːɾi faɪv	-0.034593176
-0.4732729	ɛs θɜːɾi faɪv	-0.034593176
-0.4732729	siː θɜːɾi faɪv	-0.034593176
-0.8592831	piː juː faɪv	-0.034593176
-1.00386	ɛm juː faɪv	-0.034593176
-0.5946833	dʌbəljuː ɛf faɪv	-0.034593176
-0.8638231	keɪ ɛf faɪv	-0.034593176
-1.3869474	wʌn oʊ faɪv	-0.034593176
-0.94333464	tuː oʊ faɪv	-0.13018914
-1.2396525	faɪv oʊ faɪv	-0.034593176
-1.2007394	sɪks oʊ faɪv	-0.034593176
-1.1594933	ɛf oʊ faɪv	-0.034593176
-1.1658492	eɪt sɛvən faɪv	-0.034593176
-1.2392935	foːɹ sɛvən faɪv	-0.034593176
-0.7634919	θɹiː sɛvən faɪv	-0.034593176
-0.9757408	sɛvən sɛvən faɪv	-0.034593176
-1.0246449	sɛvən twɛnti faɪv	-0.034593176
-0.54187727	oʊ naɪnti faɪv	-0.034593176
-1.3962727	ɐ siː faɪv	-0.034593176
-1.0995615	ɛntɚ sɪksti sɪks	-0.034593176
-0.5727744	ænd sɪksti sɪks	-0.034593176
-1.48406	naɪntiːn sɪksti sɪks	-0.034593176
-1.8757068	<s> wʌn sɪks	-0.034593176
-1.1102364	wʌn wʌn sɪks	-0.034593176
-1.1167477	tuː wʌn sɪks	-0.034593176
-1.1536136	eɪt wʌn sɪks	-0.034593176
-1.2352197	foːɹ wʌn sɪks	-0.034593176
-1.0684773	sɛvən wʌn sɪks	-0.034593176
-0.45754644	<s> tuː sɪks	-0.47712123
-1.2055943	wʌn tuː sɪks	-0.034593176
-1.0686735	tuː tuː sɪks	-0.034593176
-0.71078503	eɪt tuː sɪks	-0.034593206
-1.052682	sɪks tuː sɪks	-0.034593176
-1.0967155	foːɹ tuː sɪks	-0.034593176
-0.93397456	ɛntɚ tuː sɪks	-0.034593176
-1.052682	oʊ tuː sɪks	-0.034593176
-0.75659865	diː tuː sɪks	-0.034593176
-0.3997201	dʒiː eɪɾi sɪks	-0.034593176
-0.3997201	θɹiː eɪɾi sɪks	-0.034593176
-0.3997201	juː eɪɾi sɪks	-0.034593176
-0.5514332	ænd eɪɾi sɪks	-0.034593176
-0.8761723	wʌn naɪn sɪks	-0.09593198
-0.75174844	dʒiː naɪn sɪks	-0.034593176
-1.0570662	tuː naɪn sɪks	-0.034593176
-0.70878434	eɪt naɪn sɪks	-0.13018914
-0.98813653	faɪv naɪn sɪks	-0.034593176
-0.8602402	oʊ naɪn sɪks	-0.034593176
-1.2085354	wʌn eɪt sɪks	-0.034593176
-0.807768	waɪ eɪt sɪks	-0.034593176
-1.0772872	sɪks eɪt sɪks	-0.034593176
-1.1905192	foːɹ eɪt sɪks	-0.034593176
-1.2085354	oʊ eɪt sɪks	-0.034593176
-1.0374024	<s> faɪv sɪks	-0.034593206
-1.2337563	wʌn faɪv sɪks	-0.034593176
-1.041985	eɪt faɪv sɪks	-0.034593176
-0.8282721	<s> sɪks sɪks	-0.07976617
-1.3492151	tuː sɪks sɪks	-0.034593176
-0.84576213	naɪn sɪks sɪks	-0.034593176
-1.1330335	faɪv sɪks sɪks	-0.034593176
-1.1021452	ziəɹoʊ sɪks sɪks	-0.034593176
-0.91203225	sɛvən sɪks sɪks	-0.034593176
-0.7230101	wʌn ziəɹoʊ sɪks	-0.034593176
-0.76759577	tuː ziəɹoʊ sɪks	-0.034593176
-0.7225373	eɪt ziəɹoʊ sɪks	-0.034593176
-0.7225373	faɪv ziəɹoʊ sɪks	-0.034593176
-0.42347848	ziəɹoʊ ziəɹoʊ sɪks	-0.034593176
-0.65649086	θɹiː ziəɹoʊ sɪks	-0.034593176
-1.1592686	wʌn foːɹ sɪks	-0.034593176
-1.0226197	naɪn foːɹ sɪks	-0.034593176
-1.0576372	eɪt foːɹ sɪks	-0.09593198
-0.74363816	faɪv foːɹ sɪks	-0.034593176
-1.2681506	sɪks foːɹ sɪks	-0.034593176
-0.97869724	<s> ɛntɚ sɪks	-0.021295749
-1.3208094	dʒiː ɐ sɪks	-0.034593176
-1.4946498	iː ɐ sɪks	-0.034593176
-0.65459436	<s> fɪfti sɪks	-0.034593206
-0.77910423	wʌn fɪfti sɪks	-0.034593176
-0.4909229	foːɹ fɪfti sɪks	-0.034593176
-0.68728817	kjuː fɪfti sɪks	-0.034593176
-1.1127523	<s> θɹiː sɪks	-0.034593176
-1.1106758	foːɹ θɹiː sɪks	-0.034593176
-1.2265329	θɹiː θɹiː sɪks	-0.034593176
-0.9548987	sɛvən θɹiː sɪks	-0.034593176
-0.5881025	oʊ fɔːɹɾi sɪks	-0.034593176
-0.60373825	piː biː sɪks	-0.034593176
-0.5917977	dʌbəljuː kjuː sɪks	-0.034593176
-0.5850645	θɹiː θɜːɾi sɪks	-0.034593176
-0.5850645	sɛvəntiːn θɜːɾi sɪks	-0.034593176
-0.8792385	keɪ ɛf sɪks	-0.034593176
-0.5957947	biː ziː sɪks	-0.034593176
-0.9856224	<s> oʊ sɪks	-0.034593176
-1.2937807	wʌn oʊ sɪks	-0.034593176
-1.1946341	tuː oʊ sɪks	-0.034593176
-1.1683446	faɪv oʊ sɪks	-0.034593176
-1.1355981	sɪks oʊ sɪks	-0.034593176
-1.0236369	θɹiː oʊ sɪks	-0.034593176
-1.1355981	sɛvən oʊ sɪks	-0.034593176
-0.61199635	ɛks ɛn sɪks	-0.034593176
-1.3635782	tuː sɛvən sɪks	-0.034593176
-0.85628825	naɪn sɛvən sɪks	-0.034593176
-1.1789428	oʊ sɛvən sɪks	-0.034593176
-1.285731	ɑːɹ keɪ sɪks	-0.034593176
-0.86462927	kjuː keɪ sɪks	-0.034593176
-0.58662665	iː sɛvənti sɪks	-0.034593176
-0.71392477	tuː twɛnti sɪks	-0.034593176
-0.5076806	dʌbəljuː twɛnti sɪks	-0.034593176
-0.5076806	faɪv twɛnti sɪks	-0.034593176
-0.5076806	sɪks twɛnti sɪks	-0.034593176
-0.49814975	wʌn naɪnti sɪks	-0.034593176
-0.49814975	keɪ naɪnti sɪks	-0.034593176
-1.0986164	<s> ɛks eɪtʃ	-0.034593176
-0.63097304	aɪ dʒiː eɪtʃ	-0.034593176
-0.9740315	ɑːɹ dʒiː eɪtʃ	-0.034593176
-0.75292504	ᵻɹeɪs dʒiː eɪtʃ	-0.034593176
-0.5315222	piː dʒiː eɪtʃ	-0.034593176
-1.0327398	ɛn dʒiː eɪtʃ	-0.034593176
-1.5747052	<s> ɑːɹ eɪtʃ	-0.034593176
-1.6711482	ɛn iː eɪtʃ	-0.034593176
-1.380877	<s> dʌbəljuː eɪtʃ	-0.034593176
-1.1057575	keɪ dʌbəljuː eɪtʃ	-0.034593176
-0.6033672	piː waɪ eɪtʃ	-0.034593176
-0.6082196	ɑːɹ eɪtʃ eɪtʃ	-0.034593176
-0.730803	<s> tiː eɪtʃ	-0.09593198
-0.6734498	aɪ tiː eɪtʃ	-0.034593176
-0.83161116	ɑːɹ tiː eɪtʃ	-0.034593176
-0.47038645	dʌbəljuː tiː eɪtʃ	-0.034593176
-0.47038645	faɪv tiː eɪtʃ	-0.034593176
-0.9045123	tiː tiː eɪtʃ	-0.034593176
-0.9652067	ɐ tiː eɪtʃ	-0.034593176
-0.7895164	juː tiː eɪtʃ	-0.034593176
-0.74007803	ɛf tiː eɪtʃ	-0.034593176
-0.82212806	oʊ tiː eɪtʃ	-0.034593176
-1.4238873	eɪtʃ ɐ eɪtʃ	-0.034593176
-1.2689784	viː ɐ eɪtʃ	-0.034593176
-1.0911411	piː ɐ eɪtʃ	-0.034593176
-1.3953809	ɛm ɐ eɪtʃ	-0.034593176
-0.60518026	ɐ biː eɪtʃ	-0.034593176
-1.60494	<s> piː eɪtʃ	-0.034593176
-0.9919637	iː piː eɪtʃ	-0.034593176
-0.79426885	oʊ piː eɪtʃ	-0.034593176
-0.5961846	ᵻɹeɪs ɛf eɪtʃ	-0.034593176
-1.0141258	oʊ ɛf eɪtʃ	-0.034593176
-0.5974561	kjuː ziː eɪtʃ	-0.034593176
-1.1386864	ɹuːbaʊt oʊ eɪtʃ	-0.034593176
-1.3795949	ɛm oʊ eɪtʃ	-0.034593176
-1.2152569	dʒeɪ oʊ eɪtʃ	-0.034593176
-1.4176781	<s> ɹuːbaʊt eɪtʃ	-0.034593206
-1.5183864	<s> ɛn eɪtʃ	-0.034593176
-1.0457466	kjuː ɛn eɪtʃ	-0.034593176
-1.5573211	ɐ ɛl eɪtʃ	-0.034593176
-0.8675607	oʊ keɪ eɪtʃ	-0.034593176
-1.0154513	ɛl keɪ eɪtʃ	-0.034593176
-0.5974087	waɪ ɛm eɪtʃ	-0.034593176
-0.8689017	diː ɛm eɪtʃ	-0.034593176
-1.4805632	<s> dʒeɪ eɪtʃ	-0.034593176
-0.84284604	dʒiː dʒeɪ eɪtʃ	-0.034593176
-1.4410589	ɐ diː eɪtʃ	-0.034593176
-1.6783315	<s> ɛs eɪtʃ	-0.034593176
-1.1350193	ɛn ɛs eɪtʃ	-0.034593176
-0.81948256	<s> siː eɪtʃ	-0.09593198
-0.63054854	aɪ siː eɪtʃ	-0.07976617
-0.35563567	ɑːɹ siː eɪtʃ	-0.034593176
-0.6671588	iː siː eɪtʃ	-0.034593176
-0.7543686	ɹuːbaʊt siː eɪtʃ	-0.034593176
-0.6671588	dʒeɪ siː eɪtʃ	-0.034593176
-0.47800785	siː siː eɪtʃ	-0.034593176
-0.23715658	oʊ ɐpɔstɹəfi eɪtʃ	-0.034593176
-0.9833339	ɛf ɛks ziəɹoʊ	-0.034593176
-0.8444713	keɪ ɛks ziəɹoʊ	-0.034593176
-1.8323698	<s> wʌn ziəɹoʊ	-0.034593176
-1.3029987	sɪks wʌn ziəɹoʊ	-0.034593176
-1.3611038	foːɹ wʌn ziəɹoʊ	-0.034593176
-1.1599326	sɛvən wʌn ziəɹoʊ	-0.034593176
-1.3166548	tuː tuː ziəɹoʊ	-0.034593176
-1.6165451	faɪv tuː ziəɹoʊ	-0.034593176
-1.2121139	sɛvən tuː ziəɹoʊ	-0.034593176
-1.1794112	foːɹ naɪn ziəɹoʊ	-0.034593176
-1.2640351	foːɹ eɪt ziəɹoʊ	-0.034593176
-1.2157038	ɛntɚɹ eɪt ziəɹoʊ	-0.034593176
-1.2272024	θɹiː eɪt ziəɹoʊ	-0.034593176
-1.2710154	sɛvən eɪt ziəɹoʊ	-0.034593176
-1.4501439	wʌn faɪv ziəɹoʊ	-0.034593176
-0.58147144	dʌbəljuː faɪv ziəɹoʊ	-0.034593176
-1.0657233	ɛntɚ faɪv ziəɹoʊ	-0.034593176
-1.1779599	θɹiː faɪv ziəɹoʊ	-0.034593176
-1.7747533	<s> sɪks ziəɹoʊ	-0.034593176
-1.2091497	wʌn ziəɹoʊ ziəɹoʊ	-0.034593176
-1.5781654	sɪks foːɹ ziəɹoʊ	-0.034593176
-1.8094319	<s> ɛntɚ ziəɹoʊ	-0.034593176
-0.61135256	ɛks θɹiː ziəɹoʊ	-0.034593176
-1.4115543	eɪt θɹiː ziəɹoʊ	-0.034593176
-0.86452603	naɪn sɛvən ziəɹoʊ	-0.034593176
-0.5950614	ɑːɹ sɛvən ziəɹoʊ	-0.034593176
-1.2420819	eɪt sɛvən ziəɹoʊ	-0.034593176
-1.4484321	aɪ ɛl ziəɹoʊ	-0.034593176
-0.90058047	ɛks ɛs ziəɹoʊ	-0.034593176
-0.99525416	ɛf ɛks foːɹ	-0.034593176
-1.16708	keɪ aɪ foːɹ	-0.034593176
-1.0217109	ɛntɚ sɪksti foːɹ	-0.034593176
-0.6502261	θɹiː sɪksti foːɹ	-0.034593176
-0.89809877	sɛvən sɪksti foːɹ	-0.034593176
-0.89809877	foːɹtiːn sɪksti foːɹ	-0.034593176
-1.7164825	<s> wʌn foːɹ	-0.13018914
-1.3165014	tuː wʌn foːɹ	-0.034593176
-0.931785	naɪn wʌn foːɹ	-0.034593176
-1.2469136	faɪv wʌn foːɹ	-0.034593176
-1.1875621	sɪks wʌn foːɹ	-0.034593176
-1.0800074	oʊ wʌn foːɹ	-0.034593176
-1.1314906	<s> tuː foːɹ	-0.034593176
-0.5231947	ɛks tuː foːɹ	-0.034593176
-0.9986845	wʌn tuː foːɹ	-0.034593176
-1.1715095	tuː tuː foːɹ	-0.034593176
-0.83177555	eɪt tuː foːɹ	-0.034593176
-0.9441797	faɪv tuː foːɹ	-0.09593198
-1.0203387	sɪks tuː foːɹ	-0.034593176
-1.0342451	θɹiː tuː foːɹ	-0.034593176
-0.5231947	juː tuː foːɹ	-0.034593176
-0.9513432	sɛvən tuː foːɹ	-0.034593176
-0.57317036	keɪ eɪɾi foːɹ	-0.034593176
-1.1153184	<s> naɪn foːɹ	-0.034593176
-1.0417982	naɪn naɪn foːɹ	-0.034593176
-0.56473446	eɪtʃ naɪn foːɹ	-0.034593176
-0.56473446	ɛl naɪn foːɹ	-0.034593176
-0.8781594	dʒiː iː foːɹ	-0.034593176
-1.617588	ɛl iː foːɹ	-0.034593176
-1.2801067	diː iː foːɹ	-0.034593176
-1.018902	<s> eɪt foːɹ	-0.034593176
-1.059922	wʌn eɪt foːɹ	-0.034593176
-0.7499906	eɪt eɪt foːɹ	-0.034593176
-1.1423173	sɪks eɪt foːɹ	-0.034593206
-0.82485026	foːɹ eɪt foːɹ	-0.034593176
-1.0054032	ɛntɚɹ eɪt foːɹ	-0.034593176
-1.0594555	sɛvən eɪt foːɹ	-0.034593176
-0.5227146	ɛm eɪt foːɹ	-0.034593176
-1.3533345	wʌn faɪv foːɹ	-0.034593176
-1.2096995	tuː faɪv foːɹ	-0.034593176
-1.1105906	naɪn faɪv foːɹ	-0.034593176
-1.2264421	eɪt faɪv foːɹ	-0.034593176
-1.1105906	θɹiː faɪv foːɹ	-0.034593176
-1.126231	<s> sɪks foːɹ	-0.034593176
-0.9827626	naɪn sɪks foːɹ	-0.034593176
-0.7617714	faɪv sɪks foːɹ	-0.034593176
-1.0204927	sɪks sɪks foːɹ	-0.034593176
-0.9611864	ziəɹoʊ sɪks foːɹ	-0.034593176
-0.9679846	foːɹ sɪks foːɹ	-0.034593176
-0.9323905	ɛntɚ sɪks foːɹ	-0.034593176
-0.806886	ɐ sɪks foːɹ	-0.034593176
-0.9221487	θɹiː sɪks foːɹ	-0.034593176
-0.7096369	keɪ sɪks foːɹ	-0.034593176
-0.60600424	ziː eɪtʃ foːɹ	-0.034593176
-0.70838505	faɪv ziəɹoʊ foːɹ	-0.034593176
-0.9930395	<s> foːɹ foːɹ	-0.07976617
-1.2680728	eɪt foːɹ foːɹ	-0.034593176
-1.2095323	sɪks foːɹ foːɹ	-0.034593176
-1.1783917	foːɹ foːɹ foːɹ	-0.034593176
-0.72293025	θɹiː foːɹ foːɹ	-0.13018914
-0.89578426	oʊ foːɹ foːɹ	-0.034593176
-1.212706	<s> ɛntɚ foːɹ	-0.070347846
-1.3007344	ɛn tiː foːɹ	-0.034593176
-1.1026525	ɛntɚ fɪfti foːɹ	-0.034593176
-1.226969	<s> θɹiː foːɹ	-0.034593176
-0.756844	faɪv θɹiː foːɹ	-0.034593206
-0.42140007	naɪntiːn fɔːɹɾi foːɹ	-0.13018914
-0.5974633	tiː piː foːɹ	-0.034593176
-1.1967937	oʊ juː foːɹ	-0.034593176
-0.8059921	keɪ juː foːɹ	-0.034593176
-0.93119746	ɛm juː foːɹ	-0.034593176
-1.5016139	wʌn oʊ foːɹ	-0.034593176
-1.3221756	faɪv oʊ foːɹ	-0.034593176
-1.3613659	diː oʊ foːɹ	-0.034593176
-1.2625308	<s> sɛvən foːɹ	-0.034593176
-1.2854918	tuː sɛvən foːɹ	-0.034593176
-1.2367138	foːɹ sɛvən foːɹ	-0.034593176
-0.9607974	dʒeɪ sɛvən foːɹ	-0.034593176
-0.6027014	keɪ ɛm foːɹ	-0.034593176
-1.4638624	<s> dʒeɪ foːɹ	-0.034593176
-0.5803505	ɛn dʒeɪ foːɹ	-0.034593176
-0.7698592	tuː twɛnti foːɹ	-0.034593176
-0.54161376	ɛf twɛnti foːɹ	-0.034593176
-0.54161376	twɛlv twɛnti foːɹ	-0.034593176
-0.49712375	ɛntɚ naɪnti foːɹ	-0.034593176
-0.49712375	ɐ naɪnti foːɹ	-0.034593176
-1.0025235	<s> twɛlv foːɹ	-0.034593176
-0.23582236	ɛɹiə koʊd foːɹ	-0.034593176
-0.9987462	<s> aɪ tiː	-0.034593176
-1.0528423	eɪtʃ aɪ tiː	-0.034593176
-0.92130834	piː aɪ tiː	-0.034593176
-0.79855883	ɹuːbaʊt aɪ tiː	-0.034593176
-0.7387851	ɛm aɪ tiː	-0.034593176
-1.3384426	ɛn dʒiː tiː	-0.034593176
-1.5980153	iː ɑːɹ tiː	-0.034593176
-1.579137	ɐ ɑːɹ tiː	-0.034593176
-1.1327661	oʊ ɑːɹ tiː	-0.034593176
-1.2404059	aɪ iː tiː	-0.034593176
-1.386561	ɑːɹ iː tiː	-0.034593176
-1.2548696	iː iː tiː	-0.034593176
-0.8295509	juː iː tiː	-0.034593176
-1.3654971	ɛn iː tiː	-0.034593176
-1.0489695	dʒeɪ iː tiː	-0.034593176
-1.0344098	ɐ dʌbəljuː tiː	-0.034593176
-1.6766216	<s> faɪv tiː	-0.034593176
-1.2710704	dʒiː eɪtʃ tiː	-0.034593176
-1.100882	siː eɪtʃ tiː	-0.13018914
-0.81653214	aɪ tiː tiː	-0.034593176
-0.6555375	iː tiː tiː	-0.09593198
-0.52788806	ɐ tiː tiː	-0.07976617
-1.0764405	oʊ tiː tiː	-0.034593176
-1.2351906	<s> ɐ tiː	-0.034593176
-1.0711718	dʒiː ɐ tiː	-0.034593176
-1.1630371	iː ɐ tiː	-0.034593176
-1.0711718	dʌbəljuː ɐ tiː	-0.034593176
-0.9703127	piː ɐ tiː	-0.034593176
-0.86599463	ɛn ɐ tiː	-0.13018914
-1.191899	ɛm ɐ tiː	-0.034593176
-0.7804107	ɛs ɐ tiː	-0.034593176
-0.83704734	dʒeɪ kjuː tiː	-0.034593176
-0.83704734	diː kjuː tiː	-0.034593176
-1.7119055	<s> piː tiː	-0.034593176
-1.0933745	iː piː tiː	-0.034593176
-1.006044	oʊ juː tiː	-0.034593176
-1.1064423	ɹuːbaʊt juː tiː	-0.034593176
-0.8180214	aɪ ɛf tiː	-0.034593176
-0.8180214	ɐ ɛf tiː	-0.034593176
-0.8180214	diː ɛf tiː	-0.034593176
-0.8700285	siː ziː tiː	-0.034593176
-0.5859339	dʒiː oʊ tiː	-0.034593176
-0.8477013	ᵻɹeɪs oʊ tiː	-0.034593176
-1.3381438	eɪtʃ oʊ tiː	-0.034593176
-0.9877871	ziː oʊ tiː	-0.034593176
-1.2912338	ɛm oʊ tiː	-0.034593176
-1.4207709	<s> ɹuːbaʊt tiː	-0.034593206
-1.1074891	iː ɛn tiː	-0.034593176
-1.345866	ɐ ɛn tiː	-0.034593176
-0.80468476	juː ɛn tiː	-0.034593176
-1.2924472	oʊ ɛn tiː	-0.034593176
-0.80468476	ɛm ɛn tiː	-0.034593176
-1.5601078	ɐ ɛl tiː	-0.034593176
-0.5714083	eɪtʃ keɪ tiː	-0.034593176
-0.8215178	oʊ keɪ tiː	-0.034593176
-0.95203733	diː keɪ tiː	-0.034593176
-0.8845818	diː ɛm tiː	-0.034593176
-0.59631765	oʊ dʒeɪ tiː	-0.034593176
-0.57987535	<s> ɛs tiː	-0.25143144
-1.0163786	aɪ ɛs tiː	-0.034593176
-0.87059474	ɑːɹ ɛs tiː	-0.034593176
-0.7959657	ɐ ɛs tiː	-0.034593206
-0.87059474	oʊ ɛs tiː	-0.034593176
-0.5255531	fɪfθ ɛs tiː	-0.034593176
-1.0395052	ɹuːbaʊt siː tiː	-0.034593176
-0.8681426	ɛn ɛks viː	-0.034593176
-1.0983102	<s> aɪ viː	-0.034593176
-1.3909948	ɑːɹ aɪ viː	-0.034593176
-0.8586459	ziː aɪ viː	-0.034593176
-0.87868536	eɪtʃ dʒiː viː	-0.034593176
-1.3157868	ɛn dʒiː viː	-0.034593176
-0.43799424	ziː ɑːɹ viː	-0.034593176
-1.4143658	tiː iː viː	-0.034593176
-1.3141443	biː iː viː	-0.034593176
-1.0014595	ziː iː viː	-0.034593176
-1.4957027	ɛl iː viː	-0.034593176
-1.2811289	keɪ iː viː	-0.034593176
-0.6074955	biː waɪ viː	-0.034593176
-1.1659111	<s> ᵻɹeɪs viː	-0.034593206
-1.5680263	<s> tiː viː	-0.034593176
-1.3396455	<s> ɐ viː	-0.034593176
-1.2357758	ɑːɹ ɐ viː	-0.034593176
-1.2558894	iː ɐ viː	-0.034593176
-1.311779	eɪtʃ ɐ viː	-0.034593176
-0.71278167	diː ɐ viː	-0.09593198
-1.0449959	siː ɐ viː	-0.034593176
-1.8203142	<s> biː viː	-0.034593176
-1.047265	iː ɛf viː	-0.034593176
-1.5469549	<s> ɹuːbaʊt viː	-0.034593176
-0.89042264	ɛf keɪ viː	-0.034593176
-1.02792	ɹuːbaʊt ɛm viː	-0.034593176
-1.02792	ɛm ɛm viː	-0.034593176
-1.5923383	<s> dʒeɪ viː	-0.034593176
-0.5838311	ᵻɹeɪs ɛs viː	-0.034593176
-0.84386694	tiː ɛs viː	-0.034593176
-0.5838311	ɛs ɛs viː	-0.034593176
-1.4801421	ɑːɹ aɪ ɐ	-0.034593176
-1.4204895	ɛl aɪ ɐ	-0.034593176
-0.97910327	<s> dʒiː ɐ	-0.034593176
-0.9707323	ɑːɹ dʒiː ɐ	-0.034593176
-0.53032833	dʌbəljuː dʒiː ɐ	-0.034593176
-0.85920143	juː dʒiː ɐ	-0.034593176
-0.7509391	ɛl dʒiː ɐ	-0.034593176
-1.102557	<s> ɑːɹ ɐ	-0.034593176
-1.190205	iː ɑːɹ ɐ	-0.034593176
-0.9240943	tiː ɑːɹ ɐ	-0.034593176
-1.1642554	ɐ ɑːɹ ɐ	-0.034593176
-0.9750177	biː ɑːɹ ɐ	-0.034593176
-0.82713515	ɛf ɑːɹ ɐ	-0.034593176
-0.51499563	ɛn ɑːɹ ɐ	-0.034593176
-1.0229961	diː ɑːɹ ɐ	-0.034593176
-0.51499563	siː ɑːɹ ɐ	-0.034593176
-0.7253094	<s> iː ɐ	-0.008393401
-1.2942108	ɑːɹ iː ɐ	-0.034593176
-1.1745169	iː iː ɐ	-0.034593176
-0.7966301	eɪtʃ iː ɐ	-0.034593176
-1.182355	biː iː ɐ	-0.034593176
-1.1550224	keɪ iː ɐ	-0.034593176
-1.1012963	ɛm iː ɐ	-0.034593176
-0.9954155	dʒeɪ iː ɐ	-0.034593176
-0.5493574	<s> dʌbəljuː ɐ	-0.07976617
-0.76249385	ɑːɹ dʌbəljuː ɐ	-0.034593176
-1.1318066	iː dʌbəljuː ɐ	-0.034593176
-0.76249385	waɪ dʌbəljuː ɐ	-0.034593176
-0.87719834	ɛm waɪ ɐ	-0.034593176
-1.4520524	<s> ᵻɹeɪs ɐ	-0.034593176
-0.83255124	<s> eɪtʃ ɐ	-0.034593206
-0.4969656	tiː eɪtʃ ɐ	-0.06418054
-0.80300367	ɹuːbaʊt eɪtʃ ɐ	-0.034593176
-0.7065307	keɪ eɪtʃ ɐ	-0.034593176
-0.7065307	ɛs eɪtʃ ɐ	-0.034593176
-0.75220037	siː eɪtʃ ɐ	-0.008393401
-0.5030671	ɐpɔstɹəfi eɪtʃ ɐ	-0.034593176
-1.1582452	<s> tiː ɐ	-0.034593176
-0.7331076	<s> viː ɐ	-0.034593206
-0.7754334	aɪ viː ɐ	-0.034593176
-0.48902848	tiː viː ɐ	-0.034593176
